{"learner":{"attributes":{"best_iteration":"125","best_score":"0.7044699486559952"},"feature_names":["z180_ret_1d","z180_ret_2d","z180_ret_3d","z180_ret_5d","z180_ret_std_5","z180_ret_std_10","z180_ret_std_20","z180_rsi_14","z180_macd_hist","z180_bb_width_20","z180_hl_spread","z180_volume_z_5","z180_volume_z_20","z180_dow_sin","z180_dow_cos"],"feature_types":[],"gradient_booster":{"model":{"gbtree_model_param":{"num_parallel_tree":"1","num_trees":"426"},"iteration_indptr":[0,1,2,3,4,5,6,7,8,9,10,11,12,13,14,15,16,17,18,19,20,21,22,23,24,25,26,27,28,29,30,31,32,33,34,35,36,37,38,39,40,41,42,43,44,45,46,47,48,49,50,51,52,53,54,55,56,57,58,59,60,61,62,63,64,65,66,67,68,69,70,71,72,73,74,75,76,77,78,79,80,81,82,83,84,85,86,87,88,89,90,91,92,93,94,95,96,97,98,99,100,101,102,103,104,105,106,107,108,109,110,111,112,113,114,115,116,117,118,119,120,121,122,123,124,125,126,127,128,129,130,131,132,133,134,135,136,137,138,139,140,141,142,143,144,145,146,147,148,149,150,151,152,153,154,155,156,157,158,159,160,161,162,163,164,165,166,167,168,169,170,171,172,173,174,175,176,177,178,179,180,181,182,183,184,185,186,187,188,189,190,191,192,193,194,195,196,197,198,199,200,201,202,203,204,205,206,207,208,209,210,211,212,213,214,215,216,217,218,219,220,221,222,223,224,225,226,227,228,229,230,231,232,233,234,235,236,237,238,239,240,241,242,243,244,245,246,247,248,249,250,251,252,253,254,255,256,257,258,259,260,261,262,263,264,265,266,267,268,269,270,271,272,273,274,275,276,277,278,279,280,281,282,283,284,285,286,287,288,289,290,291,292,293,294,295,296,297,298,299,300,301,302,303,304,305,306,307,308,309,310,311,312,313,314,315,316,317,318,319,320,321,322,323,324,325,326,327,328,329,330,331,332,333,334,335,336,337,338,339,340,341,342,343,344,345,346,347,348,349,350,351,352,353,354,355,356,357,358,359,360,361,362,363,364,365,366,367,368,369,370,371,372,373,374,375,376,377,378,379,380,381,382,383,384,385,386,387,388,389,390,391,392,393,394,395,396,397,398,399,400,401,402,403,404,405,406,407,408,409,410,411,412,413,414,415,416,417,418,419,420,421,422,423,424,425,426],"tree_info":[0,0,0,0,0,0,0,0,0,0,0,0,0,0,0,0,0,0,0,0,0,0,0,0,0,0,0,0,0,0,0,0,0,0,0,0,0,0,0,0,0,0,0,0,0,0,0,0,0,0,0,0,0,0,0,0,0,0,0,0,0,0,0,0,0,0,0,0,0,0,0,0,0,0,0,0,0,0,0,0,0,0,0,0,0,0,0,0,0,0,0,0,0,0,0,0,0,0,0,0,0,0,0,0,0,0,0,0,0,0,0,0,0,0,0,0,0,0,0,0,0,0,0,0,0,0,0,0,0,0,0,0,0,0,0,0,0,0,0,0,0,0,0,0,0,0,0,0,0,0,0,0,0,0,0,0,0,0,0,0,0,0,0,0,0,0,0,0,0,0,0,0,0,0,0,0,0,0,0,0,0,0,0,0,0,0,0,0,0,0,0,0,0,0,0,0,0,0,0,0,0,0,0,0,0,0,0,0,0,0,0,0,0,0,0,0,0,0,0,0,0,0,0,0,0,0,0,0,0,0,0,0,0,0,0,0,0,0,0,0,0,0,0,0,0,0,0,0,0,0,0,0,0,0,0,0,0,0,0,0,0,0,0,0,0,0,0,0,0,0,0,0,0,0,0,0,0,0,0,0,0,0,0,0,0,0,0,0,0,0,0,0,0,0,0,0,0,0,0,0,0,0,0,0,0,0,0,0,0,0,0,0,0,0,0,0,0,0,0,0,0,0,0,0,0,0,0,0,0,0,0,0,0,0,0,0,0,0,0,0,0,0,0,0,0,0,0,0,0,0,0,0,0,0,0,0,0,0,0,0,0,0,0,0,0,0,0,0,0,0,0,0,0,0,0,0,0,0,0,0,0,0,0,0,0,0,0,0,0,0,0,0,0,0,0,0,0,0,0,0,0,0,0,0,0,0,0,0,0,0,0,0,0,0,0,0,0,0,0,0,0,0,0,0,0,0],"trees":[{"base_weights":[8.334683E-2,-7.5529194E-1,6.652381E-1,5.923783E-3,-2.3424758E-2,-2.925616E-4,1.540207E-2],"categories":[],"categories_nodes":[],"categories_segments":[],"categories_sizes":[],"default_left":[0,0,0,0,0,0,0],"id":0,"left_children":[1,3,5,-1,-1,-1,-1],"loss_changes":[8.8581215E1,3.6425907E1,8.506153E0,0E0,0E0,0E0,0E0],"parents":[2147483647,0,0,1,1,2,2],"right_children":[2,4,6,-1,-1,-1,-1],"split_conditions":[-4.8398778E-1,-3.4201485E-1,-7.4745405E-1,5.923783E-3,-2.3424758E-2,-2.925616E-4,1.540207E-2],"split_indices":[10,7,9,0,0,0,0],"split_type":[0,0,0,0,0,0,0],"sum_hessian":[1.6343816E2,6.5146545E1,9.82916E1,1.8518988E1,4.6627563E1,1.2895526E1,8.539608E1],"tree_param":{"num_deleted":"0","num_feature":"15","num_nodes":"7","size_leaf_vector":"1"}},{"base_weights":[-6.1487727E-2,-7.4670005E-1,4.1409E-1,3.075646E-3,-1.9054336E-2,1.6894346E-2,2.5349553E-3],"categories":[],"categories_nodes":[],"categories_segments":[],"categories_sizes":[],"default_left":[0,0,0,0,0,0,0],"id":1,"left_children":[1,3,5,-1,-1,-1,-1],"loss_changes":[5.9025326E1,1.5913265E1,1.1206543E1,0E0,0E0,0E0,0E0],"parents":[2147483647,0,0,1,1,2,2],"right_children":[2,4,6,-1,-1,-1,-1],"split_conditions":[-4.8398778E-1,-1.0334426E0,-3.5822514E-1,3.075646E-3,-1.9054336E-2,1.6894346E-2,2.5349553E-3],"split_indices":[10,12,8,0,0,0,0],"split_type":[0,0,0,0,0,0,0],"sum_hessian":[1.625703E2,6.5364716E1,9.720558E1,1.1691235E1,5.367348E1,3.0523428E1,6.668215E1],"tree_param":{"num_deleted":"0","num_feature":"15","num_nodes":"7","size_leaf_vector":"1"}},{"base_weights":[9.1486044E-2,-1.8216962E-2,3.6218897E-1,1.0975094E-2,-7.119756E-3],"categories":[],"categories_nodes":[],"categories_segments":[],"categories_sizes":[],"default_left":[0,0,0,0,0],"id":2,"left_children":[1,-1,3,-1,-1],"loss_changes":[4.5666267E1,0E0,1.973306E1,0E0,0E0],"parents":[2147483647,0,0,2,2],"right_children":[2,-1,4,-1,-1],"split_conditions":[-9.595326E-1,-1.8216962E-2,1.3023654E0,1.0975094E-2,-7.119756E-3],"split_indices":[6,0,6,0,0],"split_type":[0,0,0,0,0],"sum_hessian":[1.5038182E2,2.6666536E1,1.2371528E2,1.0099474E2,2.2720531E1],"tree_param":{"num_deleted":"0","num_feature":"15","num_nodes":"5","size_leaf_vector":"1"}},{"base_weights":[1.11030586E-1,-5.4680014E-1,5.557811E-1,-1.7110083E-2,8.288979E-3,-1.2233122E-2,1.5738422E-2],"categories":[],"categories_nodes":[],"categories_segments":[],"categories_sizes":[],"default_left":[0,0,0,0,0,0,0],"id":3,"left_children":[1,3,5,-1,-1,-1,-1],"loss_changes":[5.2462097E1,2.5049963E1,3.331501E1,0E0,0E0,0E0,0E0],"parents":[2147483647,0,0,1,1,2,2],"right_children":[2,4,6,-1,-1,-1,-1],"split_conditions":[-4.2756245E-1,2.2165038E-1,-7.1900386E-1,-1.7110083E-2,8.288979E-3,-1.2233122E-2,1.5738422E-2],"split_indices":[5,3,9,0,0,0,0],"split_type":[0,0,0,0,0,0,0],"sum_hessian":[1.6093507E2,6.317677E1,9.775831E1,4.93564E1,1.382037E1,1.299264E1,8.476567E1],"tree_param":{"num_deleted":"0","num_feature":"15","num_nodes":"7","size_leaf_vector":"1"}},{"base_weights":[1.0643784E-1,-7.6213664E-1,3.3442304E-1,-1.4875336E-4,-2.0545868E-2,1.8075047E-2,2.8613375E-3],"categories":[],"categories_nodes":[],"categories_segments":[],"categories_sizes":[],"default_left":[0,0,0,0,0,0,0],"id":4,"left_children":[1,3,5,-1,-1,-1,-1],"loss_changes":[3.5623672E1,6.355913E0,1.3281171E1,0E0,0E0,0E0,0E0],"parents":[2147483647,0,0,1,1,2,2],"right_children":[2,4,6,-1,-1,-1,-1],"split_conditions":[-1.0257173E0,-7.818298E-1,-7.6937973E-1,-1.4875336E-4,-2.0545868E-2,1.8075047E-2,2.8613375E-3],"split_indices":[6,5,8,0,0,0,0],"split_type":[0,0,0,0,0,0,0],"sum_hessian":[1.614734E2,2.8275873E1,1.3319754E2,1.0737687E1,1.7538187E1,2.3763565E1,1.09433975E2],"tree_param":{"num_deleted":"0","num_feature":"15","num_nodes":"7","size_leaf_vector":"1"}},{"base_weights":[2.3056312E-1,-5.1193756E-1,6.797982E-1,-1.8435095E-3,-1.7987046E-2,1.7177278E-2,-3.2615392E-3],"categories":[],"categories_nodes":[],"categories_segments":[],"categories_sizes":[],"default_left":[0,0,0,0,0,0,0],"id":5,"left_children":[1,3,5,-1,-1,-1,-1],"loss_changes":[5.6519337E1,8.741552E0,1.7669975E1,0E0,0E0,0E0,0E0],"parents":[2147483647,0,0,1,1,2,2],"right_children":[2,4,6,-1,-1,-1,-1],"split_conditions":[-4.2060208E-1,2.6052076E-1,1.6336873E0,-1.8435095E-3,-1.7987046E-2,1.7177278E-2,-3.2615392E-3],"split_indices":[9,8,6,0,0,0,0],"split_type":[0,0,0,0,0,0,0],"sum_hessian":[1.5055081E2,5.5438778E1,9.511202E1,3.3194847E1,2.2243933E1,7.9284096E1,1.58279295E1],"tree_param":{"num_deleted":"0","num_feature":"15","num_nodes":"7","size_leaf_vector":"1"}},{"base_weights":[-0E0,-4.3714675E-1,4.420264E-1,2.9248905E-3,-1.4238219E-2,1.1841776E-2,-5.412787E-3],"categories":[],"categories_nodes":[],"categories_segments":[],"categories_sizes":[],"default_left":[0,0,0,0,0,0,0],"id":6,"left_children":[1,3,5,-1,-1,-1,-1],"loss_changes":[3.5095737E1,1.6147984E1,1.1416723E1,0E0,0E0,0E0,0E0],"parents":[2147483647,0,0,1,1,2,2],"right_children":[2,4,6,-1,-1,-1,-1],"split_conditions":[-1.8054101E-1,-3.9278463E-1,1.4865791E0,2.9248905E-3,-1.4238219E-2,1.1841776E-2,-5.412787E-3],"split_indices":[10,7,0,0,0,0,0],"split_type":[0,0,0,0,0,0,0],"sum_hessian":[1.6362741E2,8.236467E1,8.126274E1,2.6554092E1,5.581058E1,6.954492E1,1.1717814E1],"tree_param":{"num_deleted":"0","num_feature":"15","num_nodes":"7","size_leaf_vector":"1"}},{"base_weights":[-5.6929264E-2,-2.064887E-2,2.9084578E-1,9.814326E-3,-9.236048E-3],"categories":[],"categories_nodes":[],"categories_segments":[],"categories_sizes":[],"default_left":[0,0,0,0,0],"id":7,"left_children":[1,-1,3,-1,-1],"loss_changes":[6.1642357E1,0E0,2.2034874E1,0E0,0E0],"parents":[2147483647,0,0,2,2],"right_children":[2,-1,4,-1,-1],"split_conditions":[-9.595326E-1,-2.064887E-2,1.3023654E0,9.814326E-3,-9.236048E-3],"split_indices":[6,0,6,0,0],"split_type":[0,0,0,0,0],"sum_hessian":[1.6254483E2,3.8817677E1,1.2372715E2,1.0128977E2,2.243738E1],"tree_param":{"num_deleted":"0","num_feature":"15","num_nodes":"5","size_leaf_vector":"1"}},{"base_weights":[-8.2724266E-2,-7.1673745E-1,4.1520044E-1,-1.928844E-2,1.2133685E-3,-8.425237E-3,1.1719752E-2],"categories":[],"categories_nodes":[],"categories_segments":[],"categories_sizes":[],"default_left":[0,0,0,0,0,0,0],"id":8,"left_children":[1,3,5,-1,-1,-1,-1],"loss_changes":[5.964762E1,1.7440258E1,1.7437529E1,0E0,0E0,0E0,0E0],"parents":[2147483647,0,0,1,1,2,2],"right_children":[2,4,6,-1,-1,-1,-1],"split_conditions":[-4.901422E-1,-3.6770275E-1,-7.9987156E-1,-1.928844E-2,1.2133685E-3,-8.425237E-3,1.1719752E-2],"split_indices":[10,5,6,0,0,0,0],"split_type":[0,0,0,0,0,0,0],"sum_hessian":[1.7050404E2,7.4146164E1,9.635787E1,5.556439E1,1.858178E1,1.3107395E1,8.325047E1],"tree_param":{"num_deleted":"0","num_feature":"15","num_nodes":"7","size_leaf_vector":"1"}},{"base_weights":[8.860715E-2,-4.689176E-1,4.484635E-1,-1.3525124E-2,3.0211033E-3,-2.0896823E-3,1.3004934E-2],"categories":[],"categories_nodes":[],"categories_segments":[],"categories_sizes":[],"default_left":[0,0,0,0,0,0,0],"id":9,"left_children":[1,3,5,-1,-1,-1,-1],"loss_changes":[3.450334E1,1.0071088E1,1.2820793E1,0E0,0E0,0E0,0E0],"parents":[2147483647,0,0,1,1,2,2],"right_children":[2,4,6,-1,-1,-1,-1],"split_conditions":[-4.111166E-1,5.1622444E-1,-3.6844522E-1,-1.3525124E-2,3.0211033E-3,-2.0896823E-3,1.3004934E-2],"split_indices":[9,12,5,0,0,0,0],"split_type":[0,0,0,0,0,0,0],"sum_hessian":[1.5364445E2,5.8109306E1,9.553514E1,4.4142555E1,1.3966752E1,2.5377367E1,7.0157776E1],"tree_param":{"num_deleted":"0","num_feature":"15","num_nodes":"7","size_leaf_vector":"1"}},{"base_weights":[1.7740497E-1,-3.8451138E-1,4.9882552E-1,6.186228E-3,-1.1390226E-2,-8.013149E-3,1.3642312E-2],"categories":[],"categories_nodes":[],"categories_segments":[],"categories_sizes":[],"default_left":[0,0,0,0,0,0,0],"id":10,"left_children":[1,3,5,-1,-1,-1,-1],"loss_changes":[3.185156E1,1.0113384E1,2.1000237E1,0E0,0E0,0E0,0E0],"parents":[2147483647,0,0,1,1,2,2],"right_children":[2,4,6,-1,-1,-1,-1],"split_conditions":[-4.3703648E-1,-7.8371173E-1,-8.0613333E-1,6.186228E-3,-1.1390226E-2,-8.013149E-3,1.3642312E-2],"split_indices":[9,3,10,0,0,0,0],"split_type":[0,0,0,0,0,0,0],"sum_hessian":[1.5716336E2,5.541229E1,1.01751076E2,9.2538185E0,4.615847E1,1.449395E1,8.7257126E1],"tree_param":{"num_deleted":"0","num_feature":"15","num_nodes":"7","size_leaf_vector":"1"}},{"base_weights":[-9.812348E-2,-6.7380214E-1,3.302151E-1,1.4478298E-3,-2.0354573E-2,-1.1137145E-3,1.3232086E-2],"categories":[],"categories_nodes":[],"categories_segments":[],"categories_sizes":[],"default_left":[0,0,0,0,0,0,0],"id":11,"left_children":[1,3,5,-1,-1,-1,-1],"loss_changes":[4.4613632E1,2.1391026E1,1.4151304E1,0E0,0E0,0E0,0E0],"parents":[2147483647,0,0,1,1,2,2],"right_children":[2,4,6,-1,-1,-1,-1],"split_conditions":[-4.4229102E-1,-3.0054498E-1,3.556902E-2,1.4478298E-3,-2.0354573E-2,-1.1137145E-3,1.3232086E-2],"split_indices":[10,7,9,0,0,0,0],"split_type":[0,0,0,0,0,0,0],"sum_hessian":[1.6241142E2,6.80844E1,9.432703E1,2.2804686E1,4.5279713E1,4.564442E1,4.8682606E1],"tree_param":{"num_deleted":"0","num_feature":"15","num_nodes":"7","size_leaf_vector":"1"}},{"base_weights":[-1.2819183E-1,-5.5083406E-1,5.178167E-1,-2.2493035E-3,-2.2811782E-2,1.4618635E-2,-8.9523307E-4],"categories":[],"categories_nodes":[],"categories_segments":[],"categories_sizes":[],"default_left":[0,0,0,0,0,0,0],"id":12,"left_children":[1,3,5,-1,-1,-1,-1],"loss_changes":[4.9372383E1,2.5734467E1,9.547541E0,0E0,0E0,0E0,0E0],"parents":[2147483647,0,0,1,1,2,2],"right_children":[2,4,6,-1,-1,-1,-1],"split_conditions":[-2.4320649E-2,3.1898007E-1,1.2142566E0,-2.2493035E-3,-2.2811782E-2,1.4618635E-2,-8.9523307E-4],"split_indices":[10,12,11,0,0,0,0],"split_type":[0,0,0,0,0,0,0],"sum_hessian":[1.623079E2,9.985383E1,6.2454086E1,6.4398155E1,3.5455673E1,4.4631214E1,1.7822872E1],"tree_param":{"num_deleted":"0","num_feature":"15","num_nodes":"7","size_leaf_vector":"1"}},{"base_weights":[1.1754075E-1,-7.520166E-1,3.331639E-1,-1.5284496E-4,-1.8804908E-2,-4.875767E-3,1.1828333E-2],"categories":[],"categories_nodes":[],"categories_segments":[],"categories_sizes":[],"default_left":[0,0,0,0,0,0,0],"id":13,"left_children":[1,3,5,-1,-1,-1,-1],"loss_changes":[3.22428E1,3.7603645E0,2.2074177E1,0E0,0E0,0E0,0E0],"parents":[2147483647,0,0,1,1,2,2],"right_children":[2,4,6,-1,-1,-1,-1],"split_conditions":[-1.0257173E0,-3.7896174E-1,-3.8714486E-1,-1.5284496E-4,-1.8804908E-2,-4.875767E-3,1.1828333E-2],"split_indices":[6,3,9,0,0,0,0],"split_type":[0,0,0,0,0,0,0],"sum_hessian":[1.531722E2,2.5064888E1,1.281073E2,8.021389E0,1.7043499E1,3.857047E1,8.9536835E1],"tree_param":{"num_deleted":"0","num_feature":"15","num_nodes":"7","size_leaf_vector":"1"}},{"base_weights":[-3.2839846E-2,-6.6528E-1,4.0657482E-1,4.8388606E-3,-2.0397052E-2,-7.582914E-3,1.2238092E-2],"categories":[],"categories_nodes":[],"categories_segments":[],"categories_sizes":[],"default_left":[0,0,0,0,0,0,0],"id":14,"left_children":[1,3,5,-1,-1,-1,-1],"loss_changes":[4.9034206E1,2.6387165E1,1.89451E1,0E0,0E0,0E0,0E0],"parents":[2147483647,0,0,1,1,2,2],"right_children":[2,4,6,-1,-1,-1,-1],"split_conditions":[-4.901422E-1,-3.1771588E-1,-7.4745405E-1,4.8388606E-3,-2.0397052E-2,-7.582914E-3,1.2238092E-2],"split_indices":[10,7,9,0,0,0,0],"split_type":[0,0,0,0,0,0,0],"sum_hessian":[1.5775261E2,6.3708275E1,9.4044334E1,1.7913263E1,4.5795013E1,1.6896984E1,7.714735E1],"tree_param":{"num_deleted":"0","num_feature":"15","num_nodes":"7","size_leaf_vector":"1"}},{"base_weights":[-1.07404314E-1,3.4310752E-1,-5.896243E-1,-4.7701034E-3,1.0690555E-2,-1.8007975E-2,1.2815204E-2],"categories":[],"categories_nodes":[],"categories_segments":[],"categories_sizes":[],"default_left":[0,0,0,0,0,0,0],"id":15,"left_children":[1,3,5,-1,-1,-1,-1],"loss_changes":[3.9883255E1,1.1976685E1,3.9276382E1,0E0,0E0,0E0,0E0],"parents":[2147483647,0,0,1,1,2,2],"right_children":[2,4,6,-1,-1,-1,-1],"split_conditions":[5.779196E-1,-8.2058436E-1,1.9525185E0,-4.7701034E-3,1.0690555E-2,-1.8007975E-2,1.2815204E-2],"split_indices":[8,9,9,0,0,0,0],"split_type":[0,0,0,0,0,0,0],"sum_hessian":[1.6507007E2,8.5611E1,7.9459076E1,1.9357407E1,6.625359E1,6.601207E1,1.344701E1],"tree_param":{"num_deleted":"0","num_feature":"15","num_nodes":"7","size_leaf_vector":"1"}},{"base_weights":[-1.3049039E-1,-8.551981E-1,1.3723154E-1,1.1190576E-4,-2.2809833E-2,6.591938E-3,-1.0799741E-2],"categories":[],"categories_nodes":[],"categories_segments":[],"categories_sizes":[],"default_left":[0,0,0,0,0,0,0],"id":16,"left_children":[1,3,5,-1,-1,-1,-1],"loss_changes":[3.6578617E1,1.362941E1,1.9335482E1,0E0,0E0,0E0,0E0],"parents":[2147483647,0,0,1,1,2,2],"right_children":[2,4,6,-1,-1,-1,-1],"split_conditions":[-9.595326E-1,-6.2472904E-1,1.3023654E0,1.1190576E-4,-2.2809833E-2,6.591938E-3,-1.0799741E-2],"split_indices":[6,4,6,0,0,0,0],"split_type":[0,0,0,0,0,0,0],"sum_hessian":[1.7038554E2,4.1643925E1,1.2874162E2,1.1690241E1,2.9953682E1,1.0500977E2,2.3731846E1],"tree_param":{"num_deleted":"0","num_feature":"15","num_nodes":"7","size_leaf_vector":"1"}},{"base_weights":[6.5210044E-2,-1.678196E-2,3.1798875E-1,9.534081E-3,-7.955676E-3],"categories":[],"categories_nodes":[],"categories_segments":[],"categories_sizes":[],"default_left":[0,0,0,0,0],"id":17,"left_children":[1,-1,3,-1,-1],"loss_changes":[3.868729E1,0E0,1.6921288E1,0E0,0E0],"parents":[2147483647,0,0,2,2],"right_children":[2,-1,4,-1,-1],"split_conditions":[-1.0257173E0,-1.678196E-2,1.3547806E0,9.534081E-3,-7.955676E-3],"split_indices":[6,0,6,0,0],"split_type":[0,0,0,0,0],"sum_hessian":[1.5201762E2,2.7785248E1,1.2423237E2,1.0528876E2,1.8943617E1],"tree_param":{"num_deleted":"0","num_feature":"15","num_nodes":"5","size_leaf_vector":"1"}},{"base_weights":[4.5129094E-2,-7.823325E-1,3.1808406E-1,2.3707617E-3,-2.0933691E-2,-6.067138E-3,1.2157164E-2],"categories":[],"categories_nodes":[],"categories_segments":[],"categories_sizes":[],"default_left":[0,0,0,0,0,0,0],"id":18,"left_children":[1,3,5,-1,-1,-1,-1],"loss_changes":[4.129698E1,1.2784452E1,2.697436E1,0E0,0E0,0E0,0E0],"parents":[2147483647,0,0,1,1,2,2],"right_children":[2,4,6,-1,-1,-1,-1],"split_conditions":[-9.595326E-1,-8.931301E-1,-3.8714486E-1,2.3707617E-3,-2.0933691E-2,-6.067138E-3,1.2157164E-2],"split_indices":[6,5,9,0,0,0,0],"split_type":[0,0,0,0,0,0,0],"sum_hessian":[1.6598294E2,3.609676E1,1.2988618E2,8.457251E0,2.763951E1,4.007331E1,8.9812874E1],"tree_param":{"num_deleted":"0","num_feature":"15","num_nodes":"7","size_leaf_vector":"1"}},{"base_weights":[-5.3064585E-2,-6.398591E-1,2.658495E-1,1.3082767E-4,-1.5849002E-2,-9.336906E-3,8.58971E-3],"categories":[],"categories_nodes":[],"categories_segments":[],"categories_sizes":[],"default_left":[0,0,0,0,0,0,0],"id":19,"left_children":[1,3,5,-1,-1,-1,-1],"loss_changes":[3.3521408E1,7.0697556E0,1.552071E1,0E0,0E0,0E0,0E0],"parents":[2147483647,0,0,1,1,2,2],"right_children":[2,4,6,-1,-1,-1,-1],"split_conditions":[-5.337197E-1,-3.0747786E-1,-7.9987156E-1,1.3082767E-4,-1.5849002E-2,-9.336906E-3,8.58971E-3],"split_indices":[10,8,6,0,0,0,0],"split_type":[0,0,0,0,0,0,0],"sum_hessian":[1.5994809E2,5.42351E1,1.0571299E2,1.0751349E1,4.348375E1,1.5139015E1,9.0573975E1],"tree_param":{"num_deleted":"0","num_feature":"15","num_nodes":"7","size_leaf_vector":"1"}},{"base_weights":[-2.150547E-2,-2.7268592E-1,6.6722834E-1,3.5528983E-3,-1.9263918E-2,1.7189838E-2,2.1302162E-3],"categories":[],"categories_nodes":[],"categories_segments":[],"categories_sizes":[],"default_left":[0,0,0,0,0,0,0],"id":20,"left_children":[1,3,5,-1,-1,-1,-1],"loss_changes":[3.0529146E1,4.3216667E1,3.2540112E0,0E0,0E0,0E0,0E0],"parents":[2147483647,0,0,1,1,2,2],"right_children":[2,4,6,-1,-1,-1,-1],"split_conditions":[7.636666E-1,5.779196E-1,2.6347092E-1,3.5528983E-3,-1.9263918E-2,1.7189838E-2,2.1302162E-3],"split_indices":[3,8,5,0,0,0,0],"split_type":[0,0,0,0,0,0,0],"sum_hessian":[1.6028783E2,1.2250061E2,3.778721E1,7.731462E1,4.518599E1,2.3239603E1,1.45476055E1],"tree_param":{"num_deleted":"0","num_feature":"15","num_nodes":"7","size_leaf_vector":"1"}},{"base_weights":[-1.02619156E-1,-7.64477E-1,1.253639E-1,1.5854554E-3,-1.9935802E-2,-7.1365414E-3,6.6687767E-3],"categories":[],"categories_nodes":[],"categories_segments":[],"categories_sizes":[],"default_left":[0,0,0,0,0,0,0],"id":21,"left_children":[1,3,5,-1,-1,-1,-1],"loss_changes":[2.856333E1,1.1104187E1,1.5094224E1,0E0,0E0,0E0,0E0],"parents":[2147483647,0,0,1,1,2,2],"right_children":[2,4,6,-1,-1,-1,-1],"split_conditions":[-9.595326E-1,-3.6592546E-1,-4.111166E-1,1.5854554E-3,-1.9935802E-2,-7.1365414E-3,6.6687767E-3],"split_indices":[6,3,9,0,0,0,0],"split_type":[0,0,0,0,0,0,0],"sum_hessian":[1.7034422E2,3.9340908E1,1.3100331E2,8.844068E0,3.0496843E1,3.6101643E1,9.4901665E1],"tree_param":{"num_deleted":"0","num_feature":"15","num_nodes":"7","size_leaf_vector":"1"}},{"base_weights":[5.9169933E-2,-4.096421E-1,3.7107357E-1,-1.4620956E-2,1.5303137E-3,1.3612949E-2,2.4390363E-3],"categories":[],"categories_nodes":[],"categories_segments":[],"categories_sizes":[],"default_left":[0,0,0,0,0,0,0],"id":22,"left_children":[1,3,5,-1,-1,-1,-1],"loss_changes":[2.3366995E1,1.1034314E1,5.892831E0,0E0,0E0,0E0,0E0],"parents":[2147483647,0,0,1,1,2,2],"right_children":[2,4,6,-1,-1,-1,-1],"split_conditions":[-4.111166E-1,1.8047541E-1,-1.1973854E-1,-1.4620956E-2,1.5303137E-3,1.3612949E-2,2.4390363E-3],"split_indices":[9,11,7,0,0,0,0],"split_type":[0,0,0,0,0,0,0],"sum_hessian":[1.4171036E2,5.4207096E1,8.750326E1,3.1142061E1,2.3065035E1,3.027629E1,5.7226963E1],"tree_param":{"num_deleted":"0","num_feature":"15","num_nodes":"7","size_leaf_vector":"1"}},{"base_weights":[-1.3356104E-1,-7.823225E-1,2.2267404E-1,-1.0257367E-3,-2.0321082E-2,-7.875661E-3,1.0224492E-2],"categories":[],"categories_nodes":[],"categories_segments":[],"categories_sizes":[],"default_left":[0,0,0,0,0,0,0],"id":23,"left_children":[1,3,5,-1,-1,-1,-1],"loss_changes":[4.0514423E1,9.034222E0,2.2070932E1,0E0,0E0,0E0,0E0],"parents":[2147483647,0,0,1,1,2,2],"right_children":[2,4,6,-1,-1,-1,-1],"split_conditions":[-5.394014E-1,-3.1771588E-1,-4.3703648E-1,-1.0257367E-3,-2.0321082E-2,-7.875661E-3,1.0224492E-2],"split_indices":[10,7,9,0,0,0,0],"split_type":[0,0,0,0,0,0,0],"sum_hessian":[1.5709702E2,5.286454E1,1.04232475E2,1.650272E1,3.6361824E1,3.1081781E1,7.3150696E1],"tree_param":{"num_deleted":"0","num_feature":"15","num_nodes":"7","size_leaf_vector":"1"}},{"base_weights":[4.1379184E-2,-5.412061E-1,3.6589435E-1,-1.7093844E-3,-1.8125592E-2,-8.621983E-3,9.897379E-3],"categories":[],"categories_nodes":[],"categories_segments":[],"categories_sizes":[],"default_left":[0,0,0,0,0,0,0],"id":24,"left_children":[1,3,5,-1,-1,-1,-1],"loss_changes":[3.2296967E1,8.393932E0,1.3365921E1,0E0,0E0,0E0,0E0],"parents":[2147483647,0,0,1,1,2,2],"right_children":[2,4,6,-1,-1,-1,-1],"split_conditions":[-5.394014E-1,5.506716E-1,-7.9987156E-1,-1.7093844E-3,-1.8125592E-2,-8.621983E-3,9.897379E-3],"split_indices":[10,8,6,0,0,0,0],"split_type":[0,0,0,0,0,0,0],"sum_hessian":[1.5333167E2,5.1602036E1,1.0172962E2,2.9109549E1,2.2492485E1,1.0153069E1,9.157655E1],"tree_param":{"num_deleted":"0","num_feature":"15","num_nodes":"7","size_leaf_vector":"1"}},{"base_weights":[-5.1319025E-2,-5.4314697E-1,3.4961027E-1,7.4495887E-3,-1.3991773E-2,1.3320738E-3,1.7792216E-2],"categories":[],"categories_nodes":[],"categories_segments":[],"categories_sizes":[],"default_left":[0,0,0,0,0,0,0],"id":25,"left_children":[1,3,5,-1,-1,-1,-1],"loss_changes":[3.6394665E1,1.4590027E1,1.3902967E1,0E0,0E0,0E0,0E0],"parents":[2147483647,0,0,1,1,2,2],"right_children":[2,4,6,-1,-1,-1,-1],"split_conditions":[-3.6770275E-1,-5.4805505E-1,1.1412395E0,7.4495887E-3,-1.3991773E-2,1.3320738E-3,1.7792216E-2],"split_indices":[5,3,7,0,0,0,0],"split_type":[0,0,0,0,0,0,0],"sum_hessian":[1.6591975E2,7.4199486E1,9.172026E1,8.0811615E0,6.6118324E1,6.802909E1,2.3691168E1],"tree_param":{"num_deleted":"0","num_feature":"15","num_nodes":"7","size_leaf_vector":"1"}},{"base_weights":[-5.180246E-2,4.138259E-1,-5.538975E-1,-4.373647E-4,1.0322081E-2,-1.739518E-2,1.7017914E-2],"categories":[],"categories_nodes":[],"categories_segments":[],"categories_sizes":[],"default_left":[0,0,0,0,0,0,0],"id":26,"left_children":[1,3,5,-1,-1,-1,-1],"loss_changes":[4.300491E1,4.814415E0,4.6106575E1,0E0,0E0,0E0,0E0],"parents":[2147483647,0,0,1,1,2,2],"right_children":[2,4,6,-1,-1,-1,-1],"split_conditions":[5.66299E-1,-7.9855317E-1,2.3723013E0,-4.373647E-4,1.0322081E-2,-1.739518E-2,1.7017914E-2],"split_indices":[8,5,8,0,0,0,0],"split_type":[0,0,0,0,0,0,0],"sum_hessian":[1.655239E2,8.566823E1,7.985567E1,1.5773444E1,6.989478E1,6.8576225E1,1.1279441E1],"tree_param":{"num_deleted":"0","num_feature":"15","num_nodes":"7","size_leaf_vector":"1"}},{"base_weights":[-1.032837E-1,-5.88029E-1,2.4875472E-1,-1.2558715E-3,-2.3335205E-2,-7.653161E-3,7.975821E-3],"categories":[],"categories_nodes":[],"categories_segments":[],"categories_sizes":[],"default_left":[0,0,0,0,0,0,0],"id":27,"left_children":[1,3,5,-1,-1,-1,-1],"loss_changes":[3.2093613E1,2.2097227E1,1.1664083E1,0E0,0E0,0E0,0E0],"parents":[2147483647,0,0,1,1,2,2],"right_children":[2,4,6,-1,-1,-1,-1],"split_conditions":[-4.8398778E-1,1.4712652E0,-7.4745405E-1,-1.2558715E-3,-2.3335205E-2,-7.653161E-3,7.975821E-3],"split_indices":[10,7,9,0,0,0,0],"split_type":[0,0,0,0,0,0,0],"sum_hessian":[1.6936534E2,6.990957E1,9.945577E1,4.2784428E1,2.7125147E1,1.51364765E1,8.43193E1],"tree_param":{"num_deleted":"0","num_feature":"15","num_nodes":"7","size_leaf_vector":"1"}},{"base_weights":[1.08687235E-2,-5.713412E-1,4.0292764E-1,6.3010224E-4,-1.3475771E-2,-1.3976384E-2,1.1441167E-2],"categories":[],"categories_nodes":[],"categories_segments":[],"categories_sizes":[],"default_left":[0,0,0,0,0,0,0],"id":28,"left_children":[1,3,5,-1,-1,-1,-1],"loss_changes":[3.910842E1,5.050701E0,2.2795797E1,0E0,0E0,0E0,0E0],"parents":[2147483647,0,0,1,1,2,2],"right_children":[2,4,6,-1,-1,-1,-1],"split_conditions":[-4.111166E-1,-7.8371173E-1,-9.8708737E-1,6.3010224E-4,-1.3475771E-2,-1.3976384E-2,1.1441167E-2],"split_indices":[9,3,6,0,0,0,0],"split_type":[0,0,0,0,0,0,0],"sum_hessian":[1.5399332E2,5.9286423E1,9.47069E1,8.099061E0,5.1187363E1,8.065808E0,8.664109E1],"tree_param":{"num_deleted":"0","num_feature":"15","num_nodes":"7","size_leaf_vector":"1"}},{"base_weights":[8.807889E-2,-3.7105012E-1,4.1502985E-1,1.4626167E-3,-1.2281916E-2,-5.412151E-3,1.1312818E-2],"categories":[],"categories_nodes":[],"categories_segments":[],"categories_sizes":[],"default_left":[0,0,0,0,0,0,0],"id":29,"left_children":[1,3,5,-1,-1,-1,-1],"loss_changes":[2.5345804E1,8.474523E0,1.1851912E1,0E0,0E0,0E0,0E0],"parents":[2147483647,0,0,1,1,2,2],"right_children":[2,4,6,-1,-1,-1,-1],"split_conditions":[-4.111166E-1,-2.8215492E-1,-7.0261955E-1,1.4626167E-3,-1.2281916E-2,-5.412151E-3,1.1312818E-2],"split_indices":[9,2,5,0,0,0,0],"split_type":[0,0,0,0,0,0,0],"sum_hessian":[1.5031935E2,6.0744663E1,8.9574684E1,2.2253159E1,3.8491505E1,1.36454315E1,7.592925E1],"tree_param":{"num_deleted":"0","num_feature":"15","num_nodes":"7","size_leaf_vector":"1"}},{"base_weights":[1.4391461E-2,-4.5631886E-1,3.384119E-1,4.9743047E-3,-1.616867E-2,1.3914638E-2,2.527599E-3],"categories":[],"categories_nodes":[],"categories_segments":[],"categories_sizes":[],"default_left":[0,0,0,0,0,0,0],"id":30,"left_children":[1,3,5,-1,-1,-1,-1],"loss_changes":[2.7078115E1,2.013393E1,6.465995E0,0E0,0E0,0E0,0E0],"parents":[2147483647,0,0,1,1,2,2],"right_children":[2,4,6,-1,-1,-1,-1],"split_conditions":[-4.901422E-1,-6.9567907E-1,-7.6937973E-1,4.9743047E-3,-1.616867E-2,1.3914638E-2,2.527599E-3],"split_indices":[10,11,8,0,0,0,0],"split_type":[0,0,0,0,0,0,0],"sum_hessian":[1.6019911E2,6.255842E1,9.7640686E1,2.077128E1,4.178714E1,2.6959854E1,7.068083E1],"tree_param":{"num_deleted":"0","num_feature":"15","num_nodes":"7","size_leaf_vector":"1"}},{"base_weights":[-1.7721698E-1,-5.8088243E-1,1.2340175E-1,-1.5939279E-2,2.3919428E-3,1.3440975E-2,-1.4304515E-3],"categories":[],"categories_nodes":[],"categories_segments":[],"categories_sizes":[],"default_left":[0,0,0,0,0,0,0],"id":31,"left_children":[1,3,5,-1,-1,-1,-1],"loss_changes":[2.0474768E1,1.2302668E1,1.1460406E1,0E0,0E0,0E0,0E0],"parents":[2147483647,0,0,1,1,2,2],"right_children":[2,4,6,-1,-1,-1,-1],"split_conditions":[-4.901422E-1,-3.6844522E-1,-7.6937973E-1,-1.5939279E-2,2.3919428E-3,1.3440975E-2,-1.4304515E-3],"split_indices":[10,5,8,0,0,0,0],"split_type":[0,0,0,0,0,0,0],"sum_hessian":[1.5063945E2,6.2137794E1,8.850165E1,4.7632282E1,1.4505513E1,1.8770231E1,6.973142E1],"tree_param":{"num_deleted":"0","num_feature":"15","num_nodes":"7","size_leaf_vector":"1"}},{"base_weights":[3.9477207E-2,-4.6844056E-1,3.3516327E-1,-0E0,-1.188398E-2,1.0852092E-2,-7.942377E-3],"categories":[],"categories_nodes":[],"categories_segments":[],"categories_sizes":[],"default_left":[0,0,0,0,0,0,0],"id":32,"left_children":[1,3,5,-1,-1,-1,-1],"loss_changes":[2.5963692E1,4.152999E0,1.8851074E1,0E0,0E0,0E0,0E0],"parents":[2147483647,0,0,1,1,2,2],"right_children":[2,4,6,-1,-1,-1,-1],"split_conditions":[-4.111166E-1,-1.1363224E0,1.3023654E0,-0E0,-1.188398E-2,1.0852092E-2,-7.942377E-3],"split_indices":[9,6,6,0,0,0,0],"split_type":[0,0,0,0,0,0,0],"sum_hessian":[1.5535771E2,5.3984707E1,1.01373E2,1.207689E1,4.1907818E1,8.187592E1,1.9497074E1],"tree_param":{"num_deleted":"0","num_feature":"15","num_nodes":"7","size_leaf_vector":"1"}},{"base_weights":[-3.2006014E-2,-1.578101E-2,1.7331658E-1,2.2186994E-4,2.0530155E-2],"categories":[],"categories_nodes":[],"categories_segments":[],"categories_sizes":[],"default_left":[0,0,0,0,0],"id":33,"left_children":[1,-1,3,-1,-1],"loss_changes":[2.9388987E1,0E0,1.9029722E1,0E0,0E0],"parents":[2147483647,0,0,2,2],"right_children":[2,-1,4,-1,-1],"split_conditions":[-9.595326E-1,-1.578101E-2,2.3723013E0,2.2186994E-4,2.0530155E-2],"split_indices":[6,0,8,0,0],"split_type":[0,0,0,0,0],"sum_hessian":[1.6819215E2,3.146419E1,1.3672797E2,1.2352954E2,1.3198428E1],"tree_param":{"num_deleted":"0","num_feature":"15","num_nodes":"5","size_leaf_vector":"1"}},{"base_weights":[-7.42187E-2,-8.2268536E-1,1.9307734E-1,-0E0,-2.1616526E-2,6.929149E-3,-6.524878E-3],"categories":[],"categories_nodes":[],"categories_segments":[],"categories_sizes":[],"default_left":[0,0,0,0,0,0,0],"id":34,"left_children":[1,3,5,-1,-1,-1,-1],"loss_changes":[3.5205414E1,9.197046E0,1.1263893E1,0E0,0E0,0E0,0E0],"parents":[2147483647,0,0,1,1,2,2],"right_children":[2,4,6,-1,-1,-1,-1],"split_conditions":[-9.595326E-1,-9.170816E-1,1.3547806E0,-0E0,-2.1616526E-2,6.929149E-3,-6.524878E-3],"split_indices":[6,9,6,0,0,0,0],"split_type":[0,0,0,0,0,0,0],"sum_hessian":[1.5667964E2,3.72935E1,1.1938615E2,1.159952E1,2.569398E1,9.596463E1,2.3421515E1],"tree_param":{"num_deleted":"0","num_feature":"15","num_nodes":"7","size_leaf_vector":"1"}},{"base_weights":[-3.995472E-2,-5.9443223E-1,3.315526E-1,-9.324629E-4,-1.965582E-2,-6.6530136E-3,8.571539E-3],"categories":[],"categories_nodes":[],"categories_segments":[],"categories_sizes":[],"default_left":[0,0,0,0,0,0,0],"id":35,"left_children":[1,3,5,-1,-1,-1,-1],"loss_changes":[3.813419E1,1.4430788E1,8.443957E0,0E0,0E0,0E0,0E0],"parents":[2147483647,0,0,1,1,2,2],"right_children":[2,4,6,-1,-1,-1,-1],"split_conditions":[-4.8398778E-1,5.506716E-1,-8.5071385E-1,-9.324629E-4,-1.965582E-2,-6.6530136E-3,8.571539E-3],"split_indices":[10,8,9,0,0,0,0],"split_type":[0,0,0,0,0,0,0],"sum_hessian":[1.662372E2,6.5608E1,1.00629196E2,3.2466705E1,3.3141296E1,8.726493E0,9.19027E1],"tree_param":{"num_deleted":"0","num_feature":"15","num_nodes":"7","size_leaf_vector":"1"}},{"base_weights":[6.857822E-2,-2.7844986E-1,5.532194E-1,-1.1325998E-2,1.0751119E-3,1.817606E-2,4.9828604E-4],"categories":[],"categories_nodes":[],"categories_segments":[],"categories_sizes":[],"default_left":[0,0,0,0,0,0,0],"id":36,"left_children":[1,3,5,-1,-1,-1,-1],"loss_changes":[2.9049213E1,1.0318446E1,1.2419331E1,0E0,0E0,0E0,0E0],"parents":[2147483647,0,0,1,1,2,2],"right_children":[2,4,6,-1,-1,-1,-1],"split_conditions":[2.7822172E-2,-5.872643E-1,-1.2948537E-2,-1.1325998E-2,1.0751119E-3,1.817606E-2,4.9828604E-4],"split_indices":[10,6,6,0,0,0,0],"split_type":[0,0,0,0,0,0,0],"sum_hessian":[1.5384567E2,9.067988E1,6.316579E1,4.6798225E1,4.3881653E1,3.2748833E1,3.0416956E1],"tree_param":{"num_deleted":"0","num_feature":"15","num_nodes":"7","size_leaf_vector":"1"}},{"base_weights":[-6.803859E-2,2.720733E-1,-6.03676E-1,-8.291617E-3,1.1290173E-2,-1.9208875E-2,1.1919236E-2],"categories":[],"categories_nodes":[],"categories_segments":[],"categories_sizes":[],"default_left":[0,0,0,0,0,0,0],"id":37,"left_children":[1,3,5,-1,-1,-1,-1],"loss_changes":[3.1581331E1,2.3343634E1,3.4364918E1,0E0,0E0,0E0,0E0],"parents":[2147483647,0,0,1,1,2,2],"right_children":[2,4,6,-1,-1,-1,-1],"split_conditions":[5.779196E-1,-7.734316E-1,1.8852097E0,-8.291617E-3,1.1290173E-2,-1.9208875E-2,1.1919236E-2],"split_indices":[8,9,9,0,0,0,0],"split_type":[0,0,0,0,0,0,0],"sum_hessian":[1.5442122E2,9.60159E1,5.840532E1,2.6533972E1,6.948193E1,4.704299E1,1.1362328E1],"tree_param":{"num_deleted":"0","num_feature":"15","num_nodes":"7","size_leaf_vector":"1"}},{"base_weights":[2.4813952E-2,-4.725011E-1,3.2916E-1,-0E0,-1.4448777E-2,9.732513E-3,-9.588698E-3],"categories":[],"categories_nodes":[],"categories_segments":[],"categories_sizes":[],"default_left":[0,0,0,0,0,0,0],"id":38,"left_children":[1,3,5,-1,-1,-1,-1],"loss_changes":[2.5720648E1,7.5746326E0,1.5708213E1,0E0,0E0,0E0,0E0],"parents":[2147483647,0,0,1,1,2,2],"right_children":[2,4,6,-1,-1,-1,-1],"split_conditions":[-4.4229102E-1,-3.1771588E-1,1.8896979E0,-0E0,-1.4448777E-2,9.732513E-3,-9.588698E-3],"split_indices":[10,7,5,0,0,0,0],"split_type":[0,0,0,0,0,0,0],"sum_hessian":[1.5263385E2,5.4811333E1,9.782252E1,2.2002121E1,3.280921E1,8.591233E1,1.1910188E1],"tree_param":{"num_deleted":"0","num_feature":"15","num_nodes":"7","size_leaf_vector":"1"}},{"base_weights":[-2.1686137E-2,-4.6087986E-1,2.4992675E-1,4.6779704E-3,-1.2968649E-2,-1.567115E-3,1.1562781E-2],"categories":[],"categories_nodes":[],"categories_segments":[],"categories_sizes":[],"default_left":[0,0,0,0,0,0,0],"id":39,"left_children":[1,3,5,-1,-1,-1,-1],"loss_changes":[1.870411E1,9.661711E0,1.1126869E1,0E0,0E0,0E0,0E0],"parents":[2147483647,0,0,1,1,2,2],"right_children":[2,4,6,-1,-1,-1,-1],"split_conditions":[-4.111166E-1,-7.8371173E-1,-3.2825246E-2,4.6779704E-3,-1.2968649E-2,-1.567115E-3,1.1562781E-2],"split_indices":[9,3,10,0,0,0,0],"split_type":[0,0,0,0,0,0,0],"sum_hessian":[1.3733565E2,5.148901E1,8.584664E1,9.338654E0,4.2150356E1,4.482082E1,4.102582E1],"tree_param":{"num_deleted":"0","num_feature":"15","num_nodes":"7","size_leaf_vector":"1"}},{"base_weights":[5.8841864E-3,-4.1942942E-1,2.684998E-1,2.4861076E-3,-1.128394E-2,-1.0900511E-2,8.895936E-3],"categories":[],"categories_nodes":[],"categories_segments":[],"categories_sizes":[],"default_left":[0,0,0,0,0,0,0],"id":40,"left_children":[1,3,5,-1,-1,-1,-1],"loss_changes":[1.8352161E1,5.938429E0,1.6961582E1,0E0,0E0,0E0,0E0],"parents":[2147483647,0,0,1,1,2,2],"right_children":[2,4,6,-1,-1,-1,-1],"split_conditions":[-4.389217E-1,-6.353594E-1,-8.619612E-1,2.4861076E-3,-1.128394E-2,-1.0900511E-2,8.895936E-3],"split_indices":[9,3,10,0,0,0,0],"split_type":[0,0,0,0,0,0,0],"sum_hessian":[1.4758443E2,5.283487E1,9.474956E1,9.924348E0,4.2910522E1,1.2512861E1,8.22367E1],"tree_param":{"num_deleted":"0","num_feature":"15","num_nodes":"7","size_leaf_vector":"1"}},{"base_weights":[-1.03860684E-1,-4.7610593E-1,4.3153474E-1,-4.0003783E-3,-1.793525E-2,-3.4658206E-3,1.2994964E-2],"categories":[],"categories_nodes":[],"categories_segments":[],"categories_sizes":[],"default_left":[0,0,0,0,0,0,0],"id":41,"left_children":[1,3,5,-1,-1,-1,-1],"loss_changes":[3.407256E1,8.974989E0,1.070714E1,0E0,0E0,0E0,0E0],"parents":[2147483647,0,0,1,1,2,2],"right_children":[2,4,6,-1,-1,-1,-1],"split_conditions":[2.7822172E-2,3.2286558E-1,-4.111166E-1,-4.0003783E-3,-1.793525E-2,-3.4658206E-3,1.2994964E-2],"split_indices":[10,12,9,0,0,0,0],"split_type":[0,0,0,0,0,0,0],"sum_hessian":[1.5246083E2,9.162264E1,6.0838184E1,6.476952E1,2.6853117E1,1.5406329E1,4.5431854E1],"tree_param":{"num_deleted":"0","num_feature":"15","num_nodes":"7","size_leaf_vector":"1"}},{"base_weights":[1.283073E-1,-1.9157963E-3,1.8491013E-2,9.013122E-3,-4.613871E-3],"categories":[],"categories_nodes":[],"categories_segments":[],"categories_sizes":[],"default_left":[0,0,0,0,0],"id":42,"left_children":[1,3,-1,-1,-1],"loss_changes":[1.7478477E1,1.5728256E1,0E0,0E0,0E0],"parents":[2147483647,0,0,1,1],"right_children":[2,4,-1,-1,-1],"split_conditions":[2.3723013E0,-4.1503936E-1,1.8491013E-2,9.013122E-3,-4.613871E-3],"split_indices":[8,8,0,0,0],"split_type":[0,0,0,0,0],"sum_hessian":[1.505141E2,1.35995E2,1.4519104E1,4.126475E1,9.473024E1],"tree_param":{"num_deleted":"0","num_feature":"15","num_nodes":"5","size_leaf_vector":"1"}},{"base_weights":[-1.288091E-1,-5.3752697E-1,2.0719105E-1,2.0277882E-3,-1.6362898E-2,9.14858E-3,-1.0180137E-3],"categories":[],"categories_nodes":[],"categories_segments":[],"categories_sizes":[],"default_left":[0,0,0,0,0,0,0],"id":43,"left_children":[1,3,5,-1,-1,-1,-1],"loss_changes":[2.4829203E1,1.5993362E1,7.0134645E0,0E0,0E0,0E0,0E0],"parents":[2147483647,0,0,1,1,2,2],"right_children":[2,4,6,-1,-1,-1,-1],"split_conditions":[-4.562421E-1,-3.1771588E-1,-1.2948537E-2,2.0277882E-3,-1.6362898E-2,9.14858E-3,-1.0180137E-3],"split_indices":[10,7,6,0,0,0,0],"split_type":[0,0,0,0,0,0,0],"sum_hessian":[1.6209628E2,7.2041534E1,9.005474E1,2.2651903E1,4.9389633E1,4.4161007E1,4.5893738E1],"tree_param":{"num_deleted":"0","num_feature":"15","num_nodes":"7","size_leaf_vector":"1"}},{"base_weights":[5.88222E-2,-6.1435497E-1,3.1030366E-1,3.6873787E-3,-1.748308E-2,-5.1407237E-3,1.1339372E-2],"categories":[],"categories_nodes":[],"categories_segments":[],"categories_sizes":[],"default_left":[0,0,0,0,0,0,0],"id":44,"left_children":[1,3,5,-1,-1,-1,-1],"loss_changes":[2.7342274E1,1.1187023E1,1.8887833E1,0E0,0E0,0E0,0E0],"parents":[2147483647,0,0,1,1,2,2],"right_children":[2,4,6,-1,-1,-1,-1],"split_conditions":[-9.595326E-1,-1.0012523E0,-4.111166E-1,3.6873787E-3,-1.748308E-2,-5.1407237E-3,1.1339372E-2],"split_indices":[6,5,9,0,0,0,0],"split_type":[0,0,0,0,0,0,0],"sum_hessian":[1.4417119E2,3.4597115E1,1.0957408E2,8.187983E0,2.6409134E1,3.2913017E1,7.666106E1],"tree_param":{"num_deleted":"0","num_feature":"15","num_nodes":"7","size_leaf_vector":"1"}},{"base_weights":[-3.7504565E-2,-1.68935E-2,1.8694928E-1,7.251476E-3,-9.768096E-3],"categories":[],"categories_nodes":[],"categories_segments":[],"categories_sizes":[],"default_left":[0,0,0,0,0],"id":45,"left_children":[1,-1,3,-1,-1],"loss_changes":[3.2088882E1,0E0,1.7599077E1,0E0,0E0],"parents":[2147483647,0,0,2,2],"right_children":[2,-1,4,-1,-1],"split_conditions":[-9.595326E-1,-1.68935E-2,1.3547806E0,7.251476E-3,-9.768096E-3],"split_indices":[6,0,6,0,0],"split_type":[0,0,0,0,0],"sum_hessian":[1.5664294E2,2.963978E1,1.2700317E2,1.0527542E2,2.1727747E1],"tree_param":{"num_deleted":"0","num_feature":"15","num_nodes":"5","size_leaf_vector":"1"}},{"base_weights":[-1.01929426E-1,-3.484739E-1,4.4972283E-1,2.751077E-3,-1.8269276E-2,-0E0,1.4013862E-2],"categories":[],"categories_nodes":[],"categories_segments":[],"categories_sizes":[],"default_left":[0,0,0,0,0,0,0],"id":46,"left_children":[1,3,5,-1,-1,-1,-1],"loss_changes":[2.416416E1,3.553489E1,6.0005827E0,0E0,0E0,0E0,0E0],"parents":[2147483647,0,0,1,1,2,2],"right_children":[2,4,6,-1,-1,-1,-1],"split_conditions":[4.4880491E-1,5.779196E-1,1.0303789E0,2.751077E-3,-1.8269276E-2,-0E0,1.4013862E-2],"split_indices":[9,8,7,0,0,0,0],"split_type":[0,0,0,0,0,0,0],"sum_hessian":[1.5904274E2,1.1346187E2,4.558087E1,6.3701817E1,4.976005E1,1.9874947E1,2.5705925E1],"tree_param":{"num_deleted":"0","num_feature":"15","num_nodes":"7","size_leaf_vector":"1"}},{"base_weights":[-1.9768333E-1,-4.973236E-1,2.334079E-1,-1.4061287E-2,3.4756148E-3,1.3487842E-2,-4.166718E-3],"categories":[],"categories_nodes":[],"categories_segments":[],"categories_sizes":[],"default_left":[0,0,0,0,0,0,0],"id":47,"left_children":[1,3,5,-1,-1,-1,-1],"loss_changes":[2.3744305E1,1.6362656E1,1.6531311E1,0E0,0E0,0E0,0E0],"parents":[2147483647,0,0,1,1,2,2],"right_children":[2,4,6,-1,-1,-1,-1],"split_conditions":[-1.042402E-1,4.1436884E-1,-1.2948537E-2,-1.4061287E-2,3.4756148E-3,1.3487842E-2,-4.166718E-3],"split_indices":[10,3,6,0,0,0,0],"split_type":[0,0,0,0,0,0,0],"sum_hessian":[1.6468799E2,9.7709564E1,6.6978424E1,7.559565E1,2.2113916E1,3.2278877E1,3.4699547E1],"tree_param":{"num_deleted":"0","num_feature":"15","num_nodes":"7","size_leaf_vector":"1"}},{"base_weights":[1.7345605E-2,-4.11886E-1,3.4996587E-1,-1.2333567E-2,7.537896E-3,9.1031315E-3,-6.070799E-3],"categories":[],"categories_nodes":[],"categories_segments":[],"categories_sizes":[],"default_left":[0,0,0,0,0,0,0],"id":48,"left_children":[1,3,5,-1,-1,-1,-1],"loss_changes":[2.4989744E1,1.4521523E1,8.263683E0,0E0,0E0,0E0,0E0],"parents":[2147483647,0,0,1,1,2,2],"right_children":[2,4,6,-1,-1,-1,-1],"split_conditions":[-3.6844522E-1,-2.2376882E-1,2.0054417E0,-1.2333567E-2,7.537896E-3,9.1031315E-3,-6.070799E-3],"split_indices":[5,10,5,0,0,0,0],"split_type":[0,0,0,0,0,0,0],"sum_hessian":[1.5738063E2,6.6462524E1,9.0918106E1,5.5328873E1,1.1133647E1,8.198358E1,8.934526E0],"tree_param":{"num_deleted":"0","num_feature":"15","num_nodes":"7","size_leaf_vector":"1"}},{"base_weights":[-5.4195657E-2,-5.102493E-1,2.5076652E-1,-1.3983288E-2,6.18825E-3,-7.867358E-3,7.917042E-3],"categories":[],"categories_nodes":[],"categories_segments":[],"categories_sizes":[],"default_left":[0,0,0,0,0,0,0],"id":49,"left_children":[1,3,5,-1,-1,-1,-1],"loss_changes":[2.6487705E1,1.4187639E1,1.1942949E1,0E0,0E0,0E0,0E0],"parents":[2147483647,0,0,1,1,2,2],"right_children":[2,4,6,-1,-1,-1,-1],"split_conditions":[-4.901422E-1,3.3181292E-1,-7.4745405E-1,-1.3983288E-2,6.18825E-3,-7.867358E-3,7.917042E-3],"split_indices":[10,2,9,0,0,0,0],"split_type":[0,0,0,0,0,0,0],"sum_hessian":[1.7130489E2,6.753332E1,1.0377157E2,5.69505E1,1.0582818E1,1.4978355E1,8.879321E1],"tree_param":{"num_deleted":"0","num_feature":"15","num_nodes":"7","size_leaf_vector":"1"}},{"base_weights":[-4.8813093E-2,-2.3482601E-1,4.0171865E-1,-7.763148E-3,1.1359717E-2,1.2119088E-2,-1.9073137E-3],"categories":[],"categories_nodes":[],"categories_segments":[],"categories_sizes":[],"default_left":[0,0,0,0,0,0,0],"id":50,"left_children":[1,3,5,-1,-1,-1,-1],"loss_changes":[1.456181E1,1.7126484E1,6.1217175E0,0E0,0E0,0E0,0E0],"parents":[2147483647,0,0,1,1,2,2],"right_children":[2,4,6,-1,-1,-1,-1],"split_conditions":[4.4298995E-1,1.8367336E0,1.3860403E0,-7.763148E-3,1.1359717E-2,1.2119088E-2,-1.9073137E-3],"split_indices":[10,9,1,0,0,0,0],"split_type":[0,0,0,0,0,0,0],"sum_hessian":[1.566195E2,1.1547251E2,4.1146996E1,1.0190376E2,1.3568752E1,2.9193083E1,1.1953913E1],"tree_param":{"num_deleted":"0","num_feature":"15","num_nodes":"7","size_leaf_vector":"1"}},{"base_weights":[-5.60484E-2,-3.9647672E-1,1.8408433E-1,8.046294E-4,-1.9005656E-2,7.1058045E-3,-1.0585572E-2],"categories":[],"categories_nodes":[],"categories_segments":[],"categories_sizes":[],"default_left":[0,0,0,0,0,0,0],"id":51,"left_children":[1,3,5,-1,-1,-1,-1],"loss_changes":[1.4478288E1,1.9014278E1,1.39809475E1,0E0,0E0,0E0,0E0],"parents":[2147483647,0,0,1,1,2,2],"right_children":[2,4,6,-1,-1,-1,-1],"split_conditions":[-4.8398778E-1,-9.174292E-2,1.6753263E0,8.046294E-4,-1.9005656E-2,7.1058045E-3,-1.0585572E-2],"split_indices":[10,12,6,0,0,0,0],"split_type":[0,0,0,0,0,0,0],"sum_hessian":[1.5747542E2,6.443407E1,9.304136E1,3.9682568E1,2.4751497E1,7.980714E1,1.323422E1],"tree_param":{"num_deleted":"0","num_feature":"15","num_nodes":"7","size_leaf_vector":"1"}},{"base_weights":[-1.011073E-1,-6.1989206E-1,2.524957E-1,4.381066E-3,-1.6922532E-2,4.5455643E-5,1.3978988E-2],"categories":[],"categories_nodes":[],"categories_segments":[],"categories_sizes":[],"default_left":[0,0,0,0,0,0,0],"id":52,"left_children":[1,3,5,-1,-1,-1,-1],"loss_changes":[3.158771E1,1.5509216E1,1.0666866E1,0E0,0E0,0E0,0E0],"parents":[2147483647,0,0,1,1,2,2],"right_children":[2,4,6,-1,-1,-1,-1],"split_conditions":[-4.901422E-1,-3.0747786E-1,8.3640516E-1,4.381066E-3,-1.6922532E-2,4.5455643E-5,1.3978988E-2],"split_indices":[10,8,3,0,0,0,0],"split_type":[0,0,0,0,0,0,0],"sum_hessian":[1.5351094E2,6.0621353E1,9.288959E1,1.199729E1,4.862406E1,6.6759E1,2.6130579E1],"tree_param":{"num_deleted":"0","num_feature":"15","num_nodes":"7","size_leaf_vector":"1"}},{"base_weights":[3.9109174E-2,-3.175687E-1,4.1900352E-1,4.9804733E-4,-1.3580618E-2,1.057117E-2,-1.5020644E-3],"categories":[],"categories_nodes":[],"categories_segments":[],"categories_sizes":[],"default_left":[0,0,0,0,0,0,0],"id":53,"left_children":[1,3,5,-1,-1,-1,-1],"loss_changes":[2.3331587E1,1.1653542E1,5.3565254E0,0E0,0E0,0E0,0E0],"parents":[2147483647,0,0,1,1,2,2],"right_children":[2,4,6,-1,-1,-1,-1],"split_conditions":[-1.7022939E-1,2.671285E-1,1.5671833E0,4.9804733E-4,-1.3580618E-2,1.057117E-2,-1.5020644E-3],"split_indices":[10,7,2,0,0,0,0],"split_type":[0,0,0,0,0,0,0],"sum_hessian":[1.5360226E2,7.862578E1,7.497649E1,4.325593E1,3.5369846E1,6.2512363E1,1.2464123E1],"tree_param":{"num_deleted":"0","num_feature":"15","num_nodes":"7","size_leaf_vector":"1"}},{"base_weights":[-1.5294723E-1,-7.9719913E-1,6.340017E-2,-2.608528E-4,-1.9168636E-2,1.2178665E-2,-2.1576914E-3],"categories":[],"categories_nodes":[],"categories_segments":[],"categories_sizes":[],"default_left":[0,0,0,0,0,0,0],"id":54,"left_children":[1,3,5,-1,-1,-1,-1],"loss_changes":[2.4632607E1,4.4927673E0,1.3528431E1,0E0,0E0,0E0,0E0],"parents":[2147483647,0,0,1,1,2,2],"right_children":[2,4,6,-1,-1,-1,-1],"split_conditions":[-9.595326E-1,-8.341177E-1,-7.5705826E-1,-2.608528E-4,-1.9168636E-2,1.2178665E-2,-2.1576914E-3],"split_indices":[6,5,7,0,0,0,0],"split_type":[0,0,0,0,0,0,0],"sum_hessian":[1.591988E2,3.5108772E1,1.2409004E2,8.704517E0,2.6404255E1,2.5551672E1,9.853837E1],"tree_param":{"num_deleted":"0","num_feature":"15","num_nodes":"7","size_leaf_vector":"1"}},{"base_weights":[-1.1227256E-1,-8.1034E-1,1.2682565E-1,-0E0,-1.9914363E-2,-6.1255908E-3,6.9808476E-3],"categories":[],"categories_nodes":[],"categories_segments":[],"categories_sizes":[],"default_left":[0,0,0,0,0,0,0],"id":55,"left_children":[1,3,5,-1,-1,-1,-1],"loss_changes":[2.898431E1,6.6070194E0,1.3409489E1,0E0,0E0,0E0,0E0],"parents":[2147483647,0,0,1,1,2,2],"right_children":[2,4,6,-1,-1,-1,-1],"split_conditions":[-9.595326E-1,-8.341177E-1,-4.111166E-1,-0E0,-1.9914363E-2,-6.1255908E-3,6.9808476E-3],"split_indices":[6,5,9,0,0,0,0],"split_type":[0,0,0,0,0,0,0],"sum_hessian":[1.5501889E2,3.5130997E1,1.1988789E2,8.238604E0,2.6892393E1,3.7972984E1,8.191491E1],"tree_param":{"num_deleted":"0","num_feature":"15","num_nodes":"7","size_leaf_vector":"1"}},{"base_weights":[-0E0,-8.354106E-1,2.909001E-1,-0E0,-2.0235296E-2,3.9829206E-4,1.5127437E-2],"categories":[],"categories_nodes":[],"categories_segments":[],"categories_sizes":[],"default_left":[0,0,0,0,0,0,0],"id":56,"left_children":[1,3,5,-1,-1,-1,-1],"loss_changes":[4.2853687E1,6.3764114E0,1.5845392E1,0E0,0E0,0E0,0E0],"parents":[2147483647,0,0,1,1,2,2],"right_children":[2,4,6,-1,-1,-1,-1],"split_conditions":[-8.0771583E-1,-8.330389E-1,5.2516425E-1,-0E0,-2.0235296E-2,3.9829206E-4,1.5127437E-2],"split_indices":[6,4,12,0,0,0,0],"split_type":[0,0,0,0,0,0,0],"sum_hessian":[1.6014497E2,3.629446E1,1.2385051E2,8.184871E0,2.8109592E1,8.556829E1,3.8282215E1],"tree_param":{"num_deleted":"0","num_feature":"15","num_nodes":"7","size_leaf_vector":"1"}},{"base_weights":[8.0102235E-2,-2.741507E-1,3.1360474E-1,4.2113266E-3,-1.4778781E-2,9.511671E-3,-1.1922048E-2],"categories":[],"categories_nodes":[],"categories_segments":[],"categories_sizes":[],"default_left":[0,0,0,0,0,0,0],"id":57,"left_children":[1,3,5,-1,-1,-1,-1],"loss_changes":[1.4615738E1,1.7561817E1,1.8119606E1,0E0,0E0,0E0,0E0],"parents":[2147483647,0,0,1,1,2,2],"right_children":[2,4,6,-1,-1,-1,-1],"split_conditions":[-3.6770275E-1,5.66299E-1,1.8896979E0,4.2113266E-3,-1.4778781E-2,9.511671E-3,-1.1922048E-2],"split_indices":[5,8,5,0,0,0,0],"split_type":[0,0,0,0,0,0,0],"sum_hessian":[1.5786032E2,6.039067E1,9.746965E1,3.0918074E1,2.9472595E1,8.7316574E1,1.0153074E1],"tree_param":{"num_deleted":"0","num_feature":"15","num_nodes":"7","size_leaf_vector":"1"}},{"base_weights":[-5.5428103E-2,-4.4547543E-1,2.3204947E-1,-1.1587162E-3,-1.9047003E-2,3.1968183E-4,1.469146E-2],"categories":[],"categories_nodes":[],"categories_segments":[],"categories_sizes":[],"default_left":[0,0,0,0,0,0,0],"id":58,"left_children":[1,3,5,-1,-1,-1,-1],"loss_changes":[1.9534435E1,1.3058661E1,9.878052E0,0E0,0E0,0E0,0E0],"parents":[2147483647,0,0,1,1,2,2],"right_children":[2,4,6,-1,-1,-1,-1],"split_conditions":[-4.901422E-1,1.5623815E0,1.3319882E0,-1.1587162E-3,-1.9047003E-2,3.1968183E-4,1.469146E-2],"split_indices":[10,7,7,0,0,0,0],"split_type":[0,0,0,0,0,0,0],"sum_hessian":[1.5501216E2,6.51497E1,8.9862465E1,4.3722496E1,2.1427198E1,7.07283E1,1.9134165E1],"tree_param":{"num_deleted":"0","num_feature":"15","num_nodes":"7","size_leaf_vector":"1"}},{"base_weights":[9.153565E-2,-3.5312378E-1,3.6925223E-1,-4.743951E-4,-1.5741652E-2,-4.7019026E-3,9.385628E-3],"categories":[],"categories_nodes":[],"categories_segments":[],"categories_sizes":[],"default_left":[0,0,0,0,0,0,0],"id":59,"left_children":[1,3,5,-1,-1,-1,-1],"loss_changes":[2.0736092E1,8.179611E0,7.46677E0,0E0,0E0,0E0,0E0],"parents":[2147483647,0,0,1,1,2,2],"right_children":[2,4,6,-1,-1,-1,-1],"split_conditions":[-4.111166E-1,5.66299E-1,-8.6958903E-1,-4.743951E-4,-1.5741652E-2,-4.7019026E-3,9.385628E-3],"split_indices":[9,8,10,0,0,0,0],"split_type":[0,0,0,0,0,0,0],"sum_hessian":[1.4928447E2,5.506842E1,9.421604E1,3.8011456E1,1.7056963E1,1.0234239E1,8.3981804E1],"tree_param":{"num_deleted":"0","num_feature":"15","num_nodes":"7","size_leaf_vector":"1"}},{"base_weights":[-1.08147696E-1,-7.0431757E-1,1.0534502E-1,7.880961E-4,-1.9439323E-2,1.0791017E-2,-1.7020775E-3],"categories":[],"categories_nodes":[],"categories_segments":[],"categories_sizes":[],"default_left":[0,0,0,0,0,0,0],"id":60,"left_children":[1,3,5,-1,-1,-1,-1],"loss_changes":[2.4159185E1,1.119668E1,1.2364627E1,0E0,0E0,0E0,0E0],"parents":[2147483647,0,0,1,1,2,2],"right_children":[2,4,6,-1,-1,-1,-1],"split_conditions":[-9.595326E-1,-6.117887E-1,-2.4800861E-1,7.880961E-4,-1.9439323E-2,1.0791017E-2,-1.7020775E-3],"split_indices":[6,4,8,0,0,0,0],"split_type":[0,0,0,0,0,0,0],"sum_hessian":[1.708619E2,4.083225E1,1.3002963E2,1.1848162E1,2.8984087E1,3.621534E1,9.38143E1],"tree_param":{"num_deleted":"0","num_feature":"15","num_nodes":"7","size_leaf_vector":"1"}},{"base_weights":[-5.8507748E-2,9.956587E-3,-1.9954439E-1,-6.4112E-3,1.3575916E-2],"categories":[],"categories_nodes":[],"categories_segments":[],"categories_sizes":[],"default_left":[0,0,0,0,0],"id":61,"left_children":[1,-1,3,-1,-1],"loss_changes":[1.3235389E1,0E0,1.609513E1,0E0,0E0],"parents":[2147483647,0,0,2,2],"right_children":[2,-1,4,-1,-1],"split_conditions":[-9.5977336E-1,9.956587E-3,1.8910252E0,-6.4112E-3,1.3575916E-2],"split_indices":[7,0,7,0,0],"split_type":[0,0,0,0,0],"sum_hessian":[1.5208835E2,2.4719736E1,1.27368614E2,1.1796899E2,9.399627E0],"tree_param":{"num_deleted":"0","num_feature":"15","num_nodes":"5","size_leaf_vector":"1"}},{"base_weights":[-7.3627025E-2,-3.7110543E-1,1.4453822E-1,-1.2159552E-2,3.6005203E-3,-1.2127717E-3,8.270527E-3],"categories":[],"categories_nodes":[],"categories_segments":[],"categories_sizes":[],"default_left":[0,0,0,0,0,0,0],"id":62,"left_children":[1,3,5,-1,-1,-1,-1],"loss_changes":[1.1313593E1,1.1020493E1,6.0314574E0,0E0,0E0,0E0,0E0],"parents":[2147483647,0,0,1,1,2,2],"right_children":[2,4,6,-1,-1,-1,-1],"split_conditions":[-3.6770275E-1,1.03268914E-1,7.6752836E-1,-1.2159552E-2,3.6005203E-3,-1.2127717E-3,8.270527E-3],"split_indices":[5,0,6,0,0,0,0],"split_type":[0,0,0,0,0,0,0],"sum_hessian":[1.5439546E2,6.4593575E1,8.9801895E1,4.5796654E1,1.8796917E1,5.2789207E1,3.701269E1],"tree_param":{"num_deleted":"0","num_feature":"15","num_nodes":"7","size_leaf_vector":"1"}},{"base_weights":[-3.260639E-2,-4.82479E-1,2.1870747E-1,6.226614E-3,-1.6946664E-2,7.716264E-3,-9.222739E-3],"categories":[],"categories_nodes":[],"categories_segments":[],"categories_sizes":[],"default_left":[0,0,0,0,0,0,0],"id":63,"left_children":[1,3,5,-1,-1,-1,-1],"loss_changes":[2.0056316E1,2.1436821E1,1.4215206E1,0E0,0E0,0E0,0E0],"parents":[2147483647,0,0,1,1,2,2],"right_children":[2,4,6,-1,-1,-1,-1],"split_conditions":[-4.901422E-1,-3.1771588E-1,1.3547806E0,6.226614E-3,-1.6946664E-2,7.716264E-3,-9.222739E-3],"split_indices":[10,7,6,0,0,0,0],"split_type":[0,0,0,0,0,0,0],"sum_hessian":[1.5766353E2,5.496761E1,1.0269592E2,1.6861555E1,3.8106056E1,8.673891E1,1.5957015E1],"tree_param":{"num_deleted":"0","num_feature":"15","num_nodes":"7","size_leaf_vector":"1"}},{"base_weights":[-4.0486336E-2,-4.8534375E-1,2.747067E-1,1.554288E-3,-1.6709736E-2,1.2721267E-2,8.020897E-4],"categories":[],"categories_nodes":[],"categories_segments":[],"categories_sizes":[],"default_left":[0,0,0,0,0,0,0],"id":64,"left_children":[1,3,5,-1,-1,-1,-1],"loss_changes":[2.5183592E1,1.6104645E1,7.8825836E0,0E0,0E0,0E0,0E0],"parents":[2147483647,0,0,1,1,2,2],"right_children":[2,4,6,-1,-1,-1,-1],"split_conditions":[-4.1996753E-1,-2.5438815E-1,-3.4262222E-1,1.554288E-3,-1.6709736E-2,1.2721267E-2,8.020897E-4],"split_indices":[10,7,8,0,0,0,0],"split_type":[0,0,0,0,0,0,0],"sum_hessian":[1.605457E2,6.587922E1,9.466649E1,2.6849512E1,3.90297E1,2.9525219E1,6.5141266E1],"tree_param":{"num_deleted":"0","num_feature":"15","num_nodes":"7","size_leaf_vector":"1"}},{"base_weights":[2.795171E-2,-1.0413155E-1,6.991897E-1,1.331722E-3,-1.4888572E-2,2.0323176E-2,-1.679931E-4],"categories":[],"categories_nodes":[],"categories_segments":[],"categories_sizes":[],"default_left":[0,0,0,0,0,0,0],"id":65,"left_children":[1,3,5,-1,-1,-1,-1],"loss_changes":[1.6045792E1,1.7086485E1,7.779481E0,0E0,0E0,0E0,0E0],"parents":[2147483647,0,0,1,1,2,2],"right_children":[2,4,6,-1,-1,-1,-1],"split_conditions":[1.5319105E0,1.3028297E0,4.9877554E-2,1.331722E-3,-1.4888572E-2,2.0323176E-2,-1.679931E-4],"split_indices":[8,7,5,0,0,0,0],"split_type":[0,0,0,0,0,0,0],"sum_hessian":[1.5788E2,1.3702988E2,2.0850122E1,1.1331882E2,2.3711061E1,1.2665164E1,8.184958E0],"tree_param":{"num_deleted":"0","num_feature":"15","num_nodes":"7","size_leaf_vector":"1"}},{"base_weights":[3.9528012E-2,-5.220318E-1,1.9012703E-1,2.519778E-4,-1.5350659E-2,-3.6526977E-3,8.014565E-3],"categories":[],"categories_nodes":[],"categories_segments":[],"categories_sizes":[],"default_left":[0,0,0,0,0,0,0],"id":66,"left_children":[1,3,5,-1,-1,-1,-1],"loss_changes":[1.4265957E1,5.4708376E0,1.1536274E1,0E0,0E0,0E0,0E0],"parents":[2147483647,0,0,1,1,2,2],"right_children":[2,4,6,-1,-1,-1,-1],"split_conditions":[-8.604367E-1,-3.12228E-1,-4.111166E-1,2.519778E-4,-1.5350659E-2,-3.6526977E-3,8.014565E-3],"split_indices":[10,7,9,0,0,0,0],"split_type":[0,0,0,0,0,0,0],"sum_hessian":[1.5304958E2,2.6266922E1,1.2678265E2,9.671034E0,1.6595888E1,4.4487347E1,8.22953E1],"tree_param":{"num_deleted":"0","num_feature":"15","num_nodes":"7","size_leaf_vector":"1"}},{"base_weights":[1.3824266E-1,-1.1188125E-1,4.9089924E-1,7.736672E-3,-1.0172981E-2,1.4909782E-2,-5.9366965E-4],"categories":[],"categories_nodes":[],"categories_segments":[],"categories_sizes":[],"default_left":[0,0,0,0,0,0,0],"id":67,"left_children":[1,3,5,-1,-1,-1,-1],"loss_changes":[1.4764965E1,2.1246466E1,1.001734E1,0E0,0E0,0E0,0E0],"parents":[2147483647,0,0,1,1,2,2],"right_children":[2,4,6,-1,-1,-1,-1],"split_conditions":[3.5354316E-2,-5.150865E-1,5.341498E-1,7.736672E-3,-1.0172981E-2,1.4909782E-2,-5.9366965E-4],"split_indices":[10,11,5,0,0,0,0],"split_type":[0,0,0,0,0,0,0],"sum_hessian":[1.4848764E2,8.880865E1,5.9678993E1,3.83322E1,5.047645E1,3.8757427E1,2.0921566E1],"tree_param":{"num_deleted":"0","num_feature":"15","num_nodes":"7","size_leaf_vector":"1"}},{"base_weights":[2.2036685E-2,-5.091261E-1,1.9566143E-1,2.9178287E-3,-1.5323158E-2,5.5107456E-3,-7.0634023E-3],"categories":[],"categories_nodes":[],"categories_segments":[],"categories_sizes":[],"default_left":[0,0,0,0,0,0,0],"id":68,"left_children":[1,3,5,-1,-1,-1,-1],"loss_changes":[1.5209674E1,8.386075E0,6.3853436E0,0E0,0E0,0E0,0E0],"parents":[2147483647,0,0,1,1,2,2],"right_children":[2,4,6,-1,-1,-1,-1],"split_conditions":[-9.595326E-1,-8.931301E-1,2.0054417E0,2.9178287E-3,-1.5323158E-2,5.5107456E-3,-7.0634023E-3],"split_indices":[6,5,5,0,0,0,0],"split_type":[0,0,0,0,0,0,0],"sum_hessian":[1.4960023E2,3.1150932E1,1.184493E2,8.779177E0,2.2371756E1,1.0890338E2,9.545921E0],"tree_param":{"num_deleted":"0","num_feature":"15","num_nodes":"7","size_leaf_vector":"1"}},{"base_weights":[-9.344199E-2,-3.365168E-1,2.0488815E-1,9.6812827E-4,-1.3806796E-2,8.020927E-3,-3.753372E-3],"categories":[],"categories_nodes":[],"categories_segments":[],"categories_sizes":[],"default_left":[0,0,0,0,0,0,0],"id":69,"left_children":[1,3,5,-1,-1,-1,-1],"loss_changes":[1.2483934E1,1.3799314E1,6.7723913E0,0E0,0E0,0E0,0E0],"parents":[2147483647,0,0,1,1,2,2],"right_children":[2,4,6,-1,-1,-1,-1],"split_conditions":[-6.780412E-2,-3.2610038E-1,9.743907E-1,9.6812827E-4,-1.3806796E-2,8.020927E-3,-3.753372E-3],"split_indices":[10,12,0,0,0,0,0],"split_type":[0,0,0,0,0,0,0],"sum_hessian":[1.5278061E2,8.539889E1,6.738172E1,4.326904E1,4.212985E1,4.649915E1,2.0882576E1],"tree_param":{"num_deleted":"0","num_feature":"15","num_nodes":"7","size_leaf_vector":"1"}},{"base_weights":[-2.751441E-2,-5.3268534E-1,1.395375E-1,5.9024435E-3,-1.6662605E-2,1.0459543E-2,-4.6367585E-3],"categories":[],"categories_nodes":[],"categories_segments":[],"categories_sizes":[],"default_left":[0,0,0,0,0,0,0],"id":70,"left_children":[1,3,5,-1,-1,-1,-1],"loss_changes":[1.5500507E1,1.416005E1,2.0495079E1,0E0,0E0,0E0,0E0],"parents":[2147483647,0,0,1,1,2,2],"right_children":[2,4,6,-1,-1,-1,-1],"split_conditions":[-9.595326E-1,-8.931301E-1,-9.687669E-2,5.9024435E-3,-1.6662605E-2,1.0459543E-2,-4.6367585E-3],"split_indices":[6,5,6,0,0,0,0],"split_type":[0,0,0,0,0,0,0],"sum_hessian":[1.6209177E2,3.6873245E1,1.2521852E2,8.975196E0,2.7898048E1,6.1125786E1,6.409274E1],"tree_param":{"num_deleted":"0","num_feature":"15","num_nodes":"7","size_leaf_vector":"1"}},{"base_weights":[-4.926022E-2,3.6435422E-1,-2.869518E-1,-3.650394E-4,1.075929E-2,-8.671905E-3,1.0015628E-2],"categories":[],"categories_nodes":[],"categories_segments":[],"categories_sizes":[],"default_left":[0,0,0,0,0,0,0],"id":71,"left_children":[1,3,5,-1,-1,-1,-1],"loss_changes":[1.6001932E1,4.502205E0,1.3941929E1,0E0,0E0,0E0,0E0],"parents":[2147483647,0,0,1,1,2,2],"right_children":[2,4,6,-1,-1,-1,-1],"split_conditions":[-2.8215492E-1,-7.657841E-1,2.1382146E0,-3.650394E-4,1.075929E-2,-8.671905E-3,1.0015628E-2],"split_indices":[2,9,9,0,0,0,0],"split_type":[0,0,0,0,0,0,0],"sum_hessian":[1.4498183E2,4.96249E1,9.5356926E1,1.6205235E1,3.3419666E1,8.487269E1,1.0484239E1],"tree_param":{"num_deleted":"0","num_feature":"15","num_nodes":"7","size_leaf_vector":"1"}},{"base_weights":[4.2604227E-2,-3.215187E-1,2.9183376E-1,3.5152473E-3,-1.1342004E-2,9.1236895E-3,-1.0570557E-2],"categories":[],"categories_nodes":[],"categories_segments":[],"categories_sizes":[],"default_left":[0,0,0,0,0,0,0],"id":72,"left_children":[1,3,5,-1,-1,-1,-1],"loss_changes":[1.4484644E1,9.087128E0,1.5010299E1,0E0,0E0,0E0,0E0],"parents":[2147483647,0,0,1,1,2,2],"right_children":[2,4,6,-1,-1,-1,-1],"split_conditions":[-4.111166E-1,-6.4921975E-1,1.8896979E0,3.5152473E-3,-1.1342004E-2,9.1236895E-3,-1.0570557E-2],"split_indices":[9,5,5,0,0,0,0],"split_type":[0,0,0,0,0,0,0],"sum_hessian":[1.4163174E2,5.48595E1,8.677224E1,1.7635632E1,3.722387E1,7.663376E1,1.0138481E1],"tree_param":{"num_deleted":"0","num_feature":"15","num_nodes":"7","size_leaf_vector":"1"}},{"base_weights":[-4.0154498E-2,-5.4963654E-1,1.379548E-1,6.1309356E-3,-1.6683882E-2,5.392364E-3,-7.6493775E-3],"categories":[],"categories_nodes":[],"categories_segments":[],"categories_sizes":[],"default_left":[0,0,0,0,0,0,0],"id":73,"left_children":[1,3,5,-1,-1,-1,-1],"loss_changes":[1.5975386E1,1.3972851E1,9.534713E0,0E0,0E0,0E0,0E0],"parents":[2147483647,0,0,1,1,2,2],"right_children":[2,4,6,-1,-1,-1,-1],"split_conditions":[-9.595326E-1,-1.0194814E0,1.3547806E0,6.1309356E-3,-1.6683882E-2,5.392364E-3,-7.6493775E-3],"split_indices":[6,5,6,0,0,0,0],"split_type":[0,0,0,0,0,0,0],"sum_hessian":[1.5499281E2,3.6739723E1,1.1825309E2,8.114608E0,2.8625116E1,9.937163E1,1.888146E1],"tree_param":{"num_deleted":"0","num_feature":"15","num_nodes":"7","size_leaf_vector":"1"}},{"base_weights":[-8.994443E-2,-6.8496853E-1,1.0142581E-1,-0E0,-1.9338714E-2,-6.1774743E-3,6.1036143E-3],"categories":[],"categories_nodes":[],"categories_segments":[],"categories_sizes":[],"default_left":[0,0,0,0,0,0,0],"id":74,"left_children":[1,3,5,-1,-1,-1,-1],"loss_changes":[2.0180754E1,7.888979E0,1.193289E1,0E0,0E0,0E0,0E0],"parents":[2147483647,0,0,1,1,2,2],"right_children":[2,4,6,-1,-1,-1,-1],"split_conditions":[-9.595326E-1,-1.1363224E0,-4.111166E-1,-0E0,-1.9338714E-2,-6.1774743E-3,6.1036143E-3],"split_indices":[6,6,9,0,0,0,0],"split_type":[0,0,0,0,0,0,0],"sum_hessian":[1.5761075E2,3.3977383E1,1.2363336E2,1.2972838E1,2.1004543E1,3.7854683E1,8.577868E1],"tree_param":{"num_deleted":"0","num_feature":"15","num_nodes":"7","size_leaf_vector":"1"}},{"base_weights":[-8.168034E-2,-2.9678923E-1,2.64919E-1,-9.366729E-3,3.912086E-3,1.1324868E-2,-4.0926333E-3],"categories":[],"categories_nodes":[],"categories_segments":[],"categories_sizes":[],"default_left":[0,0,0,0,0,0,0],"id":75,"left_children":[1,3,5,-1,-1,-1,-1],"loss_changes":[1.367126E1,1.0646471E1,1.1223394E1,0E0,0E0,0E0,0E0],"parents":[2147483647,0,0,1,1,2,2],"right_children":[2,4,6,-1,-1,-1,-1],"split_conditions":[-6.3836644E-3,4.1436884E-1,5.196477E-1,-9.366729E-3,3.912086E-3,1.1324868E-2,-4.0926333E-3],"split_indices":[10,3,5,0,0,0,0],"split_type":[0,0,0,0,0,0,0],"sum_hessian":[1.6444894E2,1.0405079E2,6.039815E1,7.899868E1,2.5052105E1,3.6957687E1,2.3440464E1],"tree_param":{"num_deleted":"0","num_feature":"15","num_nodes":"7","size_leaf_vector":"1"}},{"base_weights":[-0E0,5.5827177E-1,-1.8853404E-1,-0E0,1.3636829E-2,-6.9810235E-4,-1.4600398E-2],"categories":[],"categories_nodes":[],"categories_segments":[],"categories_sizes":[],"default_left":[0,0,0,0,0,0,0],"id":76,"left_children":[1,3,5,-1,-1,-1,-1],"loss_changes":[1.7859972E1,2.384201E0,9.695104E0,0E0,0E0,0E0,0E0],"parents":[2147483647,0,0,1,1,2,2],"right_children":[2,4,6,-1,-1,-1,-1],"split_conditions":[-5.39148E-1,-6.234543E-1,1.3023654E0,-0E0,1.3636829E-2,-6.9810235E-4,-1.4600398E-2],"split_indices":[2,13,6,0,0,0,0],"split_type":[0,0,0,0,0,0,0],"sum_hessian":[1.5314641E2,3.3649803E1,1.19496605E2,8.929679E0,2.4720123E1,1.01987816E2,1.7508785E1],"tree_param":{"num_deleted":"0","num_feature":"15","num_nodes":"7","size_leaf_vector":"1"}},{"base_weights":[-1.444474E-2,2.2219795E-1,-3.5750693E-1,-7.435355E-6,1.0369497E-2,-1.3247771E-2,7.306517E-3],"categories":[],"categories_nodes":[],"categories_segments":[],"categories_sizes":[],"default_left":[0,0,0,0,0,0,0],"id":77,"left_children":[1,3,5,-1,-1,-1,-1],"loss_changes":[1.3808388E1,7.0009203E0,1.7974594E1,0E0,0E0,0E0,0E0],"parents":[2147483647,0,0,1,1,2,2],"right_children":[2,4,6,-1,-1,-1,-1],"split_conditions":[5.779196E-1,3.5354316E-2,1.0159906E0,-7.435355E-6,1.0369497E-2,-1.3247771E-2,7.306517E-3],"split_indices":[8,10,1,0,0,0,0],"split_type":[0,0,0,0,0,0,0],"sum_hessian":[1.5061615E2,8.9284195E1,6.1331947E1,5.418941E1,3.5094788E1,4.4639584E1,1.6692366E1],"tree_param":{"num_deleted":"0","num_feature":"15","num_nodes":"7","size_leaf_vector":"1"}},{"base_weights":[-8.819466E-2,-4.5277202E-1,1.9067432E-1,2.2759078E-4,-1.53185185E-2,1.4639209E-2,-1.8643981E-3],"categories":[],"categories_nodes":[],"categories_segments":[],"categories_sizes":[],"default_left":[0,0,0,0,0,0,0],"id":78,"left_children":[1,3,5,-1,-1,-1,-1],"loss_changes":[1.8323109E1,1.2155816E1,1.6789042E1,0E0,0E0,0E0,0E0],"parents":[2147483647,0,0,1,1,2,2],"right_children":[2,4,6,-1,-1,-1,-1],"split_conditions":[-3.6770275E-1,5.66299E-1,-4.2072016E-1,2.2759078E-4,-1.53185185E-2,1.4639209E-2,-1.8643981E-3],"split_indices":[5,8,6,0,0,0,0],"split_type":[0,0,0,0,0,0,0],"sum_hessian":[1.6100233E2,6.889996E1,9.210237E1,2.9965391E1,3.8934574E1,2.8011736E1,6.409064E1],"tree_param":{"num_deleted":"0","num_feature":"15","num_nodes":"7","size_leaf_vector":"1"}},{"base_weights":[-1.7056963E-1,-4.3785447E-1,2.6156777E-1,-1.3661219E-2,1.59184E-3,1.1841482E-2,-6.04253E-3],"categories":[],"categories_nodes":[],"categories_segments":[],"categories_sizes":[],"default_left":[0,0,0,0,0,0,0],"id":79,"left_children":[1,3,5,-1,-1,-1,-1],"loss_changes":[2.132115E1,1.53528595E1,1.5081505E1,0E0,0E0,0E0,0E0],"parents":[2147483647,0,0,1,1,2,2],"right_children":[2,4,6,-1,-1,-1,-1],"split_conditions":[2.7822172E-2,-1.8252745E-1,5.341498E-1,-1.3661219E-2,1.59184E-3,1.1841482E-2,-6.04253E-3],"split_indices":[10,5,5,0,0,0,0],"split_type":[0,0,0,0,0,0,0],"sum_hessian":[1.6514241E2,1.03389275E2,6.175313E1,6.950459E1,3.3884686E1,3.976118E1,2.1991953E1],"tree_param":{"num_deleted":"0","num_feature":"15","num_nodes":"7","size_leaf_vector":"1"}},{"base_weights":[-5.5551995E-2,3.7239382E-1,-2.805066E-1,-2.834458E-3,1.2317391E-2,-8.832701E-3,5.8507533E-3],"categories":[],"categories_nodes":[],"categories_segments":[],"categories_sizes":[],"default_left":[0,0,0,0,0,0,0],"id":80,"left_children":[1,3,5,-1,-1,-1,-1],"loss_changes":[1.5857508E1,8.27619E0,1.1363033E1,0E0,0E0,0E0,0E0],"parents":[2147483647,0,0,1,1,2,2],"right_children":[2,4,6,-1,-1,-1,-1],"split_conditions":[-4.1503936E-1,-4.7219032E-1,8.7755954E-1,-2.834458E-3,1.2317391E-2,-8.832701E-3,5.8507533E-3],"split_indices":[8,9,12,0,0,0,0],"split_type":[0,0,0,0,0,0,0],"sum_hessian":[1.4691063E2,4.7053535E1,9.985709E1,1.5010933E1,3.2042603E1,8.0914505E1,1.8942593E1],"tree_param":{"num_deleted":"0","num_feature":"15","num_nodes":"7","size_leaf_vector":"1"}},{"base_weights":[-1.0772532E-1,-2.3117626E-1,1.1909771E-2,-9.140504E-5,-1.1728759E-2],"categories":[],"categories_nodes":[],"categories_segments":[],"categories_sizes":[],"default_left":[0,0,0,0,0],"id":81,"left_children":[1,3,-1,-1,-1],"loss_changes":[1.4129377E1,1.0460203E1,0E0,0E0,0E0],"parents":[2147483647,0,0,1,1],"right_children":[2,4,-1,-1,-1],"split_conditions":[1.9525185E0,5.66299E-1,1.1909771E-2,-9.140504E-5,-1.1728759E-2],"split_indices":[9,8,0,0,0],"split_type":[0,0,0,0,0],"sum_hessian":[1.4368237E2,1.285742E2,1.5108161E1,8.578579E1,4.278842E1],"tree_param":{"num_deleted":"0","num_feature":"15","num_nodes":"5","size_leaf_vector":"1"}},{"base_weights":[6.3040875E-2,-3.211495E-1,2.717995E-1,3.351096E-3,-1.0770408E-2,8.075183E-3,-8.524343E-3],"categories":[],"categories_nodes":[],"categories_segments":[],"categories_sizes":[],"default_left":[0,0,0,0,0,0,0],"id":82,"left_children":[1,3,5,-1,-1,-1,-1],"loss_changes":[1.2779404E1,7.058108E0,1.1092283E1,0E0,0E0,0E0,0E0],"parents":[2147483647,0,0,1,1,2,2],"right_children":[2,4,6,-1,-1,-1,-1],"split_conditions":[-4.111166E-1,-6.517334E-1,2.0054417E0,3.351096E-3,-1.0770408E-2,8.075183E-3,-8.524343E-3],"split_indices":[9,5,5,0,0,0,0],"split_type":[0,0,0,0,0,0,0],"sum_hessian":[1.4115836E2,4.6305004E1,9.485335E1,1.34740715E1,3.2830933E1,8.4168106E1,1.06852455E1],"tree_param":{"num_deleted":"0","num_feature":"15","num_nodes":"7","size_leaf_vector":"1"}},{"base_weights":[-2.6264343E-2,4.0607336E-1,-2.5796902E-1,1.0864326E-2,-1.2637201E-3,-9.049253E-3,1.6057689E-2],"categories":[],"categories_nodes":[],"categories_segments":[],"categories_sizes":[],"default_left":[0,0,0,0,0,0,0],"id":83,"left_children":[1,3,5,-1,-1,-1,-1],"loss_changes":[1.7765768E1,4.7213554E0,2.7123627E1,0E0,0E0,0E0,0E0],"parents":[2147483647,0,0,1,1,2,2],"right_children":[2,4,6,-1,-1,-1,-1],"split_conditions":[-1.3495982E-1,3.6391452E-1,1.8910252E0,1.0864326E-2,-1.2637201E-3,-9.049253E-3,1.6057689E-2],"split_indices":[8,0,7,0,0,0,0],"split_type":[0,0,0,0,0,0,0],"sum_hessian":[1.604149E2,5.210445E1,1.0831045E2,4.087203E1,1.1232424E1,9.668803E1,1.1622421E1],"tree_param":{"num_deleted":"0","num_feature":"15","num_nodes":"7","size_leaf_vector":"1"}},{"base_weights":[-1.5427715E-2,-5.1897246E-1,1.364251E-1,2.2782108E-3,-1.576028E-2,1.1990211E-2,-4.189417E-4],"categories":[],"categories_nodes":[],"categories_segments":[],"categories_sizes":[],"default_left":[0,0,0,0,0,0,0],"id":84,"left_children":[1,3,5,-1,-1,-1,-1],"loss_changes":[1.3190062E1,8.339914E0,1.0011502E1,0E0,0E0,0E0,0E0],"parents":[2147483647,0,0,1,1,2,2],"right_children":[2,4,6,-1,-1,-1,-1],"split_conditions":[-9.595326E-1,-8.341177E-1,-7.5705826E-1,2.2782108E-3,-1.576028E-2,1.1990211E-2,-4.189417E-4],"split_indices":[6,5,7,0,0,0,0],"split_type":[0,0,0,0,0,0,0],"sum_hessian":[1.5016245E2,3.1276457E1,1.1888599E2,9.768938E0,2.1507519E1,2.5352419E1,9.353357E1],"tree_param":{"num_deleted":"0","num_feature":"15","num_nodes":"7","size_leaf_vector":"1"}},{"base_weights":[6.540651E-2,3.3841112E-1,-3.0793276E-1,9.72185E-3,-1.1283007E-3,-1.2709651E-2,4.7241105E-3],"categories":[],"categories_nodes":[],"categories_segments":[],"categories_sizes":[],"default_left":[0,0,0,0,0,0,0],"id":85,"left_children":[1,3,5,-1,-1,-1,-1],"loss_changes":[1.6185427E1,6.045108E0,1.3553923E1,0E0,0E0,0E0,0E0],"parents":[2147483647,0,0,1,1,2,2],"right_children":[2,4,6,-1,-1,-1,-1],"split_conditions":[5.506716E-1,3.7722602E-1,1.2299773E0,9.72185E-3,-1.1283007E-3,-1.2709651E-2,4.7241105E-3],"split_indices":[8,1,8,0,0,0,0],"split_type":[0,0,0,0,0,0,0],"sum_hessian":[1.4029926E2,8.307277E1,5.7226486E1,6.0787918E1,2.228485E1,3.592687E1,2.1299616E1],"tree_param":{"num_deleted":"0","num_feature":"15","num_nodes":"7","size_leaf_vector":"1"}},{"base_weights":[1.2493317E-2,-1.0596009E-1,1.1341365E-2,4.84778E-3,-7.4134045E-3],"categories":[],"categories_nodes":[],"categories_segments":[],"categories_sizes":[],"default_left":[0,0,0,0,0],"id":86,"left_children":[1,3,-1,-1,-1],"loss_changes":[1.145803E1,1.3593297E1,0E0,0E0,0E0],"parents":[2147483647,0,0,1,1],"right_children":[2,4,-1,-1,-1],"split_conditions":[1.1652315E0,-1.0169739E-1,1.1341365E-2,4.84778E-3,-7.4134045E-3],"split_indices":[1,8,0,0,0],"split_type":[0,0,0,0,0],"sum_hessian":[1.501709E2,1.2825395E2,2.1916935E1,5.407473E1,7.417923E1],"tree_param":{"num_deleted":"0","num_feature":"15","num_nodes":"5","size_leaf_vector":"1"}},{"base_weights":[-8.509174E-2,-2.9327527E-1,2.2240141E-1,-9.629896E-3,4.753883E-3,1.2787044E-2,-6.4460107E-4],"categories":[],"categories_nodes":[],"categories_segments":[],"categories_sizes":[],"default_left":[0,0,0,0,0,0,0],"id":87,"left_children":[1,3,5,-1,-1,-1,-1],"loss_changes":[1.1225733E1,1.1693319E1,8.205828E0,0E0,0E0,0E0,0E0],"parents":[2147483647,0,0,1,1,2,2],"right_children":[2,4,6,-1,-1,-1,-1],"split_conditions":[-1.957725E-2,2.736432E-1,-3.941135E-1,-9.629896E-3,4.753883E-3,1.2787044E-2,-6.4460107E-4],"split_indices":[10,2,6,0,0,0,0],"split_type":[0,0,0,0,0,0,0],"sum_hessian":[1.5608372E2,9.52586E1,6.0825123E1,7.2337975E1,2.2920624E1,1.9395247E1,4.1429874E1],"tree_param":{"num_deleted":"0","num_feature":"15","num_nodes":"7","size_leaf_vector":"1"}},{"base_weights":[-7.661473E-2,7.1684276E-3,-1.7659421E-1,-9.29794E-4,-1.2893142E-2],"categories":[],"categories_nodes":[],"categories_segments":[],"categories_sizes":[],"default_left":[0,0,0,0,0],"id":88,"left_children":[1,-1,3,-1,-1],"loss_changes":[7.5700254E0,0E0,7.6967874E0,0E0,0E0],"parents":[2147483647,0,0,2,2],"right_children":[2,-1,4,-1,-1],"split_conditions":[-9.762872E-1,7.1684276E-3,1.278886E0,-9.29794E-4,-1.2893142E-2],"split_indices":[7,0,6,0,0],"split_type":[0,0,0,0,0],"sum_hessian":[1.5612813E2,2.2959393E1,1.3316873E2,1.1361755E2,1.9551182E1],"tree_param":{"num_deleted":"0","num_feature":"15","num_nodes":"5","size_leaf_vector":"1"}},{"base_weights":[-1.593177E-2,-3.455359E-1,2.2526631E-1,-1.08205015E-2,7.1340456E-4,6.840017E-3,-7.5634536E-3],"categories":[],"categories_nodes":[],"categories_segments":[],"categories_sizes":[],"default_left":[0,0,0,0,0,0,0],"id":89,"left_children":[1,3,5,-1,-1,-1,-1],"loss_changes":[1.4857956E1,6.6343946E0,8.570332E0,0E0,0E0,0E0,0E0],"parents":[2147483647,0,0,1,1,2,2],"right_children":[2,4,6,-1,-1,-1,-1],"split_conditions":[-3.6844522E-1,-4.901422E-1,1.8896979E0,-1.08205015E-2,7.1340456E-4,6.840017E-3,-7.5634536E-3],"split_indices":[5,10,5,0,0,0,0],"split_type":[0,0,0,0,0,0,0],"sum_hessian":[1.6756815E2,7.091436E1,9.6653786E1,4.6115543E1,2.4798819E1,8.564269E1,1.1011088E1],"tree_param":{"num_deleted":"0","num_feature":"15","num_nodes":"7","size_leaf_vector":"1"}},{"base_weights":[-1.569864E-2,-1.3284383E-2,1.4926851E-1,1.38465185E-2,-2.3400548E-4],"categories":[],"categories_nodes":[],"categories_segments":[],"categories_sizes":[],"default_left":[0,0,0,0,0],"id":90,"left_children":[1,-1,3,-1,-1],"loss_changes":[1.844192E1,0E0,1.2384594E1,0E0,0E0],"parents":[2147483647,0,0,2,2],"right_children":[2,-1,4,-1,-1],"split_conditions":[-9.595326E-1,-1.3284383E-2,-7.756767E-1,1.38465185E-2,-2.3400548E-4],"split_indices":[6,0,7,0,0],"split_type":[0,0,0,0,0],"sum_hessian":[1.5022525E2,2.6169987E1,1.2405526E2,2.299177E1,1.0106349E2],"tree_param":{"num_deleted":"0","num_feature":"15","num_nodes":"5","size_leaf_vector":"1"}},{"base_weights":[2.8071666E-2,2.2924054E-1,-2.4960431E-1,7.5709033E-3,-2.7170237E-3,-1.2356623E-2,6.738208E-3],"categories":[],"categories_nodes":[],"categories_segments":[],"categories_sizes":[],"default_left":[0,0,0,0,0,0,0],"id":91,"left_children":[1,3,5,-1,-1,-1,-1],"loss_changes":[9.572252E0,6.2118883E0,1.7378456E1,0E0,0E0,0E0,0E0],"parents":[2147483647,0,0,1,1,2,2],"right_children":[2,4,6,-1,-1,-1,-1],"split_conditions":[5.871563E-1,3.6391452E-1,6.959244E-1,7.5709033E-3,-2.7170237E-3,-1.2356623E-2,6.738208E-3],"split_indices":[8,0,2,0,0,0,0],"split_type":[0,0,0,0,0,0,0],"sum_hessian":[1.5350769E2,9.2015854E1,6.1491837E1,6.70167E1,2.4999155E1,3.8527725E1,2.2964111E1],"tree_param":{"num_deleted":"0","num_feature":"15","num_nodes":"7","size_leaf_vector":"1"}},{"base_weights":[-4.789781E-2,-2.6955587E-1,3.9845443E-1,1.945804E-3,-1.2674702E-2,1.3290968E-2,-5.211251E-3],"categories":[],"categories_nodes":[],"categories_segments":[],"categories_sizes":[],"default_left":[0,0,0,0,0,0,0],"id":92,"left_children":[1,3,5,-1,-1,-1,-1],"loss_changes":[1.7582474E1,1.7116653E1,1.2184749E1,0E0,0E0,0E0,0E0],"parents":[2147483647,0,0,1,1,2,2],"right_children":[2,4,6,-1,-1,-1,-1],"split_conditions":[5.850956E-1,-1.1973854E-1,8.313383E-1,1.945804E-3,-1.2674702E-2,1.3290968E-2,-5.211251E-3],"split_indices":[3,7,6,0,0,0,0],"split_type":[0,0,0,0,0,0,0],"sum_hessian":[1.6024532E2,1.1095191E2,4.9293396E1,5.7191433E1,5.3760483E1,3.6142048E1,1.3151349E1],"tree_param":{"num_deleted":"0","num_feature":"15","num_nodes":"7","size_leaf_vector":"1"}},{"base_weights":[9.039355E-2,4.8402292E-1,-8.444386E-2,1.5512366E-2,-7.5308076E-4,-9.528264E-3,6.478403E-3],"categories":[],"categories_nodes":[],"categories_segments":[],"categories_sizes":[],"default_left":[0,0,0,0,0,0,0],"id":93,"left_children":[1,3,5,-1,-1,-1,-1],"loss_changes":[1.1063447E1,8.471144E0,1.9068104E1,0E0,0E0,0E0,0E0],"parents":[2147483647,0,0,1,1,2,2],"right_children":[2,4,6,-1,-1,-1,-1],"split_conditions":[-3.4262222E-1,-2.3180489E-1,3.4113017E-1,1.5512366E-2,-7.5308076E-4,-9.528264E-3,6.478403E-3],"split_indices":[8,1,3,0,0,0,0],"split_type":[0,0,0,0,0,0,0],"sum_hessian":[1.4060538E2,4.010861E1,1.0049677E2,2.4147219E1,1.59613905E1,5.1761955E1,4.8734818E1],"tree_param":{"num_deleted":"0","num_feature":"15","num_nodes":"7","size_leaf_vector":"1"}},{"base_weights":[-7.0662056E-3,3.806037E-1,-2.5010777E-1,-2.652237E-3,1.1621075E-2,-9.849181E-3,2.4535873E-3],"categories":[],"categories_nodes":[],"categories_segments":[],"categories_sizes":[],"default_left":[0,0,0,0,0,0,0],"id":94,"left_children":[1,3,5,-1,-1,-1,-1],"loss_changes":[1.4893916E1,7.306878E0,9.897568E0,0E0,0E0,0E0,0E0],"parents":[2147483647,0,0,1,1,2,2],"right_children":[2,4,6,-1,-1,-1,-1],"split_conditions":[-1.5255076E-1,-7.657841E-1,5.1023506E-2,-2.652237E-3,1.1621075E-2,-9.849181E-3,2.4535873E-3],"split_indices":[2,9,9,0,0,0,0],"split_type":[0,0,0,0,0,0,0],"sum_hessian":[1.4136827E2,5.09271E1,9.044118E1,1.3758378E1,3.7168724E1,5.4684048E1,3.5757126E1],"tree_param":{"num_deleted":"0","num_feature":"15","num_nodes":"7","size_leaf_vector":"1"}},{"base_weights":[-6.5470956E-2,-6.9457144E-1,1.3129002E-1,-0E0,-1.7995678E-2,9.811272E-3,-5.5888337E-3],"categories":[],"categories_nodes":[],"categories_segments":[],"categories_sizes":[],"default_left":[0,0,0,0,0,0,0],"id":95,"left_children":[1,3,5,-1,-1,-1,-1],"loss_changes":[2.1434187E1,6.5888176E0,2.0590883E1,0E0,0E0,0E0,0E0],"parents":[2147483647,0,0,1,1,2,2],"right_children":[2,4,6,-1,-1,-1,-1],"split_conditions":[-9.595326E-1,-8.341177E-1,-1.2948537E-2,-0E0,-1.7995678E-2,9.811272E-3,-5.5888337E-3],"split_indices":[6,5,6,0,0,0,0],"split_type":[0,0,0,0,0,0,0],"sum_hessian":[1.529793E2,3.2233086E1,1.20746216E2,8.524941E0,2.3708145E1,6.477334E1,5.5972878E1],"tree_param":{"num_deleted":"0","num_feature":"15","num_nodes":"7","size_leaf_vector":"1"}},{"base_weights":[3.3366043E-2,-1.9013375E-1,3.949475E-1,-9.154293E-3,4.1494123E-3,1.5723262E-2,-1.5761708E-3],"categories":[],"categories_nodes":[],"categories_segments":[],"categories_sizes":[],"default_left":[0,0,0,0,0,0,0],"id":96,"left_children":[1,3,5,-1,-1,-1,-1],"loss_changes":[1.5360103E1,1.3349957E1,1.4809111E1,0E0,0E0,0E0,0E0],"parents":[2147483647,0,0,1,1,2,2],"right_children":[2,4,6,-1,-1,-1,-1],"split_conditions":[3.5354316E-2,1.22020654E-1,2.5044113E-1,-9.154293E-3,4.1494123E-3,1.5723262E-2,-1.5761708E-3],"split_indices":[10,1,5,0,0,0,0],"split_type":[0,0,0,0,0,0,0],"sum_hessian":[1.7017148E2,1.0609446E2,6.407701E1,6.410639E1,4.1988068E1,3.3001324E1,3.1075691E1],"tree_param":{"num_deleted":"0","num_feature":"15","num_nodes":"7","size_leaf_vector":"1"}},{"base_weights":[-7.516999E-3,5.2964556E-1,-2.5097343E-1,1.2489625E-2,-0E0,-8.274281E-3,1.3918387E-2],"categories":[],"categories_nodes":[],"categories_segments":[],"categories_sizes":[],"default_left":[0,0,0,0,0,0,0],"id":97,"left_children":[1,3,5,-1,-1,-1,-1],"loss_changes":[2.2290024E1,2.5622559E0,2.0777004E1,0E0,0E0,0E0,0E0],"parents":[2147483647,0,0,1,1,2,2],"right_children":[2,4,6,-1,-1,-1,-1],"split_conditions":[-3.0747786E-1,5.378959E-1,2.4226103E0,1.2489625E-2,-0E0,-8.274281E-3,1.3918387E-2],"split_indices":[8,1,8,0,0,0,0],"split_type":[0,0,0,0,0,0,0],"sum_hessian":[1.5442757E2,4.3581676E1,1.10845894E2,3.5394176E1,8.1875E0,9.981475E1,1.1031141E1],"tree_param":{"num_deleted":"0","num_feature":"15","num_nodes":"7","size_leaf_vector":"1"}},{"base_weights":[-9.622465E-2,-1.37977665E-2,5.5712987E-2,4.3609235E-3,-9.337861E-3],"categories":[],"categories_nodes":[],"categories_segments":[],"categories_sizes":[],"default_left":[0,0,0,0,0],"id":98,"left_children":[1,-1,3,-1,-1],"loss_changes":[1.4825245E1,0E0,1.162838E1,0E0,0E0],"parents":[2147483647,0,0,2,2],"right_children":[2,-1,4,-1,-1],"split_conditions":[-1.0257173E0,-1.37977665E-2,1.3547806E0,4.3609235E-3,-9.337861E-3],"split_indices":[6,0,6,0,0],"split_type":[0,0,0,0,0],"sum_hessian":[1.4449414E2,2.4292528E1,1.2020161E2,9.7175224E1,2.3026382E1],"tree_param":{"num_deleted":"0","num_feature":"15","num_nodes":"5","size_leaf_vector":"1"}},{"base_weights":[-7.644941E-2,-4.936045E-1,1.11204885E-1,9.656933E-3,-1.7314386E-2,-5.283852E-3,6.10424E-3],"categories":[],"categories_nodes":[],"categories_segments":[],"categories_sizes":[],"default_left":[0,0,0,0,0,0,0],"id":99,"left_children":[1,3,5,-1,-1,-1,-1],"loss_changes":[1.3735391E1,2.3866005E1,9.432863E0,0E0,0E0,0E0,0E0],"parents":[2147483647,0,0,1,1,2,2],"right_children":[2,4,6,-1,-1,-1,-1],"split_conditions":[-7.3325837E-1,-8.341177E-1,-4.111166E-1,9.656933E-3,-1.7314386E-2,-5.283852E-3,6.10424E-3],"split_indices":[6,5,9,0,0,0,0],"split_type":[0,0,0,0,0,0,0],"sum_hessian":[1.552669E2,4.5275337E1,1.0999157E2,1.1012463E1,3.4262875E1,3.4610676E1,7.538089E1],"tree_param":{"num_deleted":"0","num_feature":"15","num_nodes":"7","size_leaf_vector":"1"}},{"base_weights":[3.1854562E-2,2.861656E-1,-2.9739246E-1,-2.0302688E-3,8.772004E-3,-1.6094858E-2,9.758707E-3],"categories":[],"categories_nodes":[],"categories_segments":[],"categories_sizes":[],"default_left":[0,0,0,0,0,0,0],"id":100,"left_children":[1,3,5,-1,-1,-1,-1],"loss_changes":[1.4867607E1,6.729945E0,3.419288E1,0E0,0E0,0E0,0E0],"parents":[2147483647,0,0,1,1,2,2],"right_children":[2,4,6,-1,-1,-1,-1],"split_conditions":[5.66299E-1,-7.734316E-1,7.133705E-1,-2.0302688E-3,8.772004E-3,-1.6094858E-2,9.758707E-3],"split_indices":[8,9,2,0,0,0,0],"split_type":[0,0,0,0,0,0,0],"sum_hessian":[1.595502E2,9.2397255E1,6.7152954E1,2.5074041E1,6.732321E1,4.1435173E1,2.571778E1],"tree_param":{"num_deleted":"0","num_feature":"15","num_nodes":"7","size_leaf_vector":"1"}},{"base_weights":[-1.2607728E-1,1.670698E-1,-4.9046445E-1,-6.3679847E-3,7.196605E-3,-2.1158315E-2,1.5074456E-3],"categories":[],"categories_nodes":[],"categories_segments":[],"categories_sizes":[],"default_left":[0,0,0,0,0,0,0],"id":101,"left_children":[1,3,5,-1,-1,-1,-1],"loss_changes":[1.7705568E1,9.639204E0,2.5228361E1,0E0,0E0,0E0,0E0],"parents":[2147483647,0,0,1,1,2,2],"right_children":[2,4,6,-1,-1,-1,-1],"split_conditions":[5.779196E-1,-8.2302773E-1,-5.872643E-1,-6.3679847E-3,7.196605E-3,-2.1158315E-2,1.5074456E-3],"split_indices":[8,9,6,0,0,0,0],"split_type":[0,0,0,0,0,0,0],"sum_hessian":[1.4682146E2,8.2544304E1,6.4277145E1,2.0318388E1,6.2225918E1,2.9067327E1,3.5209816E1],"tree_param":{"num_deleted":"0","num_feature":"15","num_nodes":"7","size_leaf_vector":"1"}},{"base_weights":[7.2855845E-2,-1.3818131E-2,1.4405048E-2,5.7858382E-3,-4.2490247E-3],"categories":[],"categories_nodes":[],"categories_segments":[],"categories_sizes":[],"default_left":[0,0,0,0,0],"id":102,"left_children":[1,3,-1,-1,-1],"loss_changes":[9.614061E0,9.270412E0,0E0,0E0,0E0],"parents":[2147483647,0,0,1,1],"right_children":[2,4,-1,-1,-1],"split_conditions":[2.4226103E0,-2.4768843E-1,1.4405048E-2,5.7858382E-3,-4.2490247E-3],"split_indices":[8,1,0,0,0],"split_type":[0,0,0,0,0],"sum_hessian":[1.4814972E2,1.370629E2,1.1086837E1,5.064204E1,8.6420845E1],"tree_param":{"num_deleted":"0","num_feature":"15","num_nodes":"5","size_leaf_vector":"1"}},{"base_weights":[3.267467E-2,-1.6247933E-1,3.3721662E-1,3.121757E-3,-8.015183E-3,1.4608756E-2,-0E0],"categories":[],"categories_nodes":[],"categories_segments":[],"categories_sizes":[],"default_left":[0,0,0,0,0,0,0],"id":103,"left_children":[1,3,5,-1,-1,-1,-1],"loss_changes":[9.910382E0,8.311201E0,8.419678E0,0E0,0E0,0E0,0E0],"parents":[2147483647,0,0,1,1,2,2],"right_children":[2,4,6,-1,-1,-1,-1],"split_conditions":[6.5826334E-2,-1.5607502E-1,-1.2948537E-2,3.121757E-3,-8.015183E-3,1.4608756E-2,-0E0],"split_indices":[9,2,6,0,0,0,0],"split_type":[0,0,0,0,0,0,0],"sum_hessian":[1.4651283E2,8.985037E1,5.666246E1,3.7980373E1,5.1869995E1,2.077566E1,3.5886803E1],"tree_param":{"num_deleted":"0","num_feature":"15","num_nodes":"7","size_leaf_vector":"1"}},{"base_weights":[-1.16447635E-1,-6.7267853E-1,7.618004E-2,-0E0,-1.6506579E-2,3.9680675E-3,-6.7669903E-3],"categories":[],"categories_nodes":[],"categories_segments":[],"categories_sizes":[],"default_left":[0,0,0,0,0,0,0],"id":104,"left_children":[1,3,5,-1,-1,-1,-1],"loss_changes":[1.679682E1,3.4737911E0,6.334209E0,0E0,0E0,0E0,0E0],"parents":[2147483647,0,0,1,1,2,2],"right_children":[2,4,6,-1,-1,-1,-1],"split_conditions":[-9.595326E-1,-3.6592546E-1,1.3023654E0,-0E0,-1.6506579E-2,3.9680675E-3,-6.7669903E-3],"split_indices":[6,3,6,0,0,0,0],"split_type":[0,0,0,0,0,0,0],"sum_hessian":[1.3789484E2,3.103644E1,1.06858406E2,8.340672E0,2.2695768E1,8.801276E1,1.884565E1],"tree_param":{"num_deleted":"0","num_feature":"15","num_nodes":"7","size_leaf_vector":"1"}},{"base_weights":[-1.4559117E-1,-2.515978E-1,1.4949399E-2,4.6735317E-3,-9.714289E-3],"categories":[],"categories_nodes":[],"categories_segments":[],"categories_sizes":[],"default_left":[0,0,0,0,0],"id":105,"left_children":[1,3,-1,-1,-1],"loss_changes":[1.7330616E1,1.9459656E1,0E0,0E0,0E0],"parents":[2147483647,0,0,1,1],"right_children":[2,4,-1,-1,-1],"split_conditions":[2.3723013E0,-3.0747786E-1,1.4949399E-2,4.6735317E-3,-9.714289E-3],"split_indices":[8,8,0,0,0],"split_type":[0,0,0,0,0],"sum_hessian":[1.6142215E2,1.5107385E2,1.0348294E1,4.77805E1,1.0329335E2],"tree_param":{"num_deleted":"0","num_feature":"15","num_nodes":"5","size_leaf_vector":"1"}},{"base_weights":[5.8400378E-2,-1.1999747E-2,1.2649487E-2,3.0520547E-3,-1.143473E-2],"categories":[],"categories_nodes":[],"categories_segments":[],"categories_sizes":[],"default_left":[0,0,0,0,0],"id":106,"left_children":[1,3,-1,-1,-1],"loss_changes":[6.71737E0,1.411731E1,0E0,0E0,0E0],"parents":[2147483647,0,0,1,1],"right_children":[2,4,-1,-1,-1],"split_conditions":[2.4226103E0,1.5745938E0,1.2649487E-2,3.0520547E-3,-1.143473E-2],"split_indices":[8,7,0,0,0],"split_type":[0,0,0,0,0],"sum_hessian":[1.4016757E2,1.3115381E2,9.013778E0,1.0502788E2,2.6125927E1],"tree_param":{"num_deleted":"0","num_feature":"15","num_nodes":"5","size_leaf_vector":"1"}},{"base_weights":[-1.2276268E-4,-3.7012362E-1,2.4196343E-1,-0E0,-1.1929107E-2,1.3128819E-2,4.5223098E-4],"categories":[],"categories_nodes":[],"categories_segments":[],"categories_sizes":[],"default_left":[0,0,0,0,0,0,0],"id":107,"left_children":[1,3,5,-1,-1,-1,-1],"loss_changes":[1.5505372E1,5.9128046E0,8.473963E0,0E0,0E0,0E0,0E0],"parents":[2147483647,0,0,1,1,2,2],"right_children":[2,4,6,-1,-1,-1,-1],"split_conditions":[-3.8714486E-1,-1.4750887E-1,-6.067958E-1,-0E0,-1.1929107E-2,1.3128819E-2,4.5223098E-4],"split_indices":[9,2,11,0,0,0,0],"split_type":[0,0,0,0,0,0,0],"sum_hessian":[1.536757E2,6.053131E1,9.31444E1,2.6136753E1,3.4394558E1,2.4450739E1,6.869366E1],"tree_param":{"num_deleted":"0","num_feature":"15","num_nodes":"7","size_leaf_vector":"1"}},{"base_weights":[-8.204897E-3,-1.1198168E-1,1.323703E-2,3.0435189E-3,-1.0738875E-2],"categories":[],"categories_nodes":[],"categories_segments":[],"categories_sizes":[],"default_left":[0,0,0,0,0],"id":108,"left_children":[1,3,-1,-1,-1],"loss_changes":[1.1065898E1,1.7434198E1,0E0,0E0,0E0],"parents":[2147483647,0,0,1,1],"right_children":[2,4,-1,-1,-1],"split_conditions":[2.4226103E0,5.779196E-1,1.323703E-2,3.0435189E-3,-1.0738875E-2],"split_indices":[8,8,0,0,0],"split_type":[0,0,0,0,0],"sum_hessian":[1.4845346E2,1.3632765E2,1.2125803E1,8.618119E1,5.014646E1],"tree_param":{"num_deleted":"0","num_feature":"15","num_nodes":"5","size_leaf_vector":"1"}},{"base_weights":[8.814512E-2,1.21309E-2,-5.6456294E-2,3.2557836E-3,-8.226434E-3],"categories":[],"categories_nodes":[],"categories_segments":[],"categories_sizes":[],"default_left":[0,0,0,0,0],"id":109,"left_children":[1,-1,3,-1,-1],"loss_changes":[1.265487E1,0E0,1.0947759E1,0E0,0E0],"parents":[2147483647,0,0,2,2],"right_children":[2,-1,4,-1,-1],"split_conditions":[-7.6937973E-1,1.21309E-2,-9.687669E-2,3.2557836E-3,-8.226434E-3],"split_indices":[8,0,6,0,0],"split_type":[0,0,0,0,0],"sum_hessian":[1.4836896E2,2.7597033E1,1.2077192E2,7.591994E1,4.4851982E1],"tree_param":{"num_deleted":"0","num_feature":"15","num_nodes":"5","size_leaf_vector":"1"}},{"base_weights":[1.3842796E-1,-1.4809617E-1,3.191032E-1,3.2560593E-3,-1.0572821E-2,8.180557E-3,-3.8498119E-3],"categories":[],"categories_nodes":[],"categories_segments":[],"categories_sizes":[],"default_left":[0,0,0,0,0,0,0],"id":110,"left_children":[1,3,5,-1,-1,-1,-1],"loss_changes":[8.180026E0,8.317048E0,5.2880354E0,0E0,0E0,0E0,0E0],"parents":[2147483647,0,0,1,1,2,2],"right_children":[2,4,6,-1,-1,-1,-1],"split_conditions":[-4.049825E-1,-1.10790536E-1,1.5166115E0,3.2560593E-3,-1.0572821E-2,8.180557E-3,-3.8498119E-3],"split_indices":[9,4,5,0,0,0,0],"split_type":[0,0,0,0,0,0,0],"sum_hessian":[1.3749442E2,5.1658997E1,8.583542E1,2.9819107E1,2.1839888E1,7.620043E1,9.63499E0],"tree_param":{"num_deleted":"0","num_feature":"15","num_nodes":"7","size_leaf_vector":"1"}},{"base_weights":[-1.5164293E-1,-2.5797614E-1,4.116549E-1,-6.843059E-4,-1.7191654E-2,1.4787412E-2,-1.4137165E-3],"categories":[],"categories_nodes":[],"categories_segments":[],"categories_sizes":[],"default_left":[0,0,0,0,0,0,0],"id":111,"left_children":[1,3,5,-1,-1,-1,-1],"loss_changes":[1.0615829E1,1.8340853E1,5.563625E0,0E0,0E0,0E0,0E0],"parents":[2147483647,0,0,1,1,2,2],"right_children":[2,4,6,-1,-1,-1,-1],"split_conditions":[1.5733409E0,1.3763031E0,2.7185342E-1,-6.843059E-4,-1.7191654E-2,1.4787412E-2,-1.4137165E-3],"split_indices":[8,7,4,0,0,0,0],"split_type":[0,0,0,0,0,0,0],"sum_hessian":[1.5484277E2,1.3585167E2,1.8991106E1,1.07166405E2,2.868527E1,9.686873E0,9.304233E0],"tree_param":{"num_deleted":"0","num_feature":"15","num_nodes":"7","size_leaf_vector":"1"}},{"base_weights":[1.46165555E-2,-8.014136E-2,1.4953511E-2,2.888604E-3,-1.0062853E-2],"categories":[],"categories_nodes":[],"categories_segments":[],"categories_sizes":[],"default_left":[0,0,0,0,0],"id":112,"left_children":[1,3,-1,-1,-1],"loss_changes":[1.2370364E1,1.51893E1,0E0,0E0,0E0],"parents":[2147483647,0,0,1,1],"right_children":[2,4,-1,-1,-1],"split_conditions":[2.3723013E0,5.871563E-1,1.4953511E-2,2.888604E-3,-1.0062853E-2],"split_indices":[8,8,0,0,0],"split_type":[0,0,0,0,0],"sum_hessian":[1.5171188E2,1.4023634E2,1.1475535E1,9.39312E1,4.6305145E1],"tree_param":{"num_deleted":"0","num_feature":"15","num_nodes":"5","size_leaf_vector":"1"}},{"base_weights":[1.24233544E-1,-0E0,1.620732E-2,4.6362164E-3,-5.7645803E-3],"categories":[],"categories_nodes":[],"categories_segments":[],"categories_sizes":[],"default_left":[0,0,0,0,0],"id":113,"left_children":[1,3,-1,-1,-1],"loss_changes":[1.1543201E1,9.359921E0,0E0,0E0,0E0],"parents":[2147483647,0,0,1,1],"right_children":[2,4,-1,-1,-1],"split_conditions":[1.691181E0,2.671285E-1,1.620732E-2,4.6362164E-3,-5.7645803E-3],"split_indices":[7,7,0,0,0],"split_type":[0,0,0,0,0],"sum_hessian":[1.3478851E2,1.22831345E2,1.1957171E1,7.074785E1,5.20835E1],"tree_param":{"num_deleted":"0","num_feature":"15","num_nodes":"5","size_leaf_vector":"1"}},{"base_weights":[-3.251157E-3,-4.4787252E-1,1.3153726E-1,7.1151033E-3,-1.5699172E-2,5.247065E-3,-7.1329204E-3],"categories":[],"categories_nodes":[],"categories_segments":[],"categories_sizes":[],"default_left":[0,0,0,0,0,0,0],"id":114,"left_children":[1,3,5,-1,-1,-1,-1],"loss_changes":[1.0219102E1,1.3818971E1,8.746011E0,0E0,0E0,0E0,0E0],"parents":[2147483647,0,0,1,1,2,2],"right_children":[2,4,6,-1,-1,-1,-1],"split_conditions":[-9.595326E-1,-9.6401364E-1,1.3547806E0,7.1151033E-3,-1.5699172E-2,5.247065E-3,-7.1329204E-3],"split_indices":[6,5,6,0,0,0,0],"split_type":[0,0,0,0,0,0,0],"sum_hessian":[1.4739226E2,3.1150686E1,1.1624158E2,8.1812315E0,2.2969454E1,9.657469E1,1.966688E1],"tree_param":{"num_deleted":"0","num_feature":"15","num_nodes":"7","size_leaf_vector":"1"}},{"base_weights":[-1.8188672E-2,-1.0766776E-1,1.25661595E-2,1.4216887E-3,-8.06612E-3],"categories":[],"categories_nodes":[],"categories_segments":[],"categories_sizes":[],"default_left":[0,0,0,0,0],"id":115,"left_children":[1,3,-1,-1,-1],"loss_changes":[8.799445E0,8.058565E0,0E0,0E0,0E0],"parents":[2147483647,0,0,1,1],"right_children":[2,4,-1,-1,-1],"split_conditions":[2.3181798E0,5.871563E-1,1.25661595E-2,1.4216887E-3,-8.06612E-3],"split_indices":[12,8,0,0,0],"split_type":[0,0,0,0,0],"sum_hessian":[1.4158878E2,1.3232246E2,9.266302E0,8.4615036E1,4.770743E1],"tree_param":{"num_deleted":"0","num_feature":"15","num_nodes":"5","size_leaf_vector":"1"}},{"base_weights":[-7.8134865E-2,-3.5301703E-1,2.878333E-1,-1.8654327E-3,-1.816298E-2,1.30315395E-2,1.2768791E-3],"categories":[],"categories_nodes":[],"categories_segments":[],"categories_sizes":[],"default_left":[0,0,0,0,0,0,0],"id":116,"left_children":[1,3,5,-1,-1,-1,-1],"loss_changes":[1.7216356E1,1.23345175E1,4.8275113E0,0E0,0E0,0E0,0E0],"parents":[2147483647,0,0,1,1,2,2],"right_children":[2,4,6,-1,-1,-1,-1],"split_conditions":[-6.3836644E-3,3.6142996E-1,-7.6937973E-1,-1.8654327E-3,-1.816298E-2,1.30315395E-2,1.2768791E-3],"split_indices":[10,12,8,0,0,0,0],"split_type":[0,0,0,0,0,0,0],"sum_hessian":[1.5240146E2,8.877368E1,6.3627777E1,6.8865265E1,1.990842E1,1.5999875E1,4.7627903E1],"tree_param":{"num_deleted":"0","num_feature":"15","num_nodes":"7","size_leaf_vector":"1"}},{"base_weights":[-7.8994304E-2,-3.333692E-1,9.838786E-2,5.4988996E-3,-1.03080785E-2,1.2809843E-2,-6.5416843E-3],"categories":[],"categories_nodes":[],"categories_segments":[],"categories_sizes":[],"default_left":[0,0,0,0,0,0,0],"id":117,"left_children":[1,3,5,-1,-1,-1,-1],"loss_changes":[7.503193E0,9.029955E0,2.4267746E1,0E0,0E0,0E0,0E0],"parents":[2147483647,0,0,1,1,2,2],"right_children":[2,4,6,-1,-1,-1,-1],"split_conditions":[-3.8714486E-1,-7.8371173E-1,-9.687669E-2,5.4988996E-3,-1.03080785E-2,1.2809843E-2,-6.5416843E-3],"split_indices":[9,3,6,0,0,0,0],"split_type":[0,0,0,0,0,0,0],"sum_hessian":[1.4553842E2,5.885726E1,8.668116E1,1.1232852E1,4.762441E1,3.7149765E1,4.95314E1],"tree_param":{"num_deleted":"0","num_feature":"15","num_nodes":"7","size_leaf_vector":"1"}},{"base_weights":[-3.5359155E-2,-2.2207241E-1,5.054463E-1,3.1104046E-3,-1.7060198E-2,1.4929601E-2,2.0019448E-4],"categories":[],"categories_nodes":[],"categories_segments":[],"categories_sizes":[],"default_left":[0,0,0,0,0,0,0],"id":118,"left_children":[1,3,5,-1,-1,-1,-1],"loss_changes":[1.738691E1,3.292768E1,4.3967695E0,0E0,0E0,0E0,0E0],"parents":[2147483647,0,0,1,1,2,2],"right_children":[2,4,6,-1,-1,-1,-1],"split_conditions":[6.959244E-1,5.871563E-1,2.566238E-1,3.1104046E-3,-1.7060198E-2,1.4929601E-2,2.0019448E-4],"split_indices":[2,8,10,0,0,0,0],"split_type":[0,0,0,0,0,0,0],"sum_hessian":[1.5599115E2,1.212745E2,3.4716656E1,7.9120476E1,4.2154026E1,1.8928816E1,1.5787842E1],"tree_param":{"num_deleted":"0","num_feature":"15","num_nodes":"7","size_leaf_vector":"1"}},{"base_weights":[4.1137066E-2,-5.824906E-2,1.4862803E-2,-5.0112735E-3,4.529171E-3],"categories":[],"categories_nodes":[],"categories_segments":[],"categories_sizes":[],"default_left":[0,0,0,0,0],"id":119,"left_children":[1,3,-1,-1,-1],"loss_changes":[1.2127756E1,8.52202E0,0E0,0E0,0E0],"parents":[2147483647,0,0,1,1],"right_children":[2,4,-1,-1,-1],"split_conditions":[2.4226103E0,7.662924E-2,1.4862803E-2,-5.0112735E-3,4.529171E-3],"split_indices":[8,0,0,0,0],"split_type":[0,0,0,0,0],"sum_hessian":[1.4942598E2,1.3687642E2,1.254956E1,8.443433E1,5.244208E1],"tree_param":{"num_deleted":"0","num_feature":"15","num_nodes":"5","size_leaf_vector":"1"}},{"base_weights":[-4.939637E-2,1.5477565E-1,-3.4427962E-1,-2.8186995E-3,7.3552593E-3,-1.4280967E-2,1.0700886E-2],"categories":[],"categories_nodes":[],"categories_segments":[],"categories_sizes":[],"default_left":[0,0,0,0,0,0,0],"id":120,"left_children":[1,3,5,-1,-1,-1,-1],"loss_changes":[1.03055725E1,6.9146953E0,2.6467682E1,0E0,0E0,0E0,0E0],"parents":[2147483647,0,0,1,1,2,2],"right_children":[2,4,6,-1,-1,-1,-1],"split_conditions":[5.871563E-1,-4.7219032E-1,1.8852097E0,-2.8186995E-3,7.3552593E-3,-1.4280967E-2,1.0700886E-2],"split_indices":[8,9,9,0,0,0,0],"split_type":[0,0,0,0,0,0,0],"sum_hessian":[1.5105627E2,8.9779495E1,6.127677E1,3.689884E1,5.2880653E1,4.5128445E1,1.6148329E1],"tree_param":{"num_deleted":"0","num_feature":"15","num_nodes":"7","size_leaf_vector":"1"}},{"base_weights":[-5.4368764E-2,-1.6020213E-1,1.3055493E-2,5.591617E-3,-7.1159755E-3],"categories":[],"categories_nodes":[],"categories_segments":[],"categories_sizes":[],"default_left":[0,0,0,0,0],"id":121,"left_children":[1,3,-1,-1,-1],"loss_changes":[1.2545612E1,1.3793109E1,0E0,0E0,0E0],"parents":[2147483647,0,0,1,1],"right_children":[2,4,-1,-1,-1],"split_conditions":[2.4226103E0,-3.9794093E-1,1.3055493E-2,5.591617E-3,-7.1159755E-3],"split_indices":[8,8,0,0,0],"split_type":[0,0,0,0,0],"sum_hessian":[1.5263951E2,1.4005382E2,1.25857E1,4.035099E1,9.970283E1],"tree_param":{"num_deleted":"0","num_feature":"15","num_nodes":"5","size_leaf_vector":"1"}},{"base_weights":[8.154604E-2,-2.9080218E-1,1.8706737E-1,3.2793751E-3,-1.1871348E-2,5.662761E-3,-7.716081E-3],"categories":[],"categories_nodes":[],"categories_segments":[],"categories_sizes":[],"default_left":[0,0,0,0,0,0,0],"id":122,"left_children":[1,3,5,-1,-1,-1,-1],"loss_changes":[6.830862E0,6.4897776E0,8.33136E0,0E0,0E0,0E0,0E0],"parents":[2147483647,0,0,1,1,2,2],"right_children":[2,4,6,-1,-1,-1,-1],"split_conditions":[-8.0191606E-1,-3.4201485E-1,1.8896979E0,3.2793751E-3,-1.1871348E-2,5.662761E-3,-7.716081E-3],"split_indices":[10,7,5,0,0,0,0],"split_type":[0,0,0,0,0,0,0],"sum_hessian":[1.5503383E2,2.8651854E1,1.2638197E2,1.1780235E1,1.6871618E1,1.1362451E2,1.2757461E1],"tree_param":{"num_deleted":"0","num_feature":"15","num_nodes":"7","size_leaf_vector":"1"}},{"base_weights":[4.8904207E-2,-6.5729775E-2,4.9583185E-1,5.131684E-3,-6.7127016E-3,1.35939E-2,-0E0],"categories":[],"categories_nodes":[],"categories_segments":[],"categories_sizes":[],"default_left":[0,0,0,0,0,0,0],"id":123,"left_children":[1,3,5,-1,-1,-1,-1],"loss_changes":[8.869452E0,1.2398952E1,2.540639E0,0E0,0E0,0E0,0E0],"parents":[2147483647,0,0,1,1,2,2],"right_children":[2,4,6,-1,-1,-1,-1],"split_conditions":[1.1291982E0,-1.7727356E-1,6.989039E-1,5.131684E-3,-6.7127016E-3,1.35939E-2,-0E0],"split_indices":[3,1,4,0,0,0,0],"split_type":[0,0,0,0,0,0,0],"sum_hessian":[1.499994E2,1.23707985E2,2.6291412E1,5.489408E1,6.88139E1,1.5280004E1,1.101141E1],"tree_param":{"num_deleted":"0","num_feature":"15","num_nodes":"7","size_leaf_vector":"1"}},{"base_weights":[-1.3704641E-1,7.6012895E-2,-4.1403505E-1,5.2392916E-3,-4.8460024E-3,-1.1994192E-2,9.87567E-3],"categories":[],"categories_nodes":[],"categories_segments":[],"categories_sizes":[],"default_left":[0,0,0,0,0,0,0],"id":124,"left_children":[1,3,5,-1,-1,-1,-1],"loss_changes":[1.0804112E1,6.693004E0,1.599538E1,0E0,0E0,0E0,0E0],"parents":[2147483647,0,0,1,1,2,2],"right_children":[2,4,6,-1,-1,-1,-1],"split_conditions":[5.66299E-1,2.9662237E-1,2.4226103E0,5.2392916E-3,-4.8460024E-3,-1.1994192E-2,9.87567E-3],"split_indices":[8,0,8,0,0,0,0],"split_type":[0,0,0,0,0,0,0],"sum_hessian":[1.6354669E2,9.409152E1,6.945517E1,6.238329E1,3.170823E1,6.1112106E1,8.343061E0],"tree_param":{"num_deleted":"0","num_feature":"15","num_nodes":"7","size_leaf_vector":"1"}},{"base_weights":[-9.186124E-2,-6.505639E-1,9.0357326E-2,-0E0,-1.724791E-2,1.0121226E-2,-1.8565091E-3],"categories":[],"categories_nodes":[],"categories_segments":[],"categories_sizes":[],"default_left":[0,0,0,0,0,0,0],"id":125,"left_children":[1,3,5,-1,-1,-1,-1],"loss_changes":[1.7040688E1,5.6464977E0,1.0332132E1,0E0,0E0,0E0,0E0],"parents":[2147483647,0,0,1,1,2,2],"right_children":[2,4,6,-1,-1,-1,-1],"split_conditions":[-9.595326E-1,-9.682978E-1,-3.0549446E-1,-0E0,-1.724791E-2,1.0121226E-2,-1.8565091E-3],"split_indices":[6,9,8,0,0,0,0],"split_type":[0,0,0,0,0,0,0],"sum_hessian":[1.476846E2,3.1981495E1,1.1570311E2,1.0067911E1,2.1913584E1,3.2207943E1,8.349517E1],"tree_param":{"num_deleted":"0","num_feature":"15","num_nodes":"7","size_leaf_vector":"1"}},{"base_weights":[-2.9633597E-3,-1.5909596E-1,3.959099E-1,-1.0694777E-2,1.9365297E-4,1.6346753E-2,-4.1335938E-3],"categories":[],"categories_nodes":[],"categories_segments":[],"categories_sizes":[],"default_left":[0,0,0,0,0,0,0],"id":126,"left_children":[1,3,5,-1,-1,-1,-1],"loss_changes":[9.932642E0,8.118612E0,1.3343988E1,0E0,0E0,0E0,0E0],"parents":[2147483647,0,0,1,1,2,2],"right_children":[2,4,6,-1,-1,-1,-1],"split_conditions":[8.012577E-1,-9.595326E-1,4.7343705E-2,-1.0694777E-2,1.9365297E-4,1.6346753E-2,-4.1335938E-3],"split_indices":[3,6,6,0,0,0,0],"split_type":[0,0,0,0,0,0,0],"sum_hessian":[1.4519093E2,1.1003627E2,3.5154655E1,2.989986E1,8.013641E1,1.9776127E1,1.537853E1],"tree_param":{"num_deleted":"0","num_feature":"15","num_nodes":"7","size_leaf_vector":"1"}},{"base_weights":[7.5975497E-4,-4.8915064E-1,1.5797491E-1,4.1290526E-3,-1.482997E-2,7.252332E-3,-1.1308709E-2],"categories":[],"categories_nodes":[],"categories_segments":[],"categories_sizes":[],"default_left":[0,0,0,0,0,0,0],"id":127,"left_children":[1,3,5,-1,-1,-1,-1],"loss_changes":[1.3293352E1,9.185731E0,2.1691595E1,0E0,0E0,0E0,0E0],"parents":[2147483647,0,0,1,1,2,2],"right_children":[2,4,6,-1,-1,-1,-1],"split_conditions":[-9.595326E-1,-7.73242E-1,1.3547806E0,4.1290526E-3,-1.482997E-2,7.252332E-3,-1.1308709E-2],"split_indices":[6,4,6,0,0,0,0],"split_type":[0,0,0,0,0,0,0],"sum_hessian":[1.5886343E2,3.2433147E1,1.2643028E2,8.014646E0,2.4418503E1,1.0312797E2,2.3302317E1],"tree_param":{"num_deleted":"0","num_feature":"15","num_nodes":"7","size_leaf_vector":"1"}},{"base_weights":[-4.6508866E-3,3.727682E-1,-1.5611465E-1,-0E0,1.4344442E-2,-7.793156E-3,4.6048155E-3],"categories":[],"categories_nodes":[],"categories_segments":[],"categories_sizes":[],"default_left":[0,0,0,0,0,0,0],"id":128,"left_children":[1,3,5,-1,-1,-1,-1],"loss_changes":[9.571179E0,6.2048407E0,1.2144727E1,0E0,0E0,0E0,0E0],"parents":[2147483647,0,0,1,1,2,2],"right_children":[2,4,6,-1,-1,-1,-1],"split_conditions":[-4.1503936E-1,-3.9236948E-1,6.5148485E-1,-0E0,1.4344442E-2,-7.793156E-3,4.6048155E-3],"split_indices":[8,3,3,0,0,0,0],"split_type":[0,0,0,0,0,0,0],"sum_hessian":[1.5305772E2,3.817662E1,1.148811E2,2.2370762E1,1.580586E1,7.316555E1,4.1715557E1],"tree_param":{"num_deleted":"0","num_feature":"15","num_nodes":"7","size_leaf_vector":"1"}},{"base_weights":[-8.82633E-2,1.1483167E-1,-3.9043605E-1,-9.1307545E-3,5.290472E-3,