{"learner":{"attributes":{"best_iteration":"5","best_score":"0.44150617993676344"},"feature_names":["z180_ret_1d","z180_ret_2d","z180_ret_3d","z180_ret_5d","z180_ret_10d","z180_std_5","z180_ret_std_5","z180_std_10","z180_std_20","z180_rsi_14","z180_macd_hist","z180_bb_percent_b_20","z180_hl_spread","z180_volume_z_5","z180_volume_z_20"],"feature_types":[],"gradient_booster":{"model":{"gbtree_model_param":{"num_parallel_tree":"1","num_trees":"306"},"iteration_indptr":[0,1,2,3,4,5,6,7,8,9,10,11,12,13,14,15,16,17,18,19,20,21,22,23,24,25,26,27,28,29,30,31,32,33,34,35,36,37,38,39,40,41,42,43,44,45,46,47,48,49,50,51,52,53,54,55,56,57,58,59,60,61,62,63,64,65,66,67,68,69,70,71,72,73,74,75,76,77,78,79,80,81,82,83,84,85,86,87,88,89,90,91,92,93,94,95,96,97,98,99,100,101,102,103,104,105,106,107,108,109,110,111,112,113,114,115,116,117,118,119,120,121,122,123,124,125,126,127,128,129,130,131,132,133,134,135,136,137,138,139,140,141,142,143,144,145,146,147,148,149,150,151,152,153,154,155,156,157,158,159,160,161,162,163,164,165,166,167,168,169,170,171,172,173,174,175,176,177,178,179,180,181,182,183,184,185,186,187,188,189,190,191,192,193,194,195,196,197,198,199,200,201,202,203,204,205,206,207,208,209,210,211,212,213,214,215,216,217,218,219,220,221,222,223,224,225,226,227,228,229,230,231,232,233,234,235,236,237,238,239,240,241,242,243,244,245,246,247,248,249,250,251,252,253,254,255,256,257,258,259,260,261,262,263,264,265,266,267,268,269,270,271,272,273,274,275,276,277,278,279,280,281,282,283,284,285,286,287,288,289,290,291,292,293,294,295,296,297,298,299,300,301,302,303,304,305,306],"tree_info":[0,0,0,0,0,0,0,0,0,0,0,0,0,0,0,0,0,0,0,0,0,0,0,0,0,0,0,0,0,0,0,0,0,0,0,0,0,0,0,0,0,0,0,0,0,0,0,0,0,0,0,0,0,0,0,0,0,0,0,0,0,0,0,0,0,0,0,0,0,0,0,0,0,0,0,0,0,0,0,0,0,0,0,0,0,0,0,0,0,0,0,0,0,0,0,0,0,0,0,0,0,0,0,0,0,0,0,0,0,0,0,0,0,0,0,0,0,0,0,0,0,0,0,0,0,0,0,0,0,0,0,0,0,0,0,0,0,0,0,0,0,0,0,0,0,0,0,0,0,0,0,0,0,0,0,0,0,0,0,0,0,0,0,0,0,0,0,0,0,0,0,0,0,0,0,0,0,0,0,0,0,0,0,0,0,0,0,0,0,0,0,0,0,0,0,0,0,0,0,0,0,0,0,0,0,0,0,0,0,0,0,0,0,0,0,0,0,0,0,0,0,0,0,0,0,0,0,0,0,0,0,0,0,0,0,0,0,0,0,0,0,0,0,0,0,0,0,0,0,0,0,0,0,0,0,0,0,0,0,0,0,0,0,0,0,0,0,0,0,0,0,0,0,0,0,0,0,0,0,0,0,0,0,0,0,0,0,0,0,0,0,0,0,0,0,0,0,0,0,0,0,0,0,0,0,0],"trees":[{"base_weights":[4.946779E-2,-4.9733362E-1,4.1282552E-1,-1.6556907E-2,5.4187505E-3,-0E0,1.15311295E-2],"categories":[],"categories_nodes":[],"categories_segments":[],"categories_sizes":[],"default_left":[0,0,0,0,0,0,0],"id":0,"left_children":[1,3,5,-1,-1,-1,-1],"loss_changes":[2.4572702E1,1.4970862E1,5.4003954E0,0E0,0E0,0E0,0E0],"parents":[2147483647,0,0,1,1,2,2],"right_children":[2,4,6,-1,-1,-1,-1],"split_conditions":[-4.9558717E-1,-4.7656468E-1,-5.8603954E-1,-1.6556907E-2,5.4187505E-3,-0E0,1.15311295E-2],"split_indices":[14,8,3,0,0,0,0],"split_type":[0,0,0,0,0,0,0],"sum_hessian":[1.0580212E2,3.9815273E1,6.598685E1,2.8261047E1,1.1554224E1,2.0296503E1,4.5690342E1],"tree_param":{"num_deleted":"0","num_feature":"15","num_nodes":"7","size_leaf_vector":"1"}},{"base_weights":[9.226744E-2,-4.4620544E-1,4.7048926E-1,-1.8423323E-2,-0E0,-5.9987265E-3,1.3947139E-2],"categories":[],"categories_nodes":[],"categories_segments":[],"categories_sizes":[],"default_left":[0,0,0,0,0,0,0],"id":1,"left_children":[1,3,5,-1,-1,-1,-1],"loss_changes":[2.5649784E1,1.0079636E1,1.5202032E1,0E0,0E0,0E0,0E0],"parents":[2147483647,0,0,1,1,2,2],"right_children":[2,4,6,-1,-1,-1,-1],"split_conditions":[-8.736353E-1,-3.932167E-1,-9.941217E-1,-1.8423323E-2,-0E0,-5.9987265E-3,1.3947139E-2],"split_indices":[8,3,10,0,0,0,0],"split_type":[0,0,0,0,0,0,0],"sum_hessian":[1.0754636E2,4.2614544E1,6.493181E1,1.49893055E1,2.7625237E1,1.3108793E1,5.1823017E1],"tree_param":{"num_deleted":"0","num_feature":"15","num_nodes":"7","size_leaf_vector":"1"}},{"base_weights":[-8.62002E-2,-5.299437E-1,1.4490183E-1,-1.8543607E-2,-4.0713625E-4,1.4609729E-2,-1.5108027E-3],"categories":[],"categories_nodes":[],"categories_segments":[],"categories_sizes":[],"default_left":[0,0,0,0,0,0,0],"id":2,"left_children":[1,3,5,-1,-1,-1,-1],"loss_changes":[1.244558E1,7.2591963E0,1.1283159E1,0E0,0E0,0E0,0E0],"parents":[2147483647,0,0,1,1,2,2],"right_children":[2,4,6,-1,-1,-1,-1],"split_conditions":[-4.9002475E-1,-6.141177E-1,-2.5747904E-1,-1.8543607E-2,-4.0713625E-4,1.4609729E-2,-1.5108027E-3],"split_indices":[3,8,11,0,0,0,0],"split_type":[0,0,0,0,0,0,0],"sum_hessian":[1.0186716E2,3.238094E1,6.948621E1,1.2949113E1,1.9431828E1,1.4549493E1,5.4936726E1],"tree_param":{"num_deleted":"0","num_feature":"15","num_nodes":"7","size_leaf_vector":"1"}},{"base_weights":[-1.534333E-1,-4.7215474E-1,1.07986346E-1,-1.4131688E-2,2.6736453E-3,-5.558006E-3,7.025381E-3],"categories":[],"categories_nodes":[],"categories_segments":[],"categories_sizes":[],"default_left":[0,0,0,0,0,0,0],"id":3,"left_children":[1,3,5,-1,-1,-1,-1],"loss_changes":[1.0378973E1,9.245771E0,7.3929887E0,0E0,0E0,0E0,0E0],"parents":[2147483647,0,0,1,1,2,2],"right_children":[2,4,6,-1,-1,-1,-1],"split_conditions":[-4.1371885E-1,-4.028783E-1,-5.8603954E-1,-1.4131688E-2,2.6736453E-3,-5.558006E-3,7.025381E-3],"split_indices":[14,8,3,0,0,0,0],"split_type":[0,0,0,0,0,0,0],"sum_hessian":[1.05689445E2,4.607962E1,5.9609825E1,3.333467E1,1.274495E1,2.0964914E1,3.864491E1],"tree_param":{"num_deleted":"0","num_feature":"15","num_nodes":"7","size_leaf_vector":"1"}},{"base_weights":[-2.4981285E-2,-3.7297392E-1,1.6129147E-1,2.5953883E-3,-1.366267E-2,1.4372861E-2,-4.742054E-4],"categories":[],"categories_nodes":[],"categories_segments":[],"categories_sizes":[],"default_left":[0,0,0,0,0,0,0],"id":4,"left_children":[1,3,5,-1,-1,-1,-1],"loss_changes":[8.657537E0,8.696159E0,9.492863E0,0E0,0E0,0E0,0E0],"parents":[2147483647,0,0,1,1,2,2],"right_children":[2,4,6,-1,-1,-1,-1],"split_conditions":[-4.9002475E-1,-9.436349E-1,-3.465613E-1,2.5953883E-3,-1.366267E-2,1.4372861E-2,-4.742054E-4],"split_indices":[3,4,0,0,0,0,0],"split_type":[0,0,0,0,0,0,0],"sum_hessian":[1.12941505E2,3.8103935E1,7.483757E1,1.5305409E1,2.2798527E1,1.3527665E1,6.1309902E1],"tree_param":{"num_deleted":"0","num_feature":"15","num_nodes":"7","size_leaf_vector":"1"}},{"base_weights":[7.206257E-2,-3.6497375E-1,3.589902E-1,-1.2167126E-2,5.286626E-3,-5.440872E-3,1.1543264E-2],"categories":[],"categories_nodes":[],"categories_segments":[],"categories_sizes":[],"default_left":[0,0,0,0,0,0,0],"id":5,"left_children":[1,3,5,-1,-1,-1,-1],"loss_changes":[1.55168705E1,9.206726E0,1.2039642E1,0E0,0E0,0E0,0E0],"parents":[2147483647,0,0,1,1,2,2],"right_children":[2,4,6,-1,-1,-1,-1],"split_conditions":[-5.0985235E-1,3.2163253E-1,-6.8782675E-1,-1.2167126E-2,5.286626E-3,-5.440872E-3,1.1543264E-2],"split_indices":[14,2,2,0,0,0,0],"split_type":[0,0,0,0,0,0,0],"sum_hessian":[1.0538522E2,3.941566E1,6.596957E1,2.9785017E1,9.630644E0,1.5199998E1,5.0769566E1],"tree_param":{"num_deleted":"0","num_feature":"15","num_nodes":"7","size_leaf_vector":"1"}},{"base_weights":[-1.9149415E-2,-3.5703048E-1,4.102155E-1,6.1918376E-3,-1.1953075E-2,1.3105351E-2,-1.3297228E-3],"categories":[],"categories_nodes":[],"categories_segments":[],"categories_sizes":[],"default_left":[0,0,0,0,0,0,0],"id":6,"left_children":[1,3,5,-1,-1,-1,-1],"loss_changes":[1.7895468E1,1.3224468E1,7.215109E0,0E0,0E0,0E0,0E0],"parents":[2147483647,0,0,1,1,2,2],"right_children":[2,4,6,-1,-1,-1,-1],"split_conditions":[-3.8856292E-1,-1.1862378E0,7.8058463E-1,6.1918376E-3,-1.1953075E-2,1.3105351E-2,-1.3297228E-3],"split_indices":[8,7,11,0,0,0,0],"split_type":[0,0,0,0,0,0,0],"sum_hessian":[1.056345E2,6.126687E1,4.4367634E1,1.4463026E1,4.680384E1,2.8462662E1,1.5904972E1],"tree_param":{"num_deleted":"0","num_feature":"15","num_nodes":"7","size_leaf_vector":"1"}},{"base_weights":[-5.4956313E-2,-4.0584737E-1,2.4362555E-1,4.580569E-3,-1.4054657E-2,-4.5396704E-3,9.242631E-3],"categories":[],"categories_nodes":[],"categories_segments":[],"categories_sizes":[],"default_left":[0,0,0,0,0,0,0],"id":7,"left_children":[1,3,5,-1,-1,-1,-1],"loss_changes":[1.354397E1,1.3180465E1,8.223301E0,0E0,0E0,0E0,0E0],"parents":[2147483647,0,0,1,1,2,2],"right_children":[2,4,6,-1,-1,-1,-1],"split_conditions":[-6.1219573E-1,-1.1862378E0,-5.094687E-1,4.580569E-3,-1.4054657E-2,-4.5396704E-3,9.242631E-3],"split_indices":[7,7,14,0,0,0,0],"split_type":[0,0,0,0,0,0,0],"sum_hessian":[1.1023174E2,5.0730076E1,5.950167E1,1.5746239E1,3.4983837E1,1.7305054E1,4.2196617E1],"tree_param":{"num_deleted":"0","num_feature":"15","num_nodes":"7","size_leaf_vector":"1"}},{"base_weights":[-6.412143E-2,-4.7628543E-1,1.939194E-1,-1.3598865E-2,1.4171007E-3,1.1333946E-2,-1.2637521E-3],"categories":[],"categories_nodes":[],"categories_segments":[],"categories_sizes":[],"default_left":[0,0,0,0,0,0,0],"id":8,"left_children":[1,3,5,-1,-1,-1,-1],"loss_changes":[1.311419E1,6.340003E0,7.9465284E0,0E0,0E0,0E0,0E0],"parents":[2147483647,0,0,1,1,2,2],"right_children":[2,4,6,-1,-1,-1,-1],"split_conditions":[-4.9558717E-1,-4.028783E-1,-2.3641922E-1,-1.3598865E-2,1.4171007E-3,1.1333946E-2,-1.2637521E-3],"split_indices":[14,8,12,0,0,0,0],"split_type":[0,0,0,0,0,0,0],"sum_hessian":[1.0383494E2,3.853964E1,6.5295296E1,2.7825542E1,1.0714096E1,2.381636E1,4.147894E1],"tree_param":{"num_deleted":"0","num_feature":"15","num_nodes":"7","size_leaf_vector":"1"}},{"base_weights":[2.0006051E-2,-4.8885393E-1,3.215893E-1,-0E0,-1.4212993E-2,1.10738855E-2,-0E0],"categories":[],"categories_nodes":[],"categories_segments":[],"categories_sizes":[],"default_left":[0,0,0,0,0,0,0],"id":9,"left_children":[1,3,5,-1,-1,-1,-1],"loss_changes":[1.9009995E1,5.205106E0,6.268303E0,0E0,0E0,0E0,0E0],"parents":[2147483647,0,0,1,1,2,2],"right_children":[2,4,6,-1,-1,-1,-1],"split_conditions":[-8.8351387E-1,-6.793487E-2,-9.17063E-2,-0E0,-1.4212993E-2,1.10738855E-2,-0E0],"split_indices":[8,1,12,0,0,0,0],"split_type":[0,0,0,0,0,0,0],"sum_hessian":[1.06743164E2,3.640787E1,7.03353E1,1.36140785E1,2.2793795E1,3.820874E1,3.2126556E1],"tree_param":{"num_deleted":"0","num_feature":"15","num_nodes":"7","size_leaf_vector":"1"}},{"base_weights":[-1.479828E-2,-1.578322E-1,1.6804447E-2,9.4465475E-4,-1.611827E-2],"categories":[],"categories_nodes":[],"categories_segments":[],"categories_sizes":[],"default_left":[0,0,0,0,0],"id":10,"left_children":[1,3,-1,-1,-1],"loss_changes":[1.5918825E1,1.6585197E1,0E0,0E0,0E0],"parents":[2147483647,0,0,1,1],"right_children":[2,4,-1,-1,-1],"split_conditions":[1.583777E0,9.66782E-1,1.6804447E-2,9.4465475E-4,-1.611827E-2],"split_indices":[11,11,0,0,0],"split_type":[0,0,0,0,0],"sum_hessian":[1.1698586E2,1.0750918E2,9.4766865E0,8.683427E1,2.0674913E1],"tree_param":{"num_deleted":"0","num_feature":"15","num_nodes":"5","size_leaf_vector":"1"}},{"base_weights":[-7.8806125E-2,-2.551543E-1,1.5605279E-2,7.4047516E-3,-1.0036626E-2],"categories":[],"categories_nodes":[],"categories_segments":[],"categories_sizes":[],"default_left":[0,0,0,0,0],"id":11,"left_children":[1,3,-1,-1,-1],"loss_changes":[1.8704796E1,1.7732124E1,0E0,0E0,0E0],"parents":[2147483647,0,0,1,1],"right_children":[2,4,-1,-1,-1],"split_conditions":[1.3369187E0,-7.051519E-1,1.5605279E-2,7.4047516E-3,-1.0036626E-2],"split_indices":[11,9,0,0,0],"split_type":[0,0,0,0,0],"sum_hessian":[1.0610653E2,9.4250015E1,1.1856515E1,2.423807E1,7.001195E1],"tree_param":{"num_deleted":"0","num_feature":"15","num_nodes":"5","size_leaf_vector":"1"}},{"base_weights":[8.1655584E-2,-2.6321024E-1,3.1802666E-1,1.529437E-3,-9.454156E-3,1.3330488E-2,-0E0],"categories":[],"categories_nodes":[],"categories_segments":[],"categories_sizes":[],"default_left":[0,0,0,0,0,0,0],"id":12,"left_children":[1,3,5,-1,-1,-1,-1],"loss_changes":[9.433343E0,4.011646E0,7.5865355E0,0E0,0E0,0E0,0E0],"parents":[2147483647,0,0,1,1,2,2],"right_children":[2,4,6,-1,-1,-1,-1],"split_conditions":[-4.7864214E-1,-9.844727E-1,2.0573473E-1,1.529437E-3,-9.454156E-3,1.3330488E-2,-0E0],"split_indices":[14,7,14,0,0,0,0],"split_type":[0,0,0,0,0,0,0],"sum_hessian":[9.680895E1,3.7233154E1,5.9575798E1,1.4562606E1,2.267055E1,2.3689259E1,3.5886543E1],"tree_param":{"num_deleted":"0","num_feature":"15","num_nodes":"7","size_leaf_vector":"1"}},{"base_weights":[-1.0457836E-1,-6.4408946E-1,2.1160954E-1,-1.710146E-2,-0E0,-2.9367246E-3,7.2820894E-3],"categories":[],"categories_nodes":[],"categories_segments":[],"categories_sizes":[],"default_left":[0,0,0,0,0,0,0],"id":13,"left_children":[1,3,5,-1,-1,-1,-1],"loss_changes":[2.0583897E1,6.6475353E0,4.8281975E0,0E0,0E0,0E0,0E0],"parents":[2147483647,0,0,1,1,2,2],"right_children":[2,4,6,-1,-1,-1,-1],"split_conditions":[-8.8351387E-1,2.966049E-1,-8.5755897E-1,-1.710146E-2,-0E0,-2.9367246E-3,7.2820894E-3],"split_indices":[8,12,6,0,0,0,0],"split_type":[0,0,0,0,0,0,0],"sum_hessian":[1.0193912E2,3.538721E1,6.655191E1,2.5277004E1,1.0110208E1,1.8005527E1,4.8546383E1],"tree_param":{"num_deleted":"0","num_feature":"15","num_nodes":"7","size_leaf_vector":"1"}},{"base_weights":[-0E0,-1.3829079E-2,1.7823538E-1,-7.3585794E-3,1.1430476E-2],"categories":[],"categories_nodes":[],"categories_segments":[],"categories_sizes":[],"default_left":[0,0,0,0,0],"id":14,"left_children":[1,-1,3,-1,-1],"loss_changes":[1.5028713E1,0E0,2.2774717E1,0E0,0E0],"parents":[2147483647,0,0,2,2],"right_children":[2,-1,4,-1,-1],"split_conditions":[-9.941217E-1,-1.3829079E-2,-9.3651366E-1,-7.3585794E-3,1.1430476E-2],"split_indices":[10,0,8,0,0],"split_type":[0,0,0,0,0],"sum_hessian":[1.0330613E2,1.6037098E1,8.7269035E1,3.5712425E1,5.155661E1],"tree_param":{"num_deleted":"0","num_feature":"15","num_nodes":"5","size_leaf_vector":"1"}},{"base_weights":[6.368646E-2,-1.4895384E-1,4.4474053E-1,-1.0955138E-2,5.6777983E-3,1.4158569E-2,-4.502981E-3],"categories":[],"categories_nodes":[],"categories_segments":[],"categories_sizes":[],"default_left":[0,0,0,0,0,0,0],"id":15,"left_children":[1,3,5,-1,-1,-1,-1],"loss_changes":[9.845882E0,1.4779562E1,9.590358E0,0E0,0E0,0E0,0E0],"parents":[2147483647,0,0,1,1,2,2],"right_children":[2,4,6,-1,-1,-1,-1],"split_conditions":[4.043346E-1,-5.1682866E-1,1.7762432E0,-1.0955138E-2,5.6777983E-3,1.4158569E-2,-4.502981E-3],"split_indices":[9,8,4,0,0,0,0],"split_type":[0,0,0,0,0,0,0],"sum_hessian":[1.0150431E2,6.698317E1,3.4521137E1,3.482131E1,3.2161865E1,2.5488771E1,9.032365E0],"tree_param":{"num_deleted":"0","num_feature":"15","num_nodes":"7","size_leaf_vector":"1"}},{"base_weights":[3.8558893E-2,-6.333857E-2,8.763516E-3,7.957654E-3,-4.3042176E-3],"categories":[],"categories_nodes":[],"categories_segments":[],"categories_sizes":[],"default_left":[0,0,0,0,0],"id":16,"left_children":[1,3,-1,-1,-1],"loss_changes":[4.9278984E0,6.8976064E0,0E0,0E0,0E0],"parents":[2147483647,0,0,1,1],"right_children":[2,4,-1,-1,-1],"split_conditions":[8.2283324E-1,-1.1862378E0,8.763516E-3,7.957654E-3,-4.3042176E-3],"split_indices":[2,7,0,0,0],"split_type":[0,0,0,0,0],"sum_hessian":[9.6679886E1,8.1077286E1,1.5602603E1,1.48416195E1,6.6235664E1],"tree_param":{"num_deleted":"0","num_feature":"15","num_nodes":"5","size_leaf_vector":"1"}},{"base_weights":[-2.0242941E-1,-6.121387E-1,1.4223884E-1,-1.5973683E-2,5.6502566E-5,-1.0992885E-2,7.556127E-3],"categories":[],"categories_nodes":[],"categories_segments":[],"categories_sizes":[],"default_left":[0,0,0,0,0,0,0],"id":17,"left_children":[1,3,5,-1,-1,-1,-1],"loss_changes":[1.6317823E1,6.7542877E0,1.2114262E1,0E0,0E0,0E0,0E0],"parents":[2147483647,0,0,1,1,2,2],"right_children":[2,4,6,-1,-1,-1,-1],"split_conditions":[-4.0032133E-1,2.866367E-1,-1.0672203E0,-1.5973683E-2,5.6502566E-5,-1.0992885E-2,7.556127E-3],"split_indices":[14,2,3,0,0,0,0],"split_type":[0,0,0,0,0,0,0],"sum_hessian":[9.767722E1,4.2762413E1,5.491481E1,3.1994455E1,1.0767958E1,9.822041E0,4.509277E1],"tree_param":{"num_deleted":"0","num_feature":"15","num_nodes":"7","size_leaf_vector":"1"}},{"base_weights":[-1.637253E-2,-1.4995858E-1,8.52429E-3,2.6993498E-3,-7.1732574E-3],"categories":[],"categories_nodes":[],"categories_segments":[],"categories_sizes":[],"default_left":[0,0,0,0,0],"id":18,"left_children":[1,3,-1,-1,-1],"loss_changes":[6.9702387E0,6.312626E0,0E0,0E0,0E0],"parents":[2147483647,0,0,1,1],"right_children":[2,4,-1,-1,-1],"split_conditions":[1.0266335E0,-2.5742576E-1,8.52429E-3,2.6993498E-3,-7.1732574E-3],"split_indices":[9,9,0,0,0],"split_type":[0,0,0,0,0],"sum_hessian":[1.0383615E2,8.606822E1,1.7767935E1,3.5707767E1,5.0360455E1],"tree_param":{"num_deleted":"0","num_feature":"15","num_nodes":"5","size_leaf_vector":"1"}},{"base_weights":[1.326147E-2,-4.3911743E-1,3.35588E-1,-0E0,-1.7867617E-2,-4.9782195E-3,1.0754794E-2],"categories":[],"categories_nodes":[],"categories_segments":[],"categories_sizes":[],"default_left":[0,0,0,0,0,0,0],"id":19,"left_children":[1,3,5,-1,-1,-1,-1],"loss_changes":[1.7731934E1,1.0743123E1,1.0060619E1,0E0,0E0,0E0,0E0],"parents":[2147483647,0,0,1,1,2,2],"right_children":[2,4,6,-1,-1,-1,-1],"split_conditions":[-9.296999E-1,-1.2417153E0,-9.941217E-1,-0E0,-1.7867617E-2,-4.9782195E-3,1.0754794E-2],"split_indices":[8,8,10,0,0,0,0],"split_type":[0,0,0,0,0,0,0],"sum_hessian":[1.04221176E2,4.0715004E1,6.3506176E1,2.4243725E1,1.6471277E1,1.4513492E1,4.8992683E1],"tree_param":{"num_deleted":"0","num_feature":"15","num_nodes":"7","size_leaf_vector":"1"}},{"base_weights":[1.1233074E-1,-2.6396927E-1,3.4717456E-1,6.2513407E-3,-1.2087438E-2,9.8078055E-3,-5.0297854E-3],"categories":[],"categories_nodes":[],"categories_segments":[],"categories_sizes":[],"default_left":[0,0,0,0,0,0,0],"id":20,"left_children":[1,3,5,-1,-1,-1,-1],"loss_changes":[1.1127034E1,1.1394934E1,7.9270935E0,0E0,0E0,0E0,0E0],"parents":[2147483647,0,0,1,1,2,2],"right_children":[2,4,6,-1,-1,-1,-1],"split_conditions":[-8.8351387E-1,-1.447513E0,1.3945438E0,6.2513407E-3,-1.2087438E-2,9.8078055E-3,-5.0297854E-3],"split_indices":[8,8,7,0,0,0,0],"split_type":[0,0,0,0,0,0,0],"sum_hessian":[1.06636955E2,3.8912117E1,6.772484E1,1.3628286E1,2.5283829E1,5.7312366E1,1.0412471E1],"tree_param":{"num_deleted":"0","num_feature":"15","num_nodes":"7","size_leaf_vector":"1"}},{"base_weights":[-6.002221E-2,-1.9430408E-1,1.2158429E-2,1.3096516E-3,-1.245224E-2],"categories":[],"categories_nodes":[],"categories_segments":[],"categories_sizes":[],"default_left":[0,0,0,0,0],"id":21,"left_children":[1,3,-1,-1,-1],"loss_changes":[1.0509232E1,1.2005791E1,0E0,0E0,0E0],"parents":[2147483647,0,0,1,1],"right_children":[2,4,-1,-1,-1],"split_conditions":[1.3731906E0,3.6940426E-1,1.2158429E-2,1.3096516E-3,-1.245224E-2],"split_indices":[11,11,0,0,0],"split_type":[0,0,0,0,0],"sum_hessian":[1.0092814E2,9.059431E1,1.0333831E1,5.96832E1,3.0911108E1],"tree_param":{"num_deleted":"0","num_feature":"15","num_nodes":"5","size_leaf_vector":"1"}},{"base_weights":[-2.7851239E-2,5.507074E-1,-2.023668E-1,-0E0,1.5477765E-2,-1.3822775E-2,3.183918E-5],"categories":[],"categories_nodes":[],"categories_segments":[],"categories_sizes":[],"default_left":[0,0,0,0,0,0,0],"id":22,"left_children":[1,3,5,-1,-1,-1,-1],"loss_changes":[1.2035483E1,2.6878977E0,1.0120705E1,0E0,0E0,0E0,0E0],"parents":[2147483647,0,0,1,1,2,2],"right_children":[2,4,6,-1,-1,-1,-1],"split_conditions":[-8.85531E-1,5.183161E-1,-4.9002475E-1,-0E0,1.5477765E-2,-1.3822775E-2,3.183918E-5],"split_indices":[4,7,3,0,0,0,0],"split_type":[0,0,0,0,0,0,0],"sum_hessian":[1.0371767E2,1.8211514E1,8.550616E1,8.943834E0,9.267678E0,2.0289425E1,6.521673E1],"tree_param":{"num_deleted":"0","num_feature":"15","num_nodes":"7","size_leaf_vector":"1"}},{"base_weights":[-6.5470986E-2,-3.327914E-1,2.6083988E-1,-9.751799E-3,5.928542E-3,1.0390065E-2,-7.275816E-3],"categories":[],"categories_nodes":[],"categories_segments":[],"categories_sizes":[],"default_left":[0,0,0,0,0,0,0],"id":23,"left_children":[1,3,5,-1,-1,-1,-1],"loss_changes":[1.0349977E1,7.8702593E0,1.0320754E1,0E0,0E0,0E0,0E0],"parents":[2147483647,0,0,1,1,2,2],"right_children":[2,4,6,-1,-1,-1,-1],"split_conditions":[-2.1869762E-1,4.4195268E-1,9.186651E-1,-9.751799E-3,5.928542E-3,1.0390065E-2,-7.275816E-3],"split_indices":[6,7,5,0,0,0,0],"split_type":[0,0,0,0,0,0,0],"sum_hessian":[9.987109E1,5.648405E1,4.3387043E1,4.8232967E1,8.251083E0,3.2884888E1,1.0502155E1],"tree_param":{"num_deleted":"0","num_feature":"15","num_nodes":"7","size_leaf_vector":"1"}},{"base_weights":[1.5636398E-3,-1.3582539E-2,1.9175336E-1,7.51967E-3,-6.296658E-3],"categories":[],"categories_nodes":[],"categories_segments":[],"categories_sizes":[],"default_left":[0,0,0,0,0],"id":24,"left_children":[1,-1,3,-1,-1],"loss_changes":[1.5296073E1,0E0,1.0121734E1,0E0,0E0],"parents":[2147483647,0,0,2,2],"right_children":[2,-1,4,-1,-1],"split_conditions":[-9.941217E-1,-1.3582539E-2,9.617412E-1,7.51967E-3,-6.296658E-3],"split_indices":[10,0,10,0,0],"split_type":[0,0,0,0,0],"sum_hessian":[1.0386407E2,1.6481533E1,8.738254E1,6.722801E1,2.015452E1],"tree_param":{"num_deleted":"0","num_feature":"15","num_nodes":"5","size_leaf_vector":"1"}},{"base_weights":[-2.6446262E-2,-1.5415359E-1,1.1676771E-2,7.83195E-3,-7.263533E-3],"categories":[],"categories_nodes":[],"categories_segments":[],"categories_sizes":[],"default_left":[0,0,0,0,0],"id":25,"left_children":[1,3,-1,-1,-1],"loss_changes":[9.138402E0,1.2818936E1,0E0,0E0,0E0],"parents":[2147483647,0,0,1,1],"right_children":[2,4,-1,-1,-1],"split_conditions":[1.3731906E0,-5.9569865E-1,1.1676771E-2,7.83195E-3,-7.263533E-3],"split_indices":[11,1,0,0,0],"split_type":[0,0,0,0,0],"sum_hessian":[1.0337263E2,9.240197E1,1.097066E1,2.2087366E1,7.0314606E1],"tree_param":{"num_deleted":"0","num_feature":"15","num_nodes":"5","size_leaf_vector":"1"}},{"base_weights":[1.5804209E-2,-3.9185244E-1,2.7316603E-1,-0E0,-1.50993E-2,9.4115455E-3,-7.915547E-3],"categories":[],"categories_nodes":[],"categories_segments":[],"categories_sizes":[],"default_left":[0,0,0,0,0,0,0],"id":26,"left_children":[1,3,5,-1,-1,-1,-1],"loss_changes":[1.2909741E1,6.9446626E0,1.1959099E1,0E0,0E0,0E0,0E0],"parents":[2147483647,0,0,1,1,2,2],"right_children":[2,4,6,-1,-1,-1,-1],"split_conditions":[-9.3651366E-1,-1.2312082E0,1.3950471E0,-0E0,-1.50993E-2,9.4115455E-3,-7.915547E-3],"split_indices":[8,8,4,0,0,0,0],"split_type":[0,0,0,0,0,0,0],"sum_hessian":[1.0599815E2,3.769739E1,6.830076E1,2.1933077E1,1.5764316E1,5.5952415E1,1.2348343E1],"tree_param":{"num_deleted":"0","num_feature":"15","num_nodes":"7","size_leaf_vector":"1"}},{"base_weights":[-1.9434397E-1,-5.6778264E-1,8.232791E-2,-1.4165347E-2,-0E0,5.4085543E-3,-8.3149765E-3],"categories":[],"categories_nodes":[],"categories_segments":[],"categories_sizes":[],"default_left":[0,0,0,0,0,0,0],"id":27,"left_children":[1,3,5,-1,-1,-1,-1],"loss_changes":[1.3116066E1,4.647131E0,7.818674E0,0E0,0E0,0E0,0E0],"parents":[2147483647,0,0,1,1,2,2],"right_children":[2,4,6,-1,-1,-1,-1],"split_conditions":[-9.3651366E-1,3.803901E-1,9.186651E-1,-1.4165347E-2,-0E0,5.4085543E-3,-8.3149765E-3],"split_indices":[8,2,5,0,0,0,0],"split_type":[0,0,0,0,0,0,0],"sum_hessian":[1.09175705E2,4.3970753E1,6.5204956E1,3.430511E1,9.665644E0,5.177372E1,1.3431236E1],"tree_param":{"num_deleted":"0","num_feature":"15","num_nodes":"7","size_leaf_vector":"1"}},{"base_weights":[1.19920485E-1,-2.3343538E-1,2.9636747E-1,-1.17031075E-2,2.296359E-3,1.20394295E-2,-3.257148E-3],"categories":[],"categories_nodes":[],"categories_segments":[],"categories_sizes":[],"default_left":[0,0,0,0,0,0,0],"id":28,"left_children":[1,3,5,-1,-1,-1,-1],"loss_changes":[7.7372847E0,6.074301E0,1.2729296E1,0E0,0E0,0E0,0E0],"parents":[2147483647,0,0,1,1,2,2],"right_children":[2,4,6,-1,-1,-1,-1],"split_conditions":[-4.9002475E-1,-5.595278E-1,3.944994E-1,-1.17031075E-2,2.296359E-3,1.20394295E-2,-3.257148E-3],"split_indices":[3,8,0,0,0,0,0],"split_type":[0,0,0,0,0,0,0],"sum_hessian":[1.0410137E2,3.181462E1,7.228675E1,1.4211155E1,1.7603464E1,4.303074E1,2.9256012E1],"tree_param":{"num_deleted":"0","num_feature":"15","num_nodes":"7","size_leaf_vector":"1"}},{"base_weights":[-1.567851E-2,-3.7562066E-1,2.1307296E-1,-1.7535998E-2,-9.146467E-5,-9.880057E-3,8.965707E-3],"categories":[],"categories_nodes":[],"categories_segments":[],"categories_sizes":[],"default_left":[0,0,0,0,0,0,0],"id":29,"left_children":[1,3,5,-1,-1,-1,-1],"loss_changes":[1.0696233E1,8.616486E0,1.4739601E1,0E0,0E0,0E0,0E0],"parents":[2147483647,0,0,1,1,2,2],"right_children":[2,4,6,-1,-1,-1,-1],"split_conditions":[-8.8351387E-1,-2.3602745E-1,-1.101516E0,-1.7535998E-2,-9.146467E-5,-9.880057E-3,8.965707E-3],"split_indices":[8,4,10,0,0,0,0],"split_type":[0,0,0,0,0,0,0],"sum_hessian":[1.10185036E2,4.2268448E1,6.791659E1,1.1616047E1,3.0652401E1,1.3420218E1,5.449637E1],"tree_param":{"num_deleted":"0","num_feature":"15","num_nodes":"7","size_leaf_vector":"1"}},{"base_weights":[1.2911998E-1,-5.3616766E-2,1.2002723E-2,-7.2954395E-3,3.7192358E-3],"categories":[],"categories_nodes":[],"categories_segments":[],"categories_sizes":[],"default_left":[0,0,0,0,0],"id":30,"left_children":[1,3,-1,-1,-1],"loss_changes":[1.0017453E1,7.020344E0,0E0,0E0,0E0],"parents":[2147483647,0,0,1,1],"right_children":[2,4,-1,-1,-1],"split_conditions":[5.840014E-1,-9.3651366E-1,1.2002723E-2,-7.2954395E-3,3.7192358E-3],"split_indices":[2,8,0,0,0],"split_type":[0,0,0,0,0],"sum_hessian":[9.7670494E1,7.458624E1,2.3084246E1,3.2216152E1,4.237009E1],"tree_param":{"num_deleted":"0","num_feature":"15","num_nodes":"5","size_leaf_vector":"1"}},{"base_weights":[-1.9716676E-2,-6.127116E-1,3.090847E-1,-1.6413346E-2,3.9810623E-4,-4.965342E-3,9.484801E-3],"categories":[],"categories_nodes":[],"categories_segments":[],"categories_sizes":[],"default_left":[0,0,0,0,0,0,0],"id":31,"left_children":[1,3,5,-1,-1,-1,-1],"loss_changes":[2.195062E1,6.2871256E0,7.7931037E0,0E0,0E0,0E0,0E0],"parents":[2147483647,0,0,1,1,2,2],"right_children":[2,4,6,-1,-1,-1,-1],"split_conditions":[-9.296999E-1,3.1361997E-1,-1.0284914E0,-1.6413346E-2,3.9810623E-4,-4.965342E-3,9.484801E-3],"split_indices":[8,2,10,0,0,0,0],"split_type":[0,0,0,0,0,0,0],"sum_hessian":[9.328139E1,3.1586E1,6.169539E1,2.294791E1,8.638089E0,1.1683372E1,5.0012016E1],"tree_param":{"num_deleted":"0","num_feature":"15","num_nodes":"7","size_leaf_vector":"1"}},{"base_weights":[-5.2508045E-2,-4.1670993E-1,1.8257394E-1,4.4312733E-3,-1.3939522E-2,-5.3782854E-3,5.8146417E-3],"categories":[],"categories_nodes":[],"categories_segments":[],"categories_sizes":[],"default_left":[0,0,0,0,0,0,0],"id":32,"left_children":[1,3,5,-1,-1,-1,-1],"loss_changes":[1.0899441E1,1.0834324E1,4.4090385E0,0E0,0E0,0E0,0E0],"parents":[2147483647,0,0,1,1,2,2],"right_children":[2,4,6,-1,-1,-1,-1],"split_conditions":[-8.1917614E-1,-1.265798E0,-9.410782E-1,4.4312733E-3,-1.3939522E-2,-5.3782854E-3,5.8146417E-3],"split_indices":[7,7,14,0,0,0,0],"split_type":[0,0,0,0,0,0,0],"sum_hessian":[1.07572014E2,4.113842E1,6.643359E1,1.2038707E1,2.9099712E1,8.467006E0,5.796659E1],"tree_param":{"num_deleted":"0","num_feature":"15","num_nodes":"7","size_leaf_vector":"1"}},{"base_weights":[-6.7531257E-3,-5.1144123E-1,2.5328282E-1,3.5911358E-3,-1.5132526E-2,-5.1017776E-3,8.8434825E-3],"categories":[],"categories_nodes":[],"categories_segments":[],"categories_sizes":[],"default_left":[0,0,0,0,0,0,0],"id":33,"left_children":[1,3,5,-1,-1,-1,-1],"loss_changes":[1.6417446E1,9.1081505E0,8.894955E0,0E0,0E0,0E0,0E0],"parents":[2147483647,0,0,1,1,2,2],"right_children":[2,4,6,-1,-1,-1,-1],"split_conditions":[-9.3651366E-1,-8.4636444E-1,-8.0081445E-1,3.5911358E-3,-1.5132526E-2,-5.1017776E-3,8.8434825E-3],"split_indices":[8,6,6,0,0,0,0],"split_type":[0,0,0,0,0,0,0],"sum_hessian":[1.0524697E2,3.413695E1,7.111002E1,8.503171E0,2.5633781E1,1.6975357E1,5.4134666E1],"tree_param":{"num_deleted":"0","num_feature":"15","num_nodes":"7","size_leaf_vector":"1"}},{"base_weights":[5.622745E-2,1.17342835E-2,-1.1281937E-1,-1.568791E-2,2.5361488E-3],"categories":[],"categories_nodes":[],"categories_segments":[],"categories_sizes":[],"default_left":[0,0,0,0,0],"id":34,"left_children":[1,-1,3,-1,-1],"loss_changes":[1.103451E1,0E0,1.6098362E1,0E0,0E0],"parents":[2147483647,0,0,2,2],"right_children":[2,-1,4,-1,-1],"split_conditions":[-1.0791613E0,1.17342835E-2,-8.1917614E-1,-1.568791E-2,2.5361488E-3],"split_indices":[7,0,7,0,0],"split_type":[0,0,0,0,0],"sum_hessian":[1.0211956E2,2.0733788E1,8.138577E1,1.711945E1,6.426632E1],"tree_param":{"num_deleted":"0","num_feature":"15","num_nodes":"5","size_leaf_vector":"1"}},{"base_weights":[-8.732469E-3,-4.7650638E-1,2.675548E-1,-0E0,-1.4207607E-2,1.0921557E-2,-3.526652E-3],"categories":[],"categories_nodes":[],"categories_segments":[],"categories_sizes":[],"default_left":[0,0,0,0,0,0,0],"id":35,"left_children":[1,3,5,-1,-1,-1,-1],"loss_changes":[1.5448549E1,4.489381E0,1.025785E1,0E0,0E0,0E0,0E0],"parents":[2147483647,0,0,1,1,2,2],"right_children":[2,4,6,-1,-1,-1,-1],"split_conditions":[-4.0533283E-1,-6.5843296E-1,3.944994E-1,-0E0,-1.4207607E-2,1.0921557E-2,-3.526652E-3],"split_indices":[3,1,0,0,0,0,0],"split_type":[0,0,0,0,0,0,0],"sum_hessian":[1.0003882E2,3.6068916E1,6.3969902E1,1.5894367E1,2.0174547E1,3.941764E1,2.455226E1],"tree_param":{"num_deleted":"0","num_feature":"15","num_nodes":"7","size_leaf_vector":"1"}},{"base_weights":[3.6380947E-2,-3.3996388E-1,3.0859262E-1,9.871981E-4,-1.3878789E-2,-2.7290257E-3,1.0123996E-2],"categories":[],"categories_nodes":[],"categories_segments":[],"categories_sizes":[],"default_left":[0,0,0,0,0,0,0],"id":36,"left_children":[1,3,5,-1,-1,-1,-1],"loss_changes":[1.2183532E1,7.6941013E0,7.15627E0,0E0,0E0,0E0,0E0],"parents":[2147483647,0,0,1,1,2,2],"right_children":[2,4,6,-1,-1,-1,-1],"split_conditions":[-9.3651366E-1,-3.0291238E-1,-8.515727E-1,9.871981E-4,-1.3878789E-2,-2.7290257E-3,1.0123996E-2],"split_indices":[8,12,6,0,0,0,0],"split_type":[0,0,0,0,0,0,0],"sum_hessian":[1.0101669E2,3.9916573E1,6.110012E1,2.135214E1,1.8564432E1,1.808793E1,4.301219E1],"tree_param":{"num_deleted":"0","num_feature":"15","num_nodes":"7","size_leaf_vector":"1"}},{"base_weights":[-0E0,-2.4579686E-1,1.7271847E-1,9.044421E-3,-1.1107217E-2,-6.616085E-3,8.085273E-3],"categories":[],"categories_nodes":[],"categories_segments":[],"categories_sizes":[],"default_left":[0,0,0,0,0,0,0],"id":37,"left_children":[1,3,5,-1,-1,-1,-1],"loss_changes":[5.190544E0,1.3626975E1,9.254764E0,0E0,0E0,0E0,0E0],"parents":[2147483647,0,0,1,1,2,2],"right_children":[2,4,6,-1,-1,-1,-1],"split_conditions":[-5.9740937E-1,-1.2555436E0,-5.0985235E-1,9.044421E-3,-1.1107217E-2,-6.616085E-3,8.085273E-3],"split_indices":[7,7,14,0,0,0,0],"split_type":[0,0,0,0,0,0,0],"sum_hessian":[1.0255274E2,4.3126343E1,5.9426395E1,1.0983176E1,3.2143166E1,1.6143494E1,4.32829E1],"tree_param":{"num_deleted":"0","num_feature":"15","num_nodes":"7","size_leaf_vector":"1"}},{"base_weights":[7.3671915E-2,-4.1941187E-1,4.1506E-1,-9.937169E-4,-1.4668513E-2,1.2191485E-2,-5.236865E-3],"categories":[],"categories_nodes":[],"categories_segments":[],"categories_sizes":[],"default_left":[0,0,0,0,0,0,0],"id":38,"left_children":[1,3,5,-1,-1,-1,-1],"loss_changes":[2.0973207E1,4.7464857E0,1.1509063E1,0E0,0E0,0E0,0E0],"parents":[2147483647,0,0,1,1,2,2],"right_children":[2,4,6,-1,-1,-1,-1],"split_conditions":[-8.736353E-1,-1.2312082E0,9.186651E-1,-9.937169E-4,-1.4668513E-2,1.2191485E-2,-5.236865E-3],"split_indices":[8,8,5,0,0,0,0],"split_type":[0,0,0,0,0,0,0],"sum_hessian":[1.0631214E2,4.1453148E1,6.485899E1,2.5287628E1,1.616552E1,5.2224365E1,1.2634628E1],"tree_param":{"num_deleted":"0","num_feature":"15","num_nodes":"7","size_leaf_vector":"1"}},{"base_weights":[-1.8822888E-1,-3.158688E-1,7.456944E-3,-1.038135E-2,-0E0],"categories":[],"categories_nodes":[],"categories_segments":[],"categories_sizes":[],"default_left":[0,0,0,0,0],"id":39,"left_children":[1,3,-1,-1,-1],"loss_changes":[8.430019E0,5.8866453E0,0E0,0E0,0E0],"parents":[2147483647,0,0,1,1],"right_children":[2,4,-1,-1,-1],"split_conditions":[8.285587E-1,2.7168834E-1,7.456944E-3,-1.038135E-2,-0E0],"split_indices":[12,10,0,0,0],"split_type":[0,0,0,0,0],"sum_hessian":[9.470716E1,8.1811356E1,1.2895806E1,4.6476807E1,3.533455E1],"tree_param":{"num_deleted":"0","num_feature":"15","num_nodes":"5","size_leaf_vector":"1"}},{"base_weights":[5.1103033E-2,-1.15068726E-1,1.855063E-2,1.2449177E-3,-1.5530574E-2],"categories":[],"categories_nodes":[],"categories_segments":[],"categories_sizes":[],"default_left":[0,0,0,0,0],"id":40,"left_children":[1,3,-1,-1,-1],"loss_changes":[1.8132402E1,1.3050784E1,0E0,0E0,0E0],"parents":[2147483647,0,0,1,1],"right_children":[2,4,-1,-1,-1],"split_conditions":[1.3369187E0,9.66782E-1,1.855063E-2,1.2449177E-3,-1.5530574E-2],"split_indices":[11,11,0,0,0],"split_type":[0,0,0,0,0],"sum_hessian":[1.03329254E2,9.247355E1,1.0855709E1,7.816221E1,1.4311334E1],"tree_param":{"num_deleted":"0","num_feature":"15","num_nodes":"5","size_leaf_vector":"1"}},{"base_weights":[-0E0,-3.0725288E-1,2.2510123E-1,-1.4039931E-2,3.2131246E-4,-6.5386747E-3,7.80743E-3],"categories":[],"categories_nodes":[],"categories_segments":[],"categories_sizes":[],"default_left":[0,0,0,0,0,0,0],"id":41,"left_children":[1,3,5,-1,-1,-1,-1],"loss_changes":[8.542751E0,7.5468416E0,7.59129E0,0E0,0E0,0E0,0E0],"parents":[2147483647,0,0,1,1,2,2],"right_children":[2,4,6,-1,-1,-1,-1],"split_conditions":[-4.0032133E-1,-2.0028096E-1,-1.3403647E0,-1.4039931E-2,3.2131246E-4,-6.5386747E-3,7.80743E-3],"split_indices":[14,10,8,0,0,0,0],"split_type":[0,0,0,0,0,0,0],"sum_hessian":[1.0488262E2,4.3961826E1,6.0920795E1,1.6440874E1,2.7520954E1,1.0613927E1,5.0306866E1],"tree_param":{"num_deleted":"0","num_feature":"15","num_nodes":"7","size_leaf_vector":"1"}},{"base_weights":[-0E0,-1.4179441E-1,1.4171186E-2,6.389657E-3,-8.073639E-3],"categories":[],"categories_nodes":[],"categories_segments":[],"categories_sizes":[],"default_left":[0,0,0,0,0],"id":42,"left_children":[1,3,-1,-1,-1],"loss_changes":[1.2259977E1,1.3980064E1,0E0,0E0,0E0],"parents":[2147483647,0,0,1,1],"right_children":[2,4,-1,-1,-1],"split_conditions":[1.3731906E0,-4.645813E-1,1.4171186E-2,6.389657E-3,-8.073639E-3],"split_indices":[11,1,0,0,0],"split_type":[0,0,0,0,0],"sum_hessian":[1.0761869E2,9.642092E1,1.1197771E1,3.2818356E1,6.3602566E1],"tree_param":{"num_deleted":"0","num_feature":"15","num_nodes":"5","size_leaf_vector":"1"}},{"base_weights":[-2.123521E-2,2.343209E-1,-3.34432E-1,-5.831204E-3,1.2029606E-2,-1.177019E-2,3.0891246E-3],"categories":[],"categories_nodes":[],"categories_segments":[],"categories_sizes":[],"default_left":[0,0,0,0,0,0,0],"id":43,"left_children":[1,3,5,-1,-1,-1,-1],"loss_changes":[8.854154E0,1.3262617E1,7.5437226E0,0E0,0E0,0E0,0E0],"parents":[2147483647,0,0,1,1,2,2],"right_children":[2,4,6,-1,-1,-1,-1],"split_conditions":[-3.0291238E-1,-8.2517534E-2,8.285587E-1,-5.831204E-3,1.2029606E-2,-1.177019E-2,3.0891246E-3],"split_indices":[12,10,12,0,0,0,0],"split_type":[0,0,0,0,0,0,0],"sum_hessian":[9.1560074E1,4.9909557E1,4.165052E1,2.0161634E1,2.9747923E1,2.7546167E1,1.4104353E1],"tree_param":{"num_deleted":"0","num_feature":"15","num_nodes":"7","size_leaf_vector":"1"}},{"base_weights":[-7.207274E-2,-1.1377719E-2,6.614725E-2,5.8135167E-3,-6.867326E-3],"categories":[],"categories_nodes":[],"categories_segments":[],"categories_sizes":[],"default_left":[0,0,0,0,0],"id":44,"left_children":[1,-1,3,-1,-1],"loss_changes":[7.7313366E0,0E0,8.659627E0,0E0,0E0],"parents":[2147483647,0,0,2,2],"right_children":[2,-1,4,-1,-1],"split_conditions":[-9.941217E-1,-1.1377719E-2,9.21377E-1,5.8135167E-3,-6.867326E-3],"split_indices":[10,0,11,0,0],"split_type":[0,0,0,0,0],"sum_hessian":[9.133454E1,1.5350796E1,7.598374E1,5.234023E1,2.3643513E1],"tree_param":{"num_deleted":"0","num_feature":"15","num_nodes":"5","size_leaf_vector":"1"}},{"base_weights":[1.2887075E-2,-1.8539554E-1,1.2750977E-2,-8.931366E-3,2.847623E-3],"categories":[],"categories_nodes":[],"categories_segments":[],"categories_sizes":[],"default_left":[0,0,0,0,0],"id":45,"left_children":[1,3,-1,-1,-1],"loss_changes":[1.4223664E1,8.036114E0,0E0,0E0,0E0],"parents":[2147483647,0,0,1,1],"right_children":[2,4,-1,-1,-1],"split_conditions":[7.299953E-1,-5.211655E-1,1.2750977E-2,-8.931366E-3,2.847623E-3],"split_indices":[2,8,0,0,0],"split_type":[0,0,0,0,0],"sum_hessian":[9.359783E1,7.463492E1,1.896292E1,4.1420296E1,3.321462E1],"tree_param":{"num_deleted":"0","num_feature":"15","num_nodes":"5","size_leaf_vector":"1"}},{"base_weights":[-1.7310381E-2,3.4822655E-1,-2.3982877E-1,-7.744527E-4,1.1775647E-2,-7.843518E-3,7.2072097E-3],"categories":[],"categories_nodes":[],"categories_segments":[],"categories_sizes":[],"default_left":[0,0,0,0,0,0,0],"id":46,"left_children":[1,3,5,-1,-1,-1,-1],"loss_changes":[1.0036423E1,5.0061793E0,8.5102825E0,0E0,0E0,0E0,0E0],"parents":[2147483647,0,0,1,1,2,2],"right_children":[2,4,6,-1,-1,-1,-1],"split_conditions":[-2.5410223E-1,-1.0863931E0,1.3348104E0,-7.744527E-4,1.1775647E-2,-7.843518E-3,7.2072097E-3],"split_indices":[1,11,11,0,0,0,0],"split_type":[0,0,0,0,0,0,0],"sum_hessian":[1.06482414E2,3.6668182E1,6.981423E1,1.5358035E1,2.1310148E1,5.9497284E1,1.0316947E1],"tree_param":{"num_deleted":"0","num_feature":"15","num_nodes":"7","size_leaf_vector":"1"}},{"base_weights":[5.164099E-2,-2.890408E-1,2.5270233E-1,-0E0,-1.1339274E-2,8.975964E-3,-3.1318155E-3],"categories":[],"categories_nodes":[],"categories_segments":[],"categories_sizes":[],"default_left":[0,0,0,0,0,0,0],"id":47,"left_children":[1,3,5,-1,-1,-1,-1],"loss_changes":[8.15664E0,3.7816005E0,7.0108953E0,0E0,0E0,0E0,0E0],"parents":[2147483647,0,0,1,1,2,2],"right_children":[2,4,6,-1,-1,-1,-1],"split_conditions":[-5.094687E-1,-8.323325E-1,6.1050826E-1,-0E0,-1.1339274E-2,8.975964E-3,-3.1318155E-3],"split_indices":[14,14,0,0,0,0,0],"split_type":[0,0,0,0,0,0,0],"sum_hessian":[1.01012184E2,3.4181934E1,6.6830246E1,2.0194635E1,1.3987299E1,4.624731E1,2.0582935E1],"tree_param":{"num_deleted":"0","num_feature":"15","num_nodes":"7","size_leaf_vector":"1"}},{"base_weights":[-1.9731447E-1,-6.123021E-1,6.441044E-2,-5.302166E-4,-1.4607702E-2,-1.0403867E-2,6.0644685E-3],"categories":[],"categories_nodes":[],"categories_segments":[],"categories_sizes":[],"default_left":[0,0,0,0,0,0,0],"id":48,"left_children":[1,3,5,-1,-1,-1,-1],"loss_changes":[1.2805877E1,2.162201E0,1.1515942E1,0E0,0E0,0E0,0E0],"parents":[2147483647,0,0,1,1,2,2],"right_children":[2,4,6,-1,-1,-1,-1],"split_conditions":[-9.3651366E-1,-1.4633435E0,-1.0642619E0,-5.302166E-4,-1.4607702E-2,-1.0403867E-2,6.0644685E-3],"split_indices":[8,8,10,0,0,0,0],"split_type":[0,0,0,0,0,0,0],"sum_hessian":[1.00591644E2,3.571996E1,6.487169E1,9.2619705E0,2.6457987E1,1.4524576E1,5.0347115E1],"tree_param":{"num_deleted":"0","num_feature":"15","num_nodes":"7","size_leaf_vector":"1"}},{"base_weights":[-9.9483505E-2,-3.621864E-1,2.291489E-1,-9.287705E-3,-0E0,9.794255E-3,-6.935781E-3],"categories":[],"categories_nodes":[],"categories_segments":[],"categories_sizes":[],"default_left":[0,0,0,0,0,0,0],"id":49,"left_children":[1,3,5,-1,-1,-1,-1],"loss_changes":[1.0523649E1,2.896721E0,9.691932E0,0E0,0E0,0E0,0E0],"parents":[2147483647,0,0,1,1,2,2],"right_children":[2,4,6,-1,-1,-1,-1],"split_conditions":[-3.8856292E-1,4.9092358E-1,9.66782E-1,-9.287705E-3,-0E0,9.794255E-3,-6.935781E-3],"split_indices":[8,11,11,0,0,0,0],"split_type":[0,0,0,0,0,0,0],"sum_hessian":[1.0270345E2,5.825746E1,4.4445988E1,4.534403E1,1.2913434E1,3.2724567E1,1.1721422E1],"tree_param":{"num_deleted":"0","num_feature":"15","num_nodes":"7","size_leaf_vector":"1"}},{"base_weights":[6.127585E-2,-3.9095628E-1,4.069244E-1,6.93865E-4,-1.0952981E-2,1.3302961E-2,-8.537626E-3],"categories":[],"categories_nodes":[],"categories_segments":[],"categories_sizes":[],"default_left":[0,0,0,0,0,0,0],"id":50,"left_children":[1,3,5,-1,-1,-1,-1],"loss_changes":[1.8046997E1,3.974742E0,1.6972198E1,0E0,0E0,0E0,0E0],"parents":[2147483647,0,0,1,1,2,2],"right_children":[2,4,6,-1,-1,-1,-1],"split_conditions":[-4.0895945E-1,-1.041119E0,9.186651E-1,6.93865E-4,-1.0952981E-2,1.3302961E-2,-8.537626E-3],"split_indices":[14,12,5,0,0,0,0],"split_type":[0,0,0,0,0,0,0],"sum_hessian":[9.719194E1,4.033997E1,5.6851967E1,1.1022688E1,2.9317282E1,4.571435E1,1.1137617E1],"tree_param":{"num_deleted":"0","num_feature":"15","num_nodes":"7","size_leaf_vector":"1"}},{"base_weights":[1.4267966E-1,-2.4471346E-1,3.580052E-1,-1.0987963E-2,3.1810434E-4,-2.6362906E-3,9.719056E-3],"categories":[],"categories_nodes":[],"categories_segments":[],"categories_sizes":[],"default_left":[0,0,0,0,0,0,0],"id":51,"left_children":[1,3,5,-1,-1,-1,-1],"loss_changes":[1.0095639E1,4.031597E0,5.7033606E0,0E0,0E0,0E0,0E0],"parents":[2147483647,0,0,1,1,2,2],"right_children":[2,4,6,-1,-1,-1,-1],"split_conditions":[-5.355884E-1,-2.233386E-1,-1.0325427E0,-1.0987963E-2,3.1810434E-4,-2.6362906E-3,9.719056E-3],"split_indices":[14,3,3,0,0,0,0],"split_type":[0,0,0,0,0,0,0],"sum_hessian":[1.0121757E2,3.406272E1,6.715485E1,1.2875152E1,2.1187569E1,1.2233573E1,5.4921276E1],"tree_param":{"num_deleted":"0","num_feature":"15","num_nodes":"7","size_leaf_vector":"1"}},{"base_weights":[-2.1421885E-2,-4.514044E-1,2.4494871E-1,-1.329246E-2,3.4735908E-3,-1.0256985E-2,1.0459928E-2],"categories":[],"categories_nodes":[],"categories_segments":[],"categories_sizes":[],"default_left":[0,0,0,0,0,0,0],"id":52,"left_children":[1,3,5,-1,-1,-1,-1],"loss_changes":[1.3812505E1,7.756609E0,1.7676102E1,0E0,0E0,0E0,0E0],"parents":[2147483647,0,0,1,1,2,2],"right_children":[2,4,6,-1,-1,-1,-1],"split_conditions":[-9.296999E-1,3.803901E-1,-9.941217E-1,-1.329246E-2,3.4735908E-3,-1.0256985E-2,1.0459928E-2],"split_indices":[8,2,10,0,0,0,0],"split_type":[0,0,0,0,0,0,0],"sum_hessian":[1.011056E2,3.7719734E1,6.338586E1,2.889428E1,8.825454E0,1.400892E1,4.937694E1],"tree_param":{"num_deleted":"0","num_feature":"15","num_nodes":"7","size_leaf_vector":"1"}},{"base_weights":[7.5988355E-4,-3.2718337E-1,2.1074623E-1,1.3980679E-3,-1.0738903E-2,-7.34433E-3,8.782932E-3],"categories":[],"categories_nodes":[],"categories_segments":[],"categories_sizes":[],"default_left":[0,0,0,0,0,0,0],"id":53,"left_children":[1,3,5,-1,-1,-1,-1],"loss_changes":[8.043318E0,4.5033855E0,1.1301873E1,0E0,0E0,0E0,0E0],"parents":[2147483647,0,0,1,1,2,2],"right_children":[2,4,6,-1,-1,-1,-1],"split_conditions":[-8.8351387E-1,-1.3477546E0,-1.0284914E0,1.3980679E-3,-1.0738903E-2,-7.34433E-3,8.782932E-3],"split_indices":[8,8,10,0,0,0,0],"split_type":[0,0,0,0,0,0,0],"sum_hessian":[1.00479904E2,3.540358E1,6.5076324E1,1.26638565E1,2.2739723E1,1.5643213E1,4.943311E1],"tree_param":{"num_deleted":"0","num_feature":"15","num_nodes":"7","size_leaf_vector":"1"}},{"base_weights":[-0E0,9.8524075E-3,-1.7345369E-1,-8.709814E-3,5.7083094E-3],"categories":[],"categories_nodes":[],"categories_segments":[],"categories_sizes":[],"default_left":[0,0,0,0,0],"id":54,"left_children":[1,-1,3,-1,-1],"loss_changes":[1.0112195E1,0E0,1.1780197E1,0E0,0E0],"parents":[2147483647,0,0,2,2],"right_children":[2,-1,4,-1,-1],"split_conditions":[-6.288926E-1,9.8524075E-3,5.800592E-1,-8.709814E-3,5.7083094E-3],"split_indices":[1,0,2,0,0],"split_type":[0,0,0,0,0],"sum_hessian":[1.00251755E2,2.1831612E1,7.842014E1,5.1594772E1,2.6825369E1],"tree_param":{"num_deleted":"0","num_feature":"15","num_nodes":"5","size_leaf_vector":"1"}},{"base_weights":[1.341705E-1,-9.338194E-3,2.7175534E-1,-2.0377252E-3,1.0453183E-2],"categories":[],"categories_nodes":[],"categories_segments":[],"categories_sizes":[],"default_left":[0,0,0,0,0],"id":55,"left_children":[1,-1,3,-1,-1],"loss_changes":[9.9536E0,0E0,9.86862E0,0E0,0E0],"parents":[2147483647,0,0,2,2],"right_children":[2,-1,4,-1,-1],"split_conditions":[-9.941217E-1,-9.338194E-3,-9.296999E-1,-2.0377252E-3,1.0453183E-2],"split_indices":[10,0,8,0,0],"split_type":[0,0,0,0,0],"sum_hessian":[9.99098E1,1.324301E1,8.666679E1,3.5363625E1,5.130316E1],"tree_param":{"num_deleted":"0","num_feature":"15","num_nodes":"5","size_leaf_vector":"1"}},{"base_weights":[-8.0862895E-2,2.5566736E-1,-3.1129745E-1,-1.48178E-3,9.519208E-3,-1.1231261E-2,1.482672E-3],"categories":[],"categories_nodes":[],"categories_segments":[],"categories_sizes":[],"default_left":[0,0,0,0,0,0,0],"id":56,"left_children":[1,3,5,-1,-1,-1,-1],"loss_changes":[9.767702E0,4.3750196E0,8.065472E0,0E0,0E0,0E0,0E0],"parents":[2147483647,0,0,1,1,2,2],"right_children":[2,4,6,-1,-1,-1,-1],"split_conditions":[-4.5501783E-1,-2.3602745E-1,3.583127E-1,-1.48178E-3,9.519208E-3,-1.1231261E-2,1.482672E-3],"split_indices":[12,4,12,0,0,0,0],"split_type":[0,0,0,0,0,0,0],"sum_hessian":[1.07002365E2,4.1325222E1,6.567714E1,1.7124819E1,2.4200403E1,3.890035E1,2.677679E1],"tree_param":{"num_deleted":"0","num_feature":"15","num_nodes":"7","size_leaf_vector":"1"}},{"base_weights":[1.2542783E-1,2.0547935E-3,1.309028E-2,4.1054E-3,-1.4520063E-2],"categories":[],"categories_nodes":[],"categories_segments":[],"categories_sizes":[],"default_left":[0,0,0,0,0],"id":57,"left_children":[1,3,-1,-1,-1],"loss_changes":[7.08768E0,1.6639307E1,0E0,0E0,0E0],"parents":[2147483647,0,0,1,1],"right_children":[2,4,-1,-1,-1],"split_conditions":[1.3731906E0,9.66782E-1,1.309028E-2,4.1054E-3,-1.4520063E-2],"split_indices":[11,11,0,0,0],"split_type":[0,0,0,0,0],"sum_hessian":[1.09825836E2,9.791815E1,1.1907683E1,8.267733E1,1.5240818E1],"tree_param":{"num_deleted":"0","num_feature":"15","num_nodes":"5","size_leaf_vector":"1"}},{"base_weights":[-0E0,-3.3325592E-1,1.9068529E-1,-1.1765744E-2,1.8582671E-3,7.4201487E-3,-7.1201316E-4],"categories":[],"categories_nodes":[],"categories_segments":[],"categories_sizes":[],"default_left":[0,0,0,0,0,0,0],"id":58,"left_children":[1,3,5,-1,-1,-1,-1],"loss_changes":[7.2659016E0,5.4167967E0,3.5287905E0,0E0,0E0,0E0,0E0],"parents":[2147483647,0,0,1,1,2,2],"right_children":[2,4,6,-1,-1,-1,-1],"split_conditions":[-4.9002475E-1,3.7006702E-2,4.9874064E-1,-1.1765744E-2,1.8582671E-3,7.4201487E-3,-7.1201316E-4],"split_indices":[3,7,3,0,0,0,0],"split_type":[0,0,0,0,0,0,0],"sum_hessian":[9.810229E1,3.1754705E1,6.634758E1,1.9192322E1,1.2562386E1,3.617988E1,3.0167702E1],"tree_param":{"num_deleted":"0","num_feature":"15","num_nodes":"7","size_leaf_vector":"1"}},{"base_weights":[-9.470747E-5,-3.170453E-1,2.424613E-1,4.222706E-3,-1.008435E-2,-5.581422E-3,9.932565E-3],"categories":[],"categories_nodes":[],"categories_segments":[],"categories_sizes":[],"default_left":[0,0,0,0,0,0,0],"id":59,"left_children":[1,3,5,-1,-1,-1,-1],"loss_changes":[9.530741E0,6.6993737E0,1.046455E1,0E0,0E0,0E0,0E0],"parents":[2147483647,0,0,1,1,2,2],"right_children":[2,4,6,-1,-1,-1,-1],"split_conditions":[-4.0895945E-1,-1.1862378E0,-8.1917614E-1,4.222706E-3,-1.008435E-2,-5.581422E-3,9.932565E-3],"split_indices":[14,7,7,0,0,0,0],"split_type":[0,0,0,0,0,0,0],"sum_hessian":[1.0500251E2,4.6109528E1,5.8892982E1,1.03651705E1,3.5744358E1,1.7718866E1,4.1174118E1],"tree_param":{"num_deleted":"0","num_feature":"15","num_nodes":"7","size_leaf_vector":"1"}},{"base_weights":[1.01380154E-1,-3.546603E-1,3.384932E-1,-1.5626153E-2,8.894517E-3,1.0934714E-2,-5.7832683E-3],"categories":[],"categories_nodes":[],"categories_segments":[],"categories_sizes":[],"default_left":[0,0,0,0,0,0,0],"id":60,"left_children":[1,3,5,-1,-1,-1,-1],"loss_changes":[1.3069549E1,1.7423542E1,1.2018144E1,0E0,0E0,0E0,0E0],"parents":[2147483647,0,0,1,1,2,2],"right_children":[2,4,6,-1,-1,-1,-1],"split_conditions":[-4.9002475E-1,3.4595728E-1,9.919678E-1,-1.5626153E-2,8.894517E-3,1.0934714E-2,-5.7832683E-3],"split_indices":[3,7,10,0,0,0,0],"split_type":[0,0,0,0,0,0,0],"sum_hessian":[1.02023E2,3.1930962E1,7.009204E1,2.1767656E1,1.0163306E1,5.4698013E1,1.5394027E1],"tree_param":{"num_deleted":"0","num_feature":"15","num_nodes":"7","size_leaf_vector":"1"}},{"base_weights":[-0E0,3.428125E-1,-3.5050246E-1,-1.493256E-3,1.6711289E-2,-1.2900477E-2,4.8447717E-3],"categories":[],"categories_nodes":[],"categories_segments":[],"categories_sizes":[],"default_left":[0,0,0,0,0,0,0],"id":61,"left_children":[1,3,5,-1,-1,-1,-1],"loss_changes":[1.47681675E1,1.402911E1,1.247943E1,0E0,0E0,0E0,0E0],"parents":[2147483647,0,0,1,1,2,2],"right_children":[2,4,6,-1,-1,-1,-1],"split_conditions":[-2.6133433E-1,-5.0985235E-1,8.9352256E-1,-1.493256E-3,1.6711289E-2,-1.2900477E-2,4.8447717E-3],"split_indices":[12,14,12,0,0,0,0],"split_type":[0,0,0,0,0,0,0],"sum_hessian":[1.0489177E2,5.276962E1,5.212215E1,3.1602146E1,2.116747E1,3.5417244E1,1.6704906E1],"tree_param":{"num_deleted":"0","num_feature":"15","num_nodes":"7","size_leaf_vector":"1"}},{"base_weights":[-6.1464995E-2,-2.181279E-1,1.3986219E-2,6.751938E-3,-8.793771E-3],"categories":[],"categories_nodes":[],"categories_segments":[],"categories_sizes":[],"default_left":[0,0,0,0,0],"id":62,"left_children":[1,3,-1,-1,-1],"loss_changes":[1.3894221E1,1.3555689E1,0E0,0E0,0E0],"parents":[2147483647,0,0,1,1],"right_children":[2,4,-1,-1,-1],"split_conditions":[1.4696132E0,-5.637565E-1,1.3986219E-2,6.751938E-3,-8.793771E-3],"split_indices":[11,1,0,0,0],"split_type":[0,0,0,0,0],"sum_hessian":[1.0009519E2,8.9416145E1,1.0679045E1,2.2857466E1,6.6558685E1],"tree_param":{"num_deleted":"0","num_feature":"15","num_nodes":"5","size_leaf_vector":"1"}},{"base_weights":[2.3596479E-2,-3.554109E-1,3.5435456E-1,7.863951E-5,-1.3734301E-2,-2.585144E-3,9.936211E-3],"categories":[],"categories_nodes":[],"categories_segments":[],"categories_sizes":[],"default_left":[0,0,0,0,0,0,0],"id":63,"left_children":[1,3,5,-1,-1,-1,-1],"loss_changes":[1.4856481E1,7.148025E0,5.380542E0,0E0,0E0,0E0,0E0],"parents":[2147483647,0,0,1,1,2,2],"right_children":[2,4,6,-1,-1,-1,-1],"split_conditions":[-4.0895945E-1,-8.6160845E-1,-1.0672203E0,7.863951E-5,-1.3734301E-2,-2.585144E-3,9.936211E-3],"split_indices":[14,14,3,0,0,0,0],"split_type":[0,0,0,0,0,0,0],"sum_hessian":[1.0047743E2,4.510201E1,5.5375423E1,2.445364E1,2.0648369E1,1.1192639E1,4.4182785E1],"tree_param":{"num_deleted":"0","num_feature":"15","num_nodes":"7","size_leaf_vector":"1"}},{"base_weights":[-5.7966325E-2,-3.7411928E-1,1.9831127E-1,5.1584602E-3,-1.2384395E-2,-3.9956872E-3,8.525883E-3],"categories":[],"categories_nodes":[],"categories_segments":[],"categories_sizes":[],"default_left":[0,0,0,0,0,0,0],"id":64,"left_children":[1,3,5,-1,-1,-1,-1],"loss_changes":[9.559152E0,1.001284E1,6.7603655E0,0E0,0E0,0E0,0E0],"parents":[2147483647,0,0,1,1,2,2],"right_children":[2,4,6,-1,-1,-1,-1],"split_conditions":[-6.1219573E-1,-1.2555436E0,-6.6157126E-1,5.1584602E-3,-1.2384395E-2,-3.9956872E-3,8.525883E-3],"split_indices":[7,7,13,0,0,0,0],"split_type":[0,0,0,0,0,0,0],"sum_hessian":[9.856975E1,4.402393E1,5.454582E1,1.1030001E1,3.299393E1,1.8670662E1,3.5875156E1],"tree_param":{"num_deleted":"0","num_feature":"15","num_nodes":"7","size_leaf_vector":"1"}},{"base_weights":[-8.319383E-2,2.2355683E-1,-3.0387223E-1,-1.4906095E-3,9.133927E-3,-1.1401463E-2,-5.0458908E-5],"categories":[],"categories_nodes":[],"categories_segments":[],"categories_sizes":[],"default_left":[0,0,0,0,0,0,0],"id":65,"left_children":[1,3,5,-1,-1,-1,-1],"loss_changes":[8.257158E0,4.1668053E0,5.086806E0,0E0,0E0,0E0,0E0],"parents":[2147483647,0,0,1,1,2,2],"right_children":[2,4,6,-1,-1,-1,-1],"split_conditions":[-4.8543313E-1,4.3202084E-2,-7.6946795E-1,-1.4906095E-3,9.133927E-3,-1.1401463E-2,-5.0458908E-5],"split_indices":[12,9,7,0,0,0,0],"split_type":[0,0,0,0,0,0,0],"sum_hessian":[1.0276076E2,4.10504E1,6.1710358E1,1.8820494E1,2.2229904E1,2.6742756E1,3.49676E1],"tree_param":{"num_deleted":"0","num_feature":"15","num_nodes":"7","size_leaf_vector":"1"}},{"base_weights":[8.841737E-2,-2.5923866E-1,2.647924E-1,2.5006288E-3,-9.152804E-3,9.818241E-3,-6.2116417E-3],"categories":[],"categories_nodes":[],"categories_segments":[],"categories_sizes":[],"default_left":[0,0,0,0,0,0,0],"id":66,"left_children":[1,3,5,-1,-1,-1,-1],"loss_changes":[7.2732267E0,3.8316512E0,1.1740778E1,0E0,0E0,0E0,0E0],"parents":[2147483647,0,0,1,1,2,2],"right_children":[2,4,6,-1,-1,-1,-1],"split_conditions":[-4.9002475E-1,-9.247974E-1,9.617412E-1,2.5006288E-3,-9.152804E-3,9.818241E-3,-6.2116417E-3],"split_indices":[3,4,10,0,0,0,0],"split_type":[0,0,0,0,0,0,0],"sum_hessian":[9.9449234E1,3.0140562E1,6.930868E1,9.680006E0,2.0460556E1,5.195123E1,1.7357445E1],"tree_param":{"num_deleted":"0","num_feature":"15","num_nodes":"7","size_leaf_vector":"1"}},{"base_weights":[-1.3439931E-1,-2.7320454E-1,1.1567947E-2,3.4739552E-3,-9.406404E-3],"categories":[],"categories_nodes":[],"categories_segments":[],"categories_sizes":[],"default_left":[0,0,0,0,0],"id":67,"left_children":[1,3,-1,-1,-1],"loss_changes":[1.250138E1,1.01577835E1,0E0,0E0,0E0],"parents":[2147483647,0,0,1,1],"right_children":[2,4,-1,-1,-1],"split_conditions":[1.3575748E0,-4.645813E-1,1.1567947E-2,3.4739552E-3,-9.406404E-3],"split_indices":[11,1,0,0,0],"split_type":[0,0,0,0,0],"sum_hessian":[1.0606362E2,9.459599E1,1.1467631E1,2.7727661E1,6.686833E1],"tree_param":{"num_deleted":"0","num_feature":"15","num_nodes":"5","size_leaf_vector":"1"}},{"base_weights":[-1.2027933E-1,-4.2803994E-1,9.984895E-2,6.506846E-4,-1.2375353E-2,-5.498404E-3,7.11845E-3],"categories":[],"categories_nodes":[],"categories_segments":[],"categories_sizes":[],"default_left":[0,0,0,0,0,0,0],"id":68,"left_children":[1,3,5,-1,-1,-1,-1],"loss_changes":[8.318981E0,5.1960115E0,7.7618637E0,0E0,0E0,0E0,0E0],"parents":[2147483647,0,0,1,1,2,2],"right_children":[2,4,6,-1,-1,-1,-1],"split_conditions":[-4.7864214E-1,-4.2965984E-1,-5.8603954E-1,6.506846E-4,-1.2375353E-2,-5.498404E-3,7.11845E-3],"split_indices":[14,1,3,0,0,0,0],"split_type":[0,0,0,0,0,0,0],"sum_hessian":[1.03272964E2,4.1414196E1,6.185877E1,1.2778369E1,2.8635826E1,2.3255836E1,3.8602932E1],"tree_param":{"num_deleted":"0","num_feature":"15","num_nodes":"7","size_leaf_vector":"1"}},{"base_weights":[-1.1004169E-1,7.583945E-2,-3.9380786E-1,-4.063673E-3,1.074416E-2,4.943396E-3,-1.2761935E-2],"categories":[],"categories_nodes":[],"categories_segments":[],"categories_sizes":[],"default_left":[0,0,0,0,0,0,0],"id":69,"left_children":[1,3,5,-1,-1,-1,-1],"loss_changes":[6.3109384E0,1.0454786E1,9.096905E0,0E0,0E0,0E0,0E0],"parents":[2147483647,0,0,1,1,2,2],"right_children":[2,4,6,-1,-1,-1,-1],"split_conditions":[3.1599215E-1,1.5446259E-1,-1.5308987E-1,-4.063673E-3,1.074416E-2,4.943396E-3,-1.2761935E-2],"split_indices":[0,4,11,0,0,0,0],"split_type":[0,0,0,0,0,0,0],"sum_hessian":[9.952178E1,6.1987484E1,3.7534298E1,4.0414745E1,2.1572737E1,9.19868E0,2.8335617E1],"tree_param":{"num_deleted":"0","num_feature":"15","num_nodes":"7","size_leaf_vector":"1"}},{"base_weights":[5.809259E-2,-1.945202E-1,2.4437146E-1,2.1496762E-3,-1.3782744E-2,8.398763E-3,-5.505977E-3],"categories":[],"categories_nodes":[],"categories_segments":[],"categories_sizes":[],"default_left":[0,0,0,0,0,0,0],"id":70,"left_children":[1,3,5,-1,-1,-1,-1],"loss_changes":[5.9278502E0,8.999599E0,7.839121E0,0E0,0E0,0E0,0E0],"parents":[2147483647,0,0,1,1,2,2],"right_children":[2,4,6,-1,-1,-1,-1],"split_conditions":[-8.1917614E-1,-1.0038891E0,9.186651E-1,2.1496762E-3,-1.3782744E-2,8.398763E-3,-5.505977E-3],"split_indices":[7,7,5,0,0,0,0],"split_type":[0,0,0,0,0,0,0],"sum_hessian":[1.0682228E2,4.2891132E1,6.3931145E1,2.9749256E1,1.3141877E1,5.0516163E1,1.3414981E1],"tree_param":{"num_deleted":"0","num_feature":"15","num_nodes":"7","size_leaf_vector":"1"}},{"base_weights":[3.651089E-2,-1.824114E-1,2.659506E-1,-8.2360525E-3,9.594213E-3,1.0234326E-2,-2.6688261E-3],"categories":[],"categories_nodes":[],"categories_segments":[],"categories_sizes":[],"default_left":[0,0,0,0,0,0,0],"id":71,"left_children":[1,3,5,-1,-1,-1,-1],"loss_changes":[5.9244027E0,1.0544495E1,6.7277064E0,0E0,0E0,0E0,0E0],"parents":[2147483647,0,0,1,1,2,2],"right_children":[2,4,6,-1,-1,-1,-1],"split_conditions":[-5.4649156E-1,3.803901E-1,4.908338E-1,-8.2360525E-3,9.594213E-3,1.0234326E-2,-2.6688261E-3],"split_indices":[8,2,9,0,0,0,0],"split_type":[0,0,0,0,0,0,0],"sum_hessian":[9.859127E1,4.916564E1,4.942563E1,4.016377E1,9.001876E0,3.0580553E1,1.8845076E1],"tree_param":{"num_deleted":"0","num_feature":"15","num_nodes":"7","size_leaf_vector":"1"}},{"base_weights":[3.45752E-2,3.785607E-1,-1.23753406E-1,-0E0,1.4474176E-2,-6.94679E-3,3.8261218E-3],"categories":[],"categories_nodes":[],"categories_segments":[],"categories_sizes":[],"default_left":[0,0,0,0,0,0,0],"id":72,"left_children":[1,3,5,-1,-1,-1,-1],"loss_changes":[6.7371254E0,5.35787E0,6.459769E0,0E0,0E0,0E0,0E0],"parents":[2147483647,0,0,1,1,2,2],"right_children":[2,4,6,-1,-1,-1,-1],"split_conditions":[-5.682469E-1,-9.7381353E-1,-4.373936E-1,-0E0,1.4474176E-2,-6.94679E-3,3.8261218E-3],"split_indices":[9,9,7,0,0,0,0],"split_type":[0,0,0,0,0,0,0],"sum_hessian":[1.0228129E2,3.028377E1,7.199752E1,1.8305319E1,1.1978452E1,4.3429264E1,2.8568254E1],"tree_param":{"num_deleted":"0","num_feature":"15","num_nodes":"7","size_leaf_vector":"1"}},{"base_weights":[-2.3667555E-1,-5.919356E-1,3.350903E-2,-1.6517973E-2,-4.4214688E-4,7.103084E-3,-7.2525814E-3],"categories":[],"categories_nodes":[],"categories_segments":[],"categories_sizes":[],"default_left":[0,0,0,0,0,0,0],"id":73,"left_children":[1,3,5,-1,-1,-1,-1],"loss_changes":[1.1087496E1,5.4755116E0,9.837581E0,0E0,0E0,0E0,0E0],"parents":[2147483647,0,0,1,1,2,2],"right_children":[2,4,6,-1,-1,-1,-1],"split_conditions":[-7.6350135E-1,1.077204E-1,3.586932E-1,-1.6517973E-2,-4.4214688E-4,7.103084E-3,-7.2525814E-3],"split_indices":[8,3,11,0,0,0,0],"split_type":[0,0,0,0,0,0,0],"sum_hessian":[9.883421E1,3.966414E1,5.9170074E1,2.4007616E1,1.5656524E1,3.456249E1,2.4607586E1],"tree_param":{"num_deleted":"0","num_feature":"15","num_nodes":"7","size_leaf_vector":"1"}},{"base_weights":[-0E0,-9.13642E-2,1.0988999E-2,2.5242013E-3,-1.7233783E-2],"categories":[],"categories_nodes":[],"categories_segments":[],"categories_sizes":[],"default_left":[0,0,0,0,0],"id":74,"left_children":[1,3,-1,-1,-1],"loss_changes":[6.153848E0,1.9470066E1,0E0,0E0,0E0],"parents":[2147483647,0,0,1,1],"right_children":[2,4,-1,-1,-1],"split_conditions":[1.5402164E0,9.2913616E-1,1.0988999E-2,2.5242013E-3,-1.7233783E-2],"split_indices":[11,11,0,0,0],"split_type":[0,0,0,0,0],"sum_hessian":[1.0539452E2,9.693971E1,8.454811E0,8.044557E1,1.6494143E1],"tree_param":{"num_deleted":"0","num_feature":"15","num_nodes":"5","size_leaf_vector":"1"}},{"base_weights":[7.388775E-3,-1.1303326E-1,4.5573312E-1,5.5216467E-3,-6.4442456E-3,1.3561159E-2,-0E0],"categories":[],"categories_nodes":[],"categories_segments":[],"categories_sizes":[],"default_left":[0,0,0,0,0,0,0],"id":75,"left_children":[1,3,5,-1,-1,-1,-1],"loss_changes":[7.241309E0,8.93785E0,2.8563619E0,0E0,0E0,0E0,0E0],"parents":[2147483647,0,0,1,1,2,2],"right_children":[2,4,6,-1,-1,-1,-1],"split_conditions":[8.323255E-1,-4.645813E-1,1.7654671E-1,5.5216467E-3,-6.4442456E-3,1.3561159E-2,-0E0],"split_indices":[2,1,6,0,0,0,0],"split_type":[0,0,0,0,0,0,0],"sum_hessian":[1.1018742E2,9.040567E1,1.978175E1,2.8930294E1,6.147538E1,1.0214524E1,9.567225E0],"tree_param":{"num_deleted":"0","num_feature":"15","num_nodes":"7","size_leaf_vector":"1"}},{"base_weights":[-5.9096005E-2,-5.228683E-1,1.7213042E-1,-0E0,-1.386721E-2,7.5065116E-3,-2.7465944E-3],"categories":[],"categories_nodes":[],"categories_segments":[],"categories_sizes":[],"default_left":[0,0,0,0,0,0,0],"id":76,"left_children":[1,3,5,-1,-1,-1,-1],"loss_changes":[1.3138599E1,3.386033E0,5.7239647E0,0E0,0E0,0E0,0E0],"parents":[2147483647,0,0,1,1,2,2],"right_children":[2,4,6,-1,-1,-1,-1],"split_conditions":[-4.9002475E-1,-1.2422668E0,4.9874064E-1,-0E0,-1.386721E-2,7.5065116E-3,-2.7465944E-3],"split_indices":[3,3,3,0,0,0,0],"split_type":[0,0,0,0,0,0,0],"sum_hessian":[1.0269574E2,3.1829115E1,7.086662E1,1.0567253E1,2.1261862E1,4.357237E1,2.7294254E1],"tree_param":{"num_deleted":"0","num_feature":"15","num_nodes":"7","size_leaf_vector":"1"}},{"base_weights":[6.049181E-2,-2.556565E-1,4.603255E-1,-8.24321E-3,6.2710494E-3,-4.2543034E-3,1.4429416E-2],"categories":[],"categories_nodes":[],"categories_segments":[],"categories_sizes":[],"default_left":[0,0,0,0,0,0,0],"id":77,"left_children":[1,3,5,-1,-1,-1,-1],"loss_changes":[1.5240948E1,7.153506E0,1.1281707E1,0E0,0E0,0E0,0E0],"parents":[2147483647,0,0,1,1,2,2],"right_children":[2,4,6,-1,-1,-1,-1],"split_conditions":[-3.8856292E-1,1.0656642E0,-7.872087E-1,-8.24321E-3,6.2710494E-3,-4.2543034E-3,1.4429416E-2],"split_indices":[8,11,6,0,0,0,0],"split_type":[0,0,0,0,0,0,0],"sum_hessian":[1.0157252E2,5.7137897E1,4.4434616E1,4.8141407E1,8.996492E0,1.1817519E1,3.2617096E1],"tree_param":{"num_deleted":"0","num_feature":"15","num_nodes":"7","size_leaf_vector":"1"}},{"base_weights":[-5.7022057E-2,-3.4609035E-1,3.1116718E-1,6.3910848E-3,-1.0198548E-2,-3.8167802E-3,1.0507909E-2],"categories":[],"categories_nodes":[],"categories_segments":[],"categories_sizes":[],"default_left":[0,0,0,0,0,0,0],"id":78,"left_children":[1,3,5,-1,-1,-1,-1],"loss_changes":[1.2735264E1,9.021292E0,6.7963552E0,0E0,0E0,0E0,0E0],"parents":[2147483647,0,0,1,1,2,2],"right_children":[2,4,6,-1,-1,-1,-1],"split_conditions":[-3.9955997E-1,-1.0009238E0,-7.275222E-1,6.3910848E-3,-1.0198548E-2,-3.8167802E-3,1.0507909E-2],"split_indices":[8,6,6,0,0,0,0],"split_type":[0,0,0,0,0,0,0],"sum_hessian":[1.0122185E2,5.852757E1,4.2694275E1,8.66509E0,4.986248E1,1.1667721E1,3.1026556E1],"tree_param":{"num_deleted":"0","num_feature":"15","num_nodes":"7","size_leaf_vector":"1"}},{"base_weights":[2.8037991E-2,-3.2691574E-1,2.4717243E-1,-0E0,-1.3172356E-2,9.725041E-3,-1.6054644E-5],"categories":[],"categories_nodes":[],"categories_segments":[],"categories_sizes":[],"default_left":[0,0,0,0,0,0,0],"id":79,"left_children":[1,3,5,-1,-1,-1,-1],"loss_changes":[8.975081E0,4.544998E0,4.820543E0,0E0,0E0,0E0,0E0],"parents":[2147483647,0,0,1,1,2,2],"right_children":[2,4,6,-1,-1,-1,-1],"split_conditions":[-8.8351387E-1,-1.2417153E0,-6.953487E-2,-0E0,-1.3172356E-2,9.725041E-3,-1.6054644E-5],"split_indices":[8,8,11,0,0,0,0],"split_type":[0,0,0,0,0,0,0],"sum_hessian":[9.8062325E1,3.3999657E1,6.406267E1,2.1927702E1,1.2071955E1,3.026653E1,3.379614E1],"tree_param":{"num_deleted":"0","num_feature":"15","num_nodes":"7","size_leaf_vector":"1"}},{"base_weights":[-1.1164689E-2,-3.5672367E-1,1.7346446E-1,-1.0133189E-2,1.4479182E-3,-8.82518E-3,6.4782547E-3],"categories":[],"categories_nodes":[],"categories_segments":[],"categories_sizes":[],"default_left":[0,0,0,0,0,0,0],"id":80,"left_children":[1,3,5,-1,-1,-1,-1],"loss_changes":[7.6306915E0,3.4950151E0,8.064732E0,0E0,0E0,0E0,0E0],"parents":[2147483647,0,0,1,1,2,2],"right_children":[2,4,6,-1,-1,-1,-1],"split_conditions":[-4.9002475E-1,3.0182186E-1,-1.2107027E0,-1.0133189E-2,1.4479182E-3,-8.82518E-3,6.4782547E-3],"split_indices":[3,8,5,0,0,0,0],"split_type":[0,0,0,0,0,0,0],"sum_hessian":[9.900148E1,3.344041E1,6.556107E1,2.5303411E1,8.136998E0,8.163206E0,5.7397865E1],"tree_param":{"num_deleted":"0","num_feature":"15","num_nodes":"7","size_leaf_vector":"1"}},{"base_weights":[-1.5378727E-1,-4.8794731E-1,5.1615305E-2,-1.3288554E-2,-0E0,5.7727974E-3,-7.0787766E-3],"categories":[],"categories_nodes":[],"categories_segments":[],"categories_sizes":[],"default_left":[0,0,0,0,0,0,0],"id":81,"left_children":[1,3,5,-1,-1,-1,-1],"loss_changes":[8.067447E0,4.4278717E0,7.880616E0,0E0,0E0,0E0,0E0],"parents":[2147483647,0,0,1,1,2,2],"right_children":[2,4,6,-1,-1,-1,-1],"split_conditions":[-8.8351387E-1,-3.1165504E-1,7.304561E-1,-1.3288554E-2,-0E0,5.7727974E-3,-7.0787766E-3],"split_indices":[8,5,11,0,0,0,0],"split_type":[0,0,0,0,0,0,0],"sum_hessian":[9.887779E1,3.4781597E1,6.40962E1,2.4642471E1,1.0139127E1,4.3647114E1,2.0449081E1],"tree_param":{"num_deleted":"0","num_feature":"15","num_nodes":"7","size_leaf_vector":"1"}},{"base_weights":[-8.7945424E-2,-1.1805589E-2,6.898978E-3,4.3525877E-3,-4.3975688E-3],"categories":[],"categories_nodes":[],"categories_segments":[],"categories_sizes":[],"default_left":[0,0,0,0,0],"id":82,"left_children":[1,-1,3,-1,-1],"loss_changes":[5.8217983E0,0E0,5.16249E0,0E0,0E0],"parents":[2147483647,0,0,2,2],"right_children":[2,-1,4,-1,-1],"split_conditions":[-1.21713E0,-1.1805589E-2,3.6819E-1,4.3525877E-3,-4.3975688E-3],"split_indices":[5,0,11,0,0],"split_type":[0,0,0,0,0],"sum_hessian":[1.0018086E2,1.0118714E1,9.006215E1,4.915659E1,4.0905556E1],"tree_param":{"num_deleted":"0","num_feature":"15","num_nodes":"5","size_leaf_vector":"1"}},{"base_weights":[-7.868913E-2,-3.1386936E-1,2.2889341E-1,7.492956E-3,-1.0599435E-2,8.642326E-3,-3.5039112E-3],"categories":[],"categories_nodes":[],"categories_segments":[],"categories_sizes":[],"default_left":[0,0,0,0,0,0,0],"id":83,"left_children":[1,3,5,-1,-1,-1,-1],"loss_changes":[8.758585E0,1.2137766E1,5.1628637E0,0E0,0E0,0E0,0E0],"parents":[2147483647,0,0,1,1,2,2],"right_children":[2,4,6,-1,-1,-1,-1],"split_conditions":[-3.8856292E-1,-1.1862378E0,3.8452178E-1,7.492956E-3,-1.0599435E-2,8.642326E-3,-3.5039112E-3],"split_indices":[8,7,6,0,0,0,0],"split_type":[0,0,0,0,0,0,0],"sum_hessian":[1.0196656E2,5.9522415E1,4.2444145E1,1.1536374E1,4.7986042E1,2.9472445E1,1.29717E1],"tree_param":{"num_deleted":"0","num_feature":"15","num_nodes":"7","size_leaf_vector":"1"}},{"base_weights":[-6.963647E-2,-3.4547064E-1,2.4159683E-1,-1.2600901E-2,5.6248903E-3,1.1900204E-2,-3.7800334E-3],"categories":[],"categories_nodes":[],"categories_segments":[],"categories_sizes":[],"default_left":[0,0,0,0,0,0,0],"id":84,"left_children":[1,3,5,-1,-1,-1,-1],"loss_changes":[1.0254362E1,1.325996E1,9.793362E0,0E0,0E0,0E0,0E0],"parents":[2147483647,0,0,1,1,2,2],"right_children":[2,4,6,-1,-1,-1,-1],"split_conditions":[1.5446259E-1,1.8409671E-2,3.944994E-1,-1.2600901E-2,5.6248903E-3,1.1900204E-2,-3.7800334E-3],"split_indices":[4,5,0,0,0,0,0],"split_type":[0,0,0,0,0,0,0],"sum_hessian":[1.00486786E2,5.4451492E1,4.6035297E1,3.8512024E1,1.5939469E1,2.4671852E1,2.1363445E1],"tree_param":{"num_deleted":"0","num_feature":"15","num_nodes":"7","size_leaf_vector":"1"}},{"base_weights":[-0E0,-1.0838411E-1,1.2142201E-2,5.134489E-4,-1.4031034E-2],"categories":[],"categories_nodes":[],"categories_segments":[],"categories_sizes":[],"default_left":[0,0,0,0,0],"id":85,"left_children":[1,3,-1,-1,-1],"loss_changes":[7.8954487E0,8.4201765E0,0E0,0E0,0E0],"parents":[2147483647,0,0,1,1],"right_children":[2,4,-1,-1,-1],"split_conditions":[1.3731906E0,9.66782E-1,1.2142201E-2,5.134489E-4,-1.4031034E-2],"split_indices":[11,11,0,0,0],"split_type":[0,0,0,0,0],"sum_hessian":[9.573415E1,8.635201E1,9.382138E0,7.608201E1,1.0270006E1],"tree_param":{"num_deleted":"0","num_feature":"15","num_nodes":"5","size_leaf_vector":"1"}},{"base_weights":[8.232127E-2,3.03498E-1,-1.6734545E-1,-4.40315E-3,1.1760052E-2,-1.3441504E-2,1.5297845E-3],"categories":[],"categories_nodes":[],"categories_segments":[],"categories_sizes":[],"default_left":[0,0,0,0,0,0,0],"id":86,"left_children":[1,3,5,-1,-1,-1,-1],"loss_changes":[6.764685E0,1.1154763E1,7.971875E0,0E0,0E0,0E0,0E0],"parents":[2147483647,0,0,1,1,2,2],"right_children":[2,4,6,-1,-1,-1,-1],"split_conditions":[-2.604974E-1,-2.0028096E-1,-9.533957E-1,-4.40315E-3,1.1760052E-2,-1.3441504E-2,1.5297845E-3],"split_indices":[12,10,8,0,0,0,0],"split_type":[0,0,0,0,0,0,0],"sum_hessian":[1.0275985E2,5.558373E1,4.7176125E1,1.904691E1,3.653682E1,1.155413E1,3.5621994E1],"tree_param":{"num_deleted":"0","num_feature":"15","num_nodes":"7","size_leaf_vector":"1"}},{"base_weights":[2.6039038E-2,1.8090051E-1,-8.392788E-3,-7.934889E-3,6.433611E-3],"categories":[],"categories_nodes":[],"categories_segments":[],"categories_sizes":[],"default_left":[0,0,0,0,0],"id":87,"left_children":[1,3,-1,-1,-1],"loss_changes":[8.096075E0,8.411053E0,0E0,0E0,0E0],"parents":[2147483647,0,0,1,1],"right_children":[2,4,-1,-1,-1],"split_conditions":[4.6538913E-1,-1.21713E0,-8.392788E-3,-7.934889E-3,6.433611E-3],"split_indices":[6,5,0,0,0],"split_type":[0,0,0,0,0],"sum_hessian":[1.01863106E2,8.122889E1,2.0634216E1,1.1318824E1,6.9910065E1],"tree_param":{"num_deleted":"0","num_feature":"15","num_nodes":"5","size_leaf_vector":"1"}},{"base_weights":[7.1417294E-2,1.14102075E-2,-3.318865E-2,-1.3521824E-2,2.559102E-3],"categories":[],"categories_nodes":[],"categories_segments":[],"categories_sizes":[],"default_left":[0,0,0,0,0],"id":88,"left_children":[1,-1,3,-1,-1],"loss_changes":[6.1613846E0,0E0,1.098308E1,0E0,0E0],"parents":[2147483647,0,0,2,2],"right_children":[2,-1,4,-1,-1],"split_conditions":[-1.1714015E0,1.14102075E-2,-9.8826253E-1,-1.3521824E-2,2.559102E-3],"split_indices":[7,0,5,0,0],"split_type":[0,0,0,0,0],"sum_hessian":[9.5459885E1,1.125152E1,8.420837E1,1.2356408E1,7.185195E1],"tree_param":{"num_deleted":"0","num_feature":"15","num_nodes":"5","size_leaf_vector":"1"}},{"base_weights":[2.171175E-2,-7.252824E-2,1.1683733E-2,1.1709136E-3,-1.2846804E-2],"categories":[],"categories_nodes":[],"categories_segments":[],"categories_sizes":[],"default_left":[0,0,0,0,0],"id":89,"left_children":[1,3,-1,-1,-1],"loss_changes":[6.9854774E0,8.758897E0,0E0,0E0,0E0],"parents":[2147483647,0,0,1,1],"right_children":[2,4,-1,-1,-1],"split_conditions":[1.3575748E0,9.2913616E-1,1.1683733E-2,1.1709136E-3,-1.2846804E-2],"split_indices":[11,11,0,0,0],"split_type":[0,0,0,0,0],"sum_hessian":[1.0593608E2,9.5925804E1,1.0010273E1,8.31249E1,1.2800906E1],"tree_param":{"num_deleted":"0","num_feature":"15","num_nodes":"5","size_leaf_vector":"1"}},{"base_weights":[-0E0,-4.2367864E-1,1.5724522E-1,2.855759E-3,-1.4174446E-2,6.325083E-3,-8.470963E-3],"categories":[],"categories_nodes":[],"categories_segments":[],"categories_sizes":[],"default_left":[0,0,0,0,0,0,0],"id":90,"left_children":[1,3,5,-1,-1,-1,-1],"loss_changes":[8.033286E0,6.710235E0,9.371889E0,0E0,0E0,0E0,0E0],"parents":[2147483647,0,0,1,1,2,2],"right_children":[2,4,6,-1,-1,-1,-1],"split_conditions":[-9.5712507E-1,-1.1300159E0,9.054508E-1,2.855759E-3,-1.4174446E-2,6.325083E-3,-8.470963E-3],"split_indices":[5,7,5,0,0,0,0],"split_type":[0,0,0,0,0,0,0],"sum_hessian":[1.04001E2,2.341221E1,8.058879E1,8.166437E0,1.5245774E1,6.783743E1,1.2751357E1],"tree_param":{"num_deleted":"0","num_feature":"15","num_nodes":"7","size_leaf_vector":"1"}},{"base_weights":[-4.6513453E-2,-1.881731E-1,1.2367237E-2,-0E0,-1.248987E-2],"categories":[],"categories_nodes":[],"categories_segments":[],"categories_sizes":[],"default_left":[0,0,0,0,0],"id":91,"left_children":[1,3,-1,-1,-1],"loss_changes":[1.0599703E1,7.453599E0,0E0,0E0,0E0],"parents":[2147483647,0,0,1,1],"right_children":[2,4,-1,-1,-1],"split_conditions":[1.3575748E0,6.7622185E-1,1.2367237E-2,-0E0,-1.248987E-2],"split_indices":[11,11,0,0,0],"split_type":[0,0,0,0,0],"sum_hessian":[9.6988785E1,8.651301E1,1.0475772E1,6.772878E1,1.8784227E1],"tree_param":{"num_deleted":"0","num_feature":"15","num_nodes":"5","size_leaf_vector":"1"}},{"base_weights":[-0E0,-3.295896E-1,1.7354116E-1,3.6837412E-3,-1.3349577E-2,8.853108E-3,-1.3863103E-3],"categories":[],"categories_nodes":[],"categories_segments":[],"categories_sizes":[],"default_left":[0,0,0,0,0,0,0],"id":92,"left_children":[1,3,5,-1,-1,-1,-1],"loss_changes":[7.338395E0,9.451979E0,5.898201E0,0E0,0E0,0E0,0E0],"parents":[2147483647,0,0,1,1,2,2],"right_children":[2,4,6,-1,-1,-1,-1],"split_conditions":[-4.9002475E-1,-1.0265836E0,3.5277763E-1,3.6837412E-3,-1.3349577E-2,8.853108E-3,-1.3863103E-3],"split_indices":[3,4,9,0,0,0,0],"split_type":[0,0,0,0,0,0,0],"sum_hessian":[1.0759877E2,3.628938E1,7.1309395E1,1.4847501E1,2.144188E1,3.2267017E1,3.9042377E1],"tree_param":{"num_deleted":"0","num_feature":"15","num_nodes":"7","size_leaf_vector":"1"}},{"base_weights":[-8.503997E-2,-2.2550341E-1,1.3037819E-2,-6.941585E-6,-1.5271481E-2],"categories":[],"categories_nodes":[],"categories_segments":[],"categories_sizes":[],"default_left":[0,0,0,0,0],"id":93,"left_children":[1,3,-1,-1,-1],"loss_changes":[1.1884279E1,1.0983024E1,0E0,0E0,0E0],"parents":[2147483647,0,0,1,1],"right_children":[2,4,-1,-1,-1],"split_conditions":[1.3731906E0,7.304561E-1,1.3037819E-2,-6.941585E-6,-1.5271481E-2],"split_indices":[11,11,0,0,0],"split_type":[0,0,0,0,0],"sum_hessian":[9.7148544E1,8.798166E1,9.1668825E0,6.968583E1,1.8295826E1],"tree_param":{"num_deleted":"0","num_feature":"15","num_nodes":"5","size_leaf_vector":"1"}},{"base_weights":[-6.211066E-2,2.7488518E-1,-1.9671048E-1,-1.8733129E-3,1.1294584E-2,-7.7432916E-3,5.683582E-3],"categories":[],"categories_nodes":[],"categories_segments":[],"categories_sizes":[],"default_left":[0,0,0,0,0,0,0],"id":94,"left_children":[1,3,5,-1,-1,-1,-1],"loss_changes":[5.31655E0,4.4205976E0,8.8494835E0,0E0,0E0,0E0,0E0],"parents":[2147483647,0,0,1,1,2,2],"right_children":[2,4,6,-1,-1,-1,-1],"split_conditions":[-5.637565E-1,-9.2693925E-1,5.840014E-1,-1.8733129E-3,1.1294584E-2,-7.7432916E-3,5.683582E-3],"split_indices":[1,1,2,0,0,0,0],"split_type":[0,0,0,0,0,0,0],"sum_hessian":[9.920359E1,2.351637E1,7.568722E1,1.15154085E1,1.2000961E1,5.6961464E1,1.8725752E1],"tree_param":{"num_deleted":"0","num_feature":"15","num_nodes":"7","size_leaf_vector":"1"}},{"base_weights":[2.8451052E-3,-1.2783669E-1,1.4229751E-2,7.267771E-4,-1.5468522E-2],"categories":[],"categories_nodes":[],"categories_segments":[],"categories_sizes":[],"default_left":[0,0,0,0,0],"id":95,"left_children":[1,3,-1,-1,-1],"loss_changes":[1.1568129E1,1.1495858E1,0E0,0E0,0E0],"parents":[2147483647,0,0,1,1],"right_children":[2,4,-1,-1,-1],"split_conditions":[1.3575748E0,9.2913616E-1,1.4229751E-2,7.267771E-4,-1.5468522E-2],"split_indices":[11,11,0,0,0],"split_type":[0,0,0,0,0],"sum_hessian":[1.0077491E2,9.012087E1,1.0654039E1,7.738583E1,1.2735039E1],"tree_param":{"num_deleted":"0","num_feature":"15","num_nodes":"5","size_leaf_vector":"1"}},{"base_weights":[5.626226E-2,1.6714612E-1,-9.251618E-3,-8.571788E-3,5.6348634E-3],"categories":[],"categories_nodes":[],"categories_segments":[],"categories_sizes":[],"default_left":[0,0,0,0,0],"id":96,"left_children":[1,3,-1,-1,-1],"loss_changes":[7.4161477E0,8.35895E0,0E0,0E0,0E0],"parents":[2147483647,0,0,1,1],"right_children":[2,4,-1,-1,-1],"split_conditions":[9.9367434E-1,-1.21713E0,-9.251618E-3,-8.571788E-3,5.6348634E-3],"split_indices":[5,5,0,0,0],"split_type":[0,0,0,0,0],"sum_hessian":[1.1294598E2,9.9672585E1,1.3273391E1,1.0693939E1,8.8978645E1],"tree_param":{"num_deleted":"0","num_feature":"15","num_nodes":"5","size_leaf_vector":"1"}},{"base_weights":[3.6220483E-2,-3.135498E-1,3.2643095E-1,1.4202951E-3,-1.0161297E-2,-1.8171191E-3,9.812289E-3],"categories":[],"categories_nodes":[],"categories_segments":[],"categories_sizes":[],"default_left":[0,0,0,0,0,0,0],"id":97,"left_children":[1,3,5,-1,-1,-1,-1],"loss_changes":[1.30526705E1,5.038005E0,5.6803923E0,0E0,0E0,0E0,0E0],"parents":[2147483647,0,0,1,1,2,2],"right_children":[2,4,6,-1,-1,-1,-1],"split_conditions":[-4.0895945E-1,-1.0482728E0,-6.854233E-1,1.4202951E-3,-1.0161297E-2,-1.8171191E-3,9.812289E-3],"split_indices":[14,7,2,0,0,0,0],"split_type":[0,0,0,0,0,0,0],"sum_hessian":[1.1038703E2,4.8166164E1,6.2220867E1,1.6371752E1,3.1794413E1,1.6983818E1,4.523705E1],"tree_param":{"num_deleted":"0","num_feature":"15","num_nodes":"7","size_leaf_vector":"1"}},{"base_weights":[-1.0696645E-3,-2.7092448E-1,3.511298E-1,-1.1003656E-2,2.9347264E-3,-2.3160146E-3,1.0136025E-2],"categories":[],"categories_nodes":[],"categories_segments":[],"categories_sizes":[],"default_left":[0,0,0,0,0,0,0],"id":98,"left_children":[1,3,5,-1,-1,-1,-1],"loss_changes":[1.053832E1,8.693132E0,4.326172E0,0E0,0E0,0E0,0E0],"parents":[2147483647,0,0,1,1,2,2],"right_children":[2,4,6,-1,-1,-1,-1],"split_conditions":[-3.95983E-1,-4.0032133E-1,-8.5755897E-1,-1.1003656E-2,2.9347264E-3,-2.3160146E-3,1.0136025E-2],"split_indices":[8,14,6,0,0,0,0],"split_type":[0,0,0,0,0,0,0],"sum_hessian":[9.371547E1,5.584402E1,3.787145E1,3.3190598E1,2.2653425E1,8.4393215E0,2.9432127E1],"tree_param":{"num_deleted":"0","num_feature":"15","num_nodes":"7","size_leaf_vector":"1"}},{"base_weights":[2.3244789E-2,4.2042312E-1,-1.4990817E-1,1.108938E-3,1.2834197E-2,-1.0192577E-2,9.051413E-4],"categories":[],"categories_nodes":[],"categories_segments":[],"categories_sizes":[],"default_left":[0,0,0,0,0,0,0],"id":99,"left_children":[1,3,5,-1,-1,-1,-1],"loss_changes":[8.432819E0,2.0232258E0,6.4139934E0,0E0,0E0,0E0,0E0],"parents":[2147483647,0,0,1,1,2,2],"right_children":[2,4,6,-1,-1,-1,-1],"split_conditions":[-5.336496E-1,-5.350171E-1,3.8736995E-2,1.108938E-3,1.2834197E-2,-1.0192577E-2,9.051413E-4],"split_indices":[9,3,4,0,0,0,0],"split_type":[0,0,0,0,0,0,0],"sum_hessian":[1.014376E2,2.864789E1,7.27897E1,1.6767221E1,1.188067E1,2.230341E1,5.0486294E1],"tree_param":{"num_deleted":"0","num_feature":"15","num_nodes":"7","size_leaf_vector":"1"}},{"base_weights":[-3.7270173E-2,-1.3510215E-1,9.200865E-3,3.8610876E-4,-1.1116874E-2],"categories":[],"categories_nodes":[],"categories_segments":[],"categories_sizes":[],"default_left":[0,0,0,0,0],"id":100,"left_children":[1,3,-1,-1,-1],"loss_changes":[5.515586E0,7.0868616E0,0E0,0E0,0E0],"parents":[2147483647,0,0,1,1],"right_children":[2,4,-1,-1,-1],"split_conditions":[1.5755235E0,7.304561E-1,9.200865E-3,3.8610876E-4,-1.1116874E-2],"split_indices":[11,11,0,0,0],"split_type":[0,0,0,0,0],"sum_hessian":[9.954694E1,9.0340836E1,9.206108E0,7.063049E1,1.971034E1],"tree_param":{"num_deleted":"0","num_feature":"15","num_nodes":"5","size_leaf_vector":"1"}},{"base_weights":[1.0066388E-1,-1.9541517E-2,1.2180224E-2,2.5830304E-3,-1.2672305E-2],"categories":[],"categories_nodes":[],"categories_segments":[],"categories_sizes":[],"default_left":[0,0,0,0,0],"id":101,"left_children":[1,3,-1,-1,-1],"loss_changes":[6.8156977E0,9.286851E0,0E0,0E0,0E0],"parents":[2147483647,0,0,1,1],"right_children":[2,4,-1,-1,-1],"split_conditions":[1.3575748E0,9.2913616E-1,1.2180224E-2,2.5830304E-3,-1.2672305E-2],"split_indices":[11,11,0,0,0],"split_type":[0,0,0,0,0],"sum_hessian":[9.113927E1,7.9117714E1,1.2021552E1,6.810524E1,1.1012479E1],"tree_param":{"num_deleted":"0","num_feature":"15","num_nodes":"5","size_leaf_vector":"1"}},{"base_weights":[9.921574E-2,-4.4786873E-1,2.5124672E-1,-0E0,-1.3818915E-2,-8.792549E-4,1.0526991E-2],"categories":[],"categories_nodes":[],"categories_segments":[],"categories_sizes":[],"default_left":[0,0,0,0,0,0,0],"id":102,"left_children":[1,3,5,-1,-1,-1,-1],"loss_changes":[1.0470765E1,3.4670553E0,8.652081E0,0E0,0E0,0E0,0E0],"parents":[2147483647,0,0,1,1,2,2],"right_children":[2,4,6,-1,-1,-1,-1],"split_conditions":[-9.941217E-1,-1.3509908E0,-6.1219573E-1,-0E0,-1.3818915E-2,-8.792549E-4,1.0526991E-2],"split_indices":[10,10,7,0,0,0,0],"split_type":[0,0,0,0,0,0,0],"sum_hessian":[1.0707814E2,1.8046597E1,8.903155E1,8.42045E0,9.626146E0,4.484051E1,4.4191032E1],"tree_param":{"num_deleted":"0","num_feature":"15","num_nodes":"7","size_leaf_vector":"1"}},{"base_weights":[2.709093E-2,1.0936732E-2,-8.715003E-2,-4.8348703E-3,7.5452807E-3],"categories":[],"categories_nodes":[],"categories_segments":[],"categories_sizes":[],"default_left":[0,0,0,0,0],"id":103,"left_children":[1,-1,3,-1,-1],"loss_changes":[7.3701596E0,0E0,7.554397E0,0E0,0E0],"parents":[2147483647,0,0,2,2],"right_children":[2,-1,4,-1,-1],"split_conditions":[-1.1862378E0,1.0936732E-2,8.323255E-1,-4.8348703E-3,7.5452807E-3],"split_indices":[7,0,2,0,0],"split_type":[0,0,0,0,0],"sum_hessian":[1.0016084E2,1.3484685E1,8.667616E1,6.9882286E1,1.6793875E1],"tree_param":{"num_deleted":"0","num_feature":"15","num_nodes":"5","size_leaf_vector":"1"}},{"base_weights":[-0E0,-1.2245927E-1,4.1404495E-1,-7.902347E-3,1.14499E-3,1.212186E-2,-0E0],"categories":[],"categories_nodes":[],"categories_segments":[],"categories_sizes":[],"default_left":[0,0,0,0,0,0,0],"id":104,"left_children":[1,3,5,-1,-1,-1,-1],"loss_changes":[5.816028E0,4.6302314E0,2.2580276E0,0E0,0E0,0E0,0E0],"parents":[2147483647,0,0,1,1,2,2],"right_children":[2,4,6,-1,-1,-1,-1],"split_conditions":[8.2283324E-1,-9.3651366E-1,8.697284E-1,-7.902347E-3,1.14499E-3,1.212186E-2,-0E0],"split_indices":[2,8,4,0,0,0,0],"split_type":[0,0,0,0,0,0,0],"sum_hessian":[9.2072525E1,7.444614E1,1.7626389E1,2.7499687E1,4.694645E1,9.572746E0,8.053642E0],"tree_param":{"num_deleted":"0","num_feature":"15","num_nodes":"7","size_leaf_vector":"1"}},{"base_weights":[8.129323E-2,-4.2702824E-2,5.019045E-1,2.5534614E-3,-5.466243E-3,1.593075E-2,-8.207183E-4],"categories":[],"categories_nodes":[],"categories_segments":[],"categories_sizes":[],"default_left":[0,0,0,0,0,0,0],"id":105,"left_children":[1,3,5,-1,-1,-1,-1],"loss_changes":[6.517721E0,4.1262093E0,5.5525227E0,0E0,0E0,0E0,0E0],"parents":[2147483647,0,0,1,1,2,2],"right_children":[2,4,6,-1,-1,-1,-1],"split_conditions":[6.357243E-1,-3.7702325E-1,7.8058463E-1,2.5534614E-3,-5.466243E-3,1.593075E-2,-8.207183E-4],"split_indices":[8,12,11,0,0,0,0],"split_type":[0,0,0,0,0,0,0],"sum_hessian":[1.034671E2,8.431874E1,1.914836E1,4.83088E1,3.600994E1,1.0881487E1,8.266871E0],"tree_param":{"num_deleted":"0","num_feature":"15","num_nodes":"7","size_leaf_vector":"1"}},{"base_weights":[4.8809998E-2,4.8650044E-1,-1.0344288E-1,-0E0,1.3358544E-2,-4.9346047E-3,8.733461E-3],"categories":[],"categories_nodes":[],"categories_segments":[],"categories_sizes":[],"default_left":[0,0,0,0,0,0,0],"id":106,"left_children":[1,3,5,-1,-1,-1,-1],"loss_changes":[8.140528E0,2.7116904E0,7.5167217E0,0E0,0E0,0E0,0E0],"parents":[2147483647,0,0,1,1,2,2],"right_children":[2,4,6,-1,-1,-1,-1],"split_conditions":[-5.637565E-1,-1.1245248E0,1.3369187E0,-0E0,1.3358544E-2,-4.9346047E-3,8.733461E-3],"split_indices":[1,1,11,0,0,0,0],"split_type":[0,0,0,0,0,0,0],"sum_hessian":[1.0061264E2,2.2562057E1,7.805058E1,8.739207E0,1.3822849E1,6.701289E1,1.1037688E1],"tree_param":{"num_deleted":"0","num_feature":"15","num_nodes":"7","size_leaf_vector":"1"}},{"base_weights":[-8.640721E-2,-1.00364145E-2,2.8334219E-2,9.31421E-3,-3.623851E-3],"categories":[],"categories_nodes":[],"categories_segments":[],"categories_sizes":[],"default_left":[0,0,0,0,0],"id":107,"left_children":[1,-1,3,-1,-1],"loss_changes":[6.0277605E0,0E0,9.826585E0,0E0,0E0],"parents":[2147483647,0,0,2,2],"right_children":[2,-1,4,-1,-1],"split_conditions":[-9.941217E-1,-1.00364145E-2,-1.4069404E-1,9.31421E-3,-3.623851E-3],"split_indices":[10,0,9,0,0],"split_type":[0,0,0,0,0],"sum_hessian":[1.0484223E2,1.800612E1,8.683611E1,2.6107214E1,6.0728893E1],"tree_param":{"num_deleted":"0","num_feature":"15","num_nodes":"5","size_leaf_vector":"1"}},{"base_weights":[-8.6816534E-2,-4.7797272E-1,1.4111699E-1,-1.4808653E-2,3.318904E-3,1.2337191E-2,-1.5414045E-3],"categories":[],"categories_nodes":[],"categories_segments":[],"categories_sizes":[],"default_left":[0,0,0,0,0,0,0],"id":108,"left_children":[1,3,5,-1,-1,-1,-1],"loss_changes":[1.0469228E1,8.947691E0,8.52805E0,0E0,0E0,0E0,0E0],"parents":[2147483647,0,0,1,1,2,2],"right_children":[2,4,6,-1,-1,-1,-1],"split_conditions":[-4.0533283E-1,-1.6405262E-2,-3.465613E-1,-1.4808653E-2,3.318904E-3,1.2337191E-2,-1.5414045E-3],"split_indices":[3,8,0,0,0,0,0],"split_type":[0,0,0,0,0,0,0],"sum_hessian":[9.78369E1,3.4001465E1,6.3835434E1,2.430059E1,9.700872E0,1.6341747E1,4.7493687E1],"tree_param":{"num_deleted":"0","num_feature":"15","num_nodes":"7","size_leaf_vector":"1"}},{"base_weights":[-1.6330209E-2,-1.2689999E-1,8.006129E-3,3.6584248E-3,-6.1754566E-3],"categories":[],"categories_nodes":[],"categories_segments":[],"categories_sizes":[],"default_left":[0,0,0,0,0],"id":109,"left_children":[1,3,-1,-1,-1],"loss_changes":[5.473397E0,6.239244E0,0E0,0E0,0E0],"parents":[2147483647,0,0,1,1],"right_children":[2,4,-1,-1,-1],"split_conditions":[8.2283324E-1,-4.645813E-1,8.006129E-3,3.6584248E-3,-6.1754566E-3],"split_indices":[2,1,0,0,0],"split_type":[0,0,0,0,0],"sum_hessian":[1.0582328E2,9.047213E1,1.5351152E1,3.1411781E1,5.9060345E1],"tree_param":{"num_deleted":"0","num_feature":"15","num_nodes":"5","size_leaf_vector":"1"}},{"base_weights":[-8.415891E-2,-2.3655947E-1,2.1144922E-1,4.689223E-3,-9.259307E-3,9.414973E-3,-4.4337595E-3],"categories":[],"categories_nodes":[],"categories_segments":[],"categories_sizes":[],"default_left":[0,0,0,0,0,0,0],"id":110,"left_children":[1,3,5,-1,-1,-1,-1],"loss_changes":[5.286803E0,9.411578E0,5.551761E0,0E0,0E0,0E0,0E0],"parents":[2147483647,0,0,1,1,2,2],"right_children":[2,4,6,-1,-1,-1,-1],"split_conditions":[-5.0772976E-2,-1.0482728E0,9.186651E-1,4.689223E-3,-9.259307E-3,9.414973E-3,-4.4337595E-3],"split_indices":[5,7,5,0,0,0,0],"split_type":[0,0,0,0,0,0,0],"sum_hessian":[9.780177E1,6.7950554E1,2.9851223E1,2.0521023E1,4.7429527E1,1.9628038E1,1.0223185E1],"tree_param":{"num_deleted":"0","num_feature":"15","num_nodes":"7","size_leaf_vector":"1"}},{"base_weights":[7.237701E-2,-2.0144443E-1,2.6399732E-1,7.4168243E-3,-1.3849742E-2,1.1498353E-2,2.441115E-6],"categories":[],"categories_nodes":[],"categories_segments":[],"categories_sizes":[],"default_left":[0,0,0,0,0,0,0],"id":111,"left_children":[1,3,5,-1,-1,-1,-1],"loss_changes":[6.051949E0,1.5614622E1,4.989541E0,0E0,0E0,0E0,0E0],"parents":[2147483647,0,0,1,1,2,2],"right_children":[2,4,6,-1,-1,-1,-1],"split_conditions":[-8.309126E-1,-1.145738E0,-4.645813E-1,7.4168243E-3,-1.3849742E-2,1.1498353E-2,2.441115E-6],"split_indices":[7,7,1,0,0,0,0],"split_type":[0,0,0,0,0,0,0],"sum_hessian":[9.602754E1,3.7195652E1,5.8831894E1,1.725381E1,1.9941841E1,2.0398378E1,3.8433514E1],"tree_param":{"num_deleted":"0","num_feature":"15","num_nodes":"7","size_leaf_vector":"1"}},{"base_weights":[-1.0179985E-1,-4.4705164E-1,-0E0,-0E0,-1.2855353E-2,9.07966E-3,-2.572912E-3],"categories":[],"categories_nodes":[],"categories_segments":[],"categories_sizes":[],"default_left":[0,0,0,0,0,0,0],"id":112,"left_children":[1,3,5,-1,-1,-1,-1],"loss_changes":[4.6758914E0,2.9818654E0,6.701148E0,0E0,0E0,0E0,0E0],"parents":[2147483647,0,0,1,1,2,2],"right_children":[2,4,6,-1,-1,-1,-1],"split_conditions":[-9.941217E-1,-1.3963511E0,-5.682469E-1,-0E0,-1.2855353E-2,9.07966E-3,-2.572912E-3],"split_indices":[10,10,9,0,0,0,0],"split_type":[0,0,0,0,0,0,0],"sum_hessian":[1.1227018E2,2.0684692E1,9.158549E1,8.107786E0,1.2576907E1,1.6784853E1,7.480063E1],"tree_param":{"num_deleted":"0","num_feature":"15","num_nodes":"7","size_leaf_vector":"1"}},{"base_weights":[-1.5739143E-1,5.6415447E-3,-2.5755915E-1,1.1463923E-3,-9.3804095E-3],"categories":[],"categories_nodes":[],"categories_segments":[],"categories_sizes":[],"default_left":[0,0,0,0,0],"id":113,"left_children":[1,-1,3,-1,-1],"loss_changes":[5.3464413E0,0E0,6.900877E0,0E0,0E0],"parents":[2147483647,0,0,2,2],"right_children":[2,-1,4,-1,-1],"split_conditions":[-1.0494347E0,5.6415447E-3,-2.183239E-1,1.1463923E-3,-9.3804095E-3],"split_indices":[6,0,1,0,0],"split_type":[0,0,0,0,0],"sum_hessian":[9.8156586E1,1.3332933E1,8.4823654E1,3.481437E1,5.0009285E1],"tree_param":{"num_deleted":"0","num_feature":"15","num_nodes":"5","size_leaf_vector":"1"}},{"base_weights":[-1.0913977E-2,-9.8349415E-3,1.1548468E-1,1.0639311E-2,-2.615975E-3],"categories":[],"categories_nodes":[],"categories_segments":[],"categories_sizes":[],"default_left":[0,0,0,0,0],"id":114,"left_children":[1,-1,3,-1,-1],"loss_changes":[7.785269E0,0E0,1.0824348E1,0E0,0E0],"parents":[2147483647,0,0,2,2],"right_children":[2,-1,4,-1,-1],"split_conditions":[-9.941217E-1,-9.8349415E-3,-2.3181511E-1,1.0639311E-2,-2.615975E-3],"split_indices":[10,0,1,0,0],"split_type":[0,0,0,0,0],"sum_hessian":[1.0449593E2,1.7983265E1,8.651267E1,2.9777552E1,5.673512E1],"tree_param":{"num_deleted":"0","num_feature":"15","num_nodes":"5","size_leaf_vector":"1"}},{"base_weights":[-0E0,-4.4498384E-1,1.1254645E-1,-0E0,-1.3633453E-2,-4.4352505E-3,4.9675764E-3],"categories":[],"categories_nodes":[],"categories_segments":[],"categories_sizes":[],"default_left":[0,0,0,0,0,0,0],"id":115,"left_children":[1,3,5,-1,-1,-1,-1],"loss_changes":[6.4253006E0,3.0264802E0,4.902705E0,0E0,0E0,0E0,0E0],"parents":[2147483647,0,0,1,1,2,2],"right_children":[2,4,6,-1,-1,-1,-1],"split_conditions":[-9.941217E-1,-1.3509908E0,-9.5712507E-1,-0E0,-1.3633453E-2,-4.4352505E-3,4.9675764E-3],"split_indices":[10,10,5,0,0,0,0],"split_type":[0,0,0,0,0,0,0],"sum_hessian":[1.0474105E2,1.7278587E1,8.746246E1,8.56756E0,8.711028E0,2.1497494E1,6.5964966E1],"tree_param":{"num_deleted":"0","num_feature":"15","num_nodes":"7","size_leaf_vector":"1"}},{"base_weights":[4.702301E-2,-6.239062E-2,9.804006E-3,4.4794665E-3,-8.948262E-3],"categories":[],"categories_nodes":[],"categories_segments":[],"categories_sizes":[],"default_left":[0,0,0,0,0],"id":116,"left_children":[1,3,-1,-1,-1],"loss_changes":[6.0057163E0,1.147597E1,0E0,0E0,0E0],"parents":[2147483647,0,0,1,1],"right_children":[2,4,-1,-1,-1],"split_conditions":[8.9352256E-1,-3.7702325E-1,9.804006E-3,4.4794665E-3,-8.948262E-3],"split_indices":[12,12,0,0,0],"split_type":[0,0,0,0,0],"sum_hessian":[1.0035639E2,8.48779E1,1.54784975E1,4.934467E1,3.5533226E1],"tree_param":{"num_deleted":"0","num_feature":"15","num_nodes":"5","size_leaf_vector":"1"}},{"base_weights":[-0E0,3.7926102E-1,-1.6000119E-1,-2.3776926E-3,1.3553105E-2,-6.4533036E-3,8.495487E-3],"categories":[],"categories_nodes":[],"categories_segments":[],"categories_sizes":[],"default_left":[0,0,0,0,0,0,0],"id":117,"left_children":[1,3,5,-1,-1,-1,-1],"loss_changes":[7.725586E0,6.9767404E0,9.367916E0,0E0,0E0,0E0,0E0],"parents":[2147483647,0,0,1,1,2,2],"right_children":[2,4,6,-1,-1,-1,-1],"split_conditions":[-5.682469E-1,-1.0284914E0,1.3575748E0,-2.3776926E-3,1.3553105E-2,-6.4533036E-3,8.495487E-3],"split_indices":[9,10,11,0,0,0,0],"split_type":[0,0,0,0,0,0,0],"sum_hessian":[1.0688769E2,2.9298967E1,7.758872E1,1.1748603E1,1.7550365E1,6.519722E1,1.2391501E1],"tree_param":{"num_deleted":"0","num_feature":"15","num_nodes":"7","size_leaf_vector":"1"}},{"base_weights":[-6.493762E-2,1.10208444E-1,-3.3310914E-1,-2.050601E-3,1.1291395E-2,-1.1192103E-2,6.609104E-3],"categories":[],"categories_nodes":[],"categories_segments":[],"categories_sizes":[],"default_left":[0,0,0,0,0,0,0],"id":118,"left_children":[1,3,5,-1,-1,-1,-1],"loss_changes":[5.856204E0,8.020189E0,9.272692E0,0E0,0E0,0E0,0E0],"parents":[2147483647,0,0,1,1,2,2],"right_children":[2,4,6,-1,-1,-1,-1],"split_conditions":[2.3715043E-1,3.7271345E-1,1.4696132E0,-2.050601E-3,1.1291395E-2,-1.1192103E-2,6.609104E-3],"split_indices":[1,10,11,0,0,0,0],"split_type":[0,0,0,0,0,0,0],"sum_hessian":[1.03901695E2,6.380334E1,4.0098354E1,4.6704033E1,1.7099308E1,3.206914E1,8.029216E0],"tree_param":{"num_deleted":"0","num_feature":"15","num_nodes":"7","size_leaf_vector":"1"}},{"base_weights":[1.2550148E-1,-2.1079817E-1,3.26131E-1,2.4294185E-3,-1.23732835E-2,9.640853E-3,-5.8264458E-3],"categories":[],"categories_nodes":[],"categories_segments":[],"categories_sizes":[],"default_left":[0,0,0,0,0,0,0],"id":119,"left_children":[1,3,5,-1,-1,-1,-1],"loss_changes":[8.624962E0,7.584284E0,9.025795E0,0E0,0E0,0E0,0E0],"parents":[2147483647,0,0,1,1,2,2],"right_children":[2,4,6,-1,-1,-1,-1],"split_conditions":[-9.3651366E-1,-1.2312082E0,1.3950471E0,2.4294185E-3,-1.23732835E-2,9.640853E-3,-5.8264458E-3],"split_indices":[8,8,4,0,0,0,0],"split_type":[0,0,0,0,0,0,0],"sum_hessian":[1.07951355E2,3.8304325E1,6.964703E1,2.3239796E1,1.5064529E1,5.847496E1,1.1172074E1],"tree_param":{"num_deleted":"0","num_feature":"15","num_nodes":"7","size_leaf_vector":"1"}},{"base_weights":[6.02287E-2,-3.6570337E-2,1.18109E-2,2.4425904E-3,-1.3660991E-2],"categories":[],"categories_nodes":[],"categories_segments":[],"categories_sizes":[],"default_left":[0,0,0,0,0],"id":120,"left_children":[1,3,-1,-1,-1],"loss_changes":[6.5740047E0,1.1863582E1,0E0,0E0,0E0],"parents":[2147483647,0,0,1,1],"right_children":[2,4,-1,-1,-1],"split_conditions":[1.3575748E0,9.66782E-1,1.18109E-2,2.4425904E-3,-1.3660991E-2],"split_indices":[11,11,0,0,0],"split_type":[0,0,0,0,0],"sum_hessian":[1.04485214E2,9.384865E1,1.0636567E1,7.9970215E1,1.38784275E1],"tree_param":{"num_deleted":"0","num_feature":"15","num_nodes":"5","size_leaf_vector":"1"}},{"base_weights":[-2.5964592E-2,8.394339E-3,-1.4477287E-1,-8.415286E-3,8.4871665E-4],"categories":[],"categories_nodes":[],"categories_segments":[],"categories_sizes":[],"default_left":[0,0,0,0,0],"id":121,"left_children":[1,-1,3,-1,-1],"loss_changes":[6.293745E0,0E0,5.6155443E0,0E0,0E0],"parents":[2147483647,0,0,2,2],"right_children":[2,-1,4,-1,-1],"split_conditions":[-1.0173414E0,8.394339E-3,-5.193232E-1,-8.415286E-3,8.4871665E-4],"split_indices":[4,0,14,0,0],"split_type":[0,0,0,0,0],"sum_hessian":[1.04725044E2,1.547242E1,8.9252625E1,3.3693573E1,5.5559055E1],"tree_param":{"num_deleted":"0","num_feature":"15","num_nodes":"5","size_leaf_vector":"1"}},{"base_weights":[-7.4279256E-2,-1.904751E-1,3.398044E-1,5.714999E-4,-8.761101E-3,1.2066501E-2,-1.2046149E-3],"categories":[],"categories_nodes":[],"categories_segments":[],"categories_sizes":[],"default_left":[0,0,0,0,0,0,0],"id":122,"left_children":[1,3,5,-1,-1,-1,-1],"loss_changes":[5.9069057E0,5.7549443E0,3.6399972E0,0E0,0E0,0E0,0E0],"parents":[2147483647,0,0,1,1,2,2],"right_children":[2,4,6,-1,-1,-1,-1],"split_conditions":[8.054299E-1,-3.7702325E-1,2.636399E-1,5.714999E-4,-8.761101E-3,1.2066501E-2,-1.2046149E-3],"split_indices":[14,12,5,0,0,0,0],"split_type":[0,0,0,0,0,0,0],"sum_hessian":[1.0476366E2,8.748856E1,1.7275087E1,4.849979E1,3.8988777E1,9.164313E0,8.110774E0],"tree_param":{"num_deleted":"0","num_feature":"15","num_nodes":"7","size_leaf_vector":"1"}},{"base_weights":[2.7396772E-2,-2.5535467E-1,1.9547606E-1,1.6867348E-3,-1.3305715E-2,-3.7834113E-3,7.2363797E-3],"categories":[],"categories_nodes":[],"categories_segments":[],"categories_sizes":[],"default_left":[0,0,0,0,0,0,0],"id":123,"left_children":[1,3,5,-1,-1,-1,-1],"loss_changes":[5.6556983E0,7.0733294E0,5.7035427E0,0E0,0E0,0E0,0E0],"parents":[2147483647,0,0,1,1,2,2],"right_children":[2,4,6,-1,-1,-1,-1],"split_conditions":[-5.355884E-1,-4.7810468E-1,-7.058909E-1,1.6867348E-3,-1.3305715E-2,-3.7834113E-3,7.2363797E-3],"split_indices":[14,12,2,0,0,0,0],"split_type":[0,0,0,0,0,0,0],"sum_hessian":[1.0181269E2,3.399752E1,6.781517E1,2.1166641E1,1.2830879E1,1.8285515E1,4.952966E1],"tree_param":{"num_deleted":"0","num_feature":"15","num_nodes":"7","size_leaf_vector":"1"}},{"base_weights":[1.145409E-2,-7.348914E-2,7.3607466E-3,3.2330467E-3,-8.7577915E-3],"categories":[],"categories_nodes":[],"categories_segments":[],"categories_sizes":[],"default_left":[0,0,0,0,0],"id":124,"left_children":[1,3,-1,-1,-1],"loss_changes":[4.058408E0,9.405083E0,0E0,0E0,0E0],"parents":[2147483647,0,0,1,1],"right_children":[2,4,-1,-1,-1],"split_conditions":[8.285587E-1,-2.3641922E-1,7.3607466E-3,3.2330467E-3,-8.7577915E-3],"split_indices":[12,12,0,0,0],"split_type":[0,0,0,0,0],"sum_hessian":[1.0722702E2,9.010378E1,1.7123236E1,5.6140514E1,3.396327E1],"tree_param":{"num_deleted":"0","num_feature":"15","num_nodes":"5","size_leaf_vector":"1"}},{"base_weights":[3.795446E-2,-5.7318747E-2,1.16445385E-2,2.350891E-3,-8.0850655E-3],"categories":[],"categories_nodes":[],"categories_segments":[],"categories_sizes":[],"default_left":[0,0,0,0,0],"id":125,"left_children":[1,3,-1,-1,-1],"loss_changes":[6.218022E0,6.485839E0,0E0,0E0,0E0],"parents":[2147483647,0,0,1,1],"right_children":[2,4,-1,-1,-1],"split_conditions":[1.3731906E0,3.629001E-1,1.16445385E-2,2.350891E-3,-8.0850655E-3],"split_indices":[11,9,0,0,0],"split_type":[0,0,0,0,0],"sum_hessian":[9.499777E1,8.613498E1,8.862789E0,5.9309772E1,2.6825212E1],"tree_param":{"num_deleted":"0","num_feature":"15","num_nodes":"5","size_leaf_vector":"1"}},{"base_weights":[4.2603295E-2,-2.1219039E-1,2.5435448E-1,4.695222E-3,-9.441054E-3,8.001656E-3,-5.1356177E-3],"categories":[],"categories_nodes":[],"categories_segments":[],"categories_sizes":[],"default_left":[0,0,0,0,0,0,0],"id":126,"left_children":[1,3,5,-1,-1,-1,-1],"loss_changes":[6.419424E0,7.311983E0,5.9745545E0,0E0,0E0,0E0,0E0],"parents":[2147483647,0,0,1,1,2,2],"right_children":[2,4,6,-1,-1,-1,-1],"split_conditions":[-5.7210374E-1,-1.1911995E0,1.3950471E0,4.695222E-3,-9.441054E-3,8.001656E-3,-5.1356177E-3],"split_indices":[7,7,4,0,0,0,0],"split_type":[0,0,0,0,0,0,0],"sum_hessian":[1.0019747E2,4.3324837E1,5.6872635E1,1.4833333E1,2.8491503E1,4.7299137E1,9.573497E0],"tree_param":{"num_deleted":"0","num_feature":"15","num_nodes":"7","size_leaf_vector":"1"}},{"base_weights":[1.970817E-2,1.063468E-1,-8.263741E-3,-7.7849225E-4,1.1278761E-2],"categories":[],"categories_nodes":[],"categories_segments":[],"categories_sizes":[],"default_left":[0,0,0,0,0],"id":127,"left_children":[1,3,-1,-1,-1],"loss_changes":[4.3662634E0,7.643699E0,0E0,0E0,0E0],"parents":[2147483647,0,0,1,1],"right_children":[2,4,-1,-1,-1],"split_conditions":[9.9367434E-1,1.8409671E-2,-8.263741E-3,-7.7849225E-4,1.1278761E-2],"split_indices":[5,5,0,0,0],"split_type":[0,0,0,0,0],"sum_hessian":[1.0505365E2,9.511634E1,9.937309E0,7.678764E1,1.8328693E1],"tree_param":{"num_deleted":"0","num_feature":"15","num_nodes":"5","size_leaf_vector":"1"}},{"base_weights":[6.7450665E-2,-9.11252E-3,1.6369645E-1,5.367856E-3,-5.357918E-3],"categories":[],"categories_nodes":[],"categories_segments":[],"categories_sizes":[],"default_left":[0,0,0,0,0],"id":128,"left_children":[1,-1,3,-1,-1],"loss_changes":[6.0798216E0,0E0,5.3411007E0,0E0,0E0],"parents":[2147483647,0,0,2,2],"right_children":[2,-1,4,-1,-1],"split_conditions":[-1.21713E0,-9.11252E-3,9.186651E-1,5.367856E-3,-5.357918E-3],"split_indices":[5,0,5,0,0],"split_type":[0,0,0,0,0],"sum_hessian":[1.0423097E2,9.3608265E0,9.487015E1,8.095271E1,1.3917431E1],"tree_param":{"num_deleted":"0","num_feature":"15","num_nodes":"5","size_leaf_vector":"1"}},{"base_weights":[-1.6658552E-2,-3.1054014E-1,3.1459734E-1,-0E0,-1.2640152E-2,1.5429343E-2,-3.8085956E-4],"categories":[],"categories_nodes":[],"categories_segments":[],"categories_sizes":[],"default_left":[0,0,0,0,0,0,0],"id":129,"left_children":[1,3,5,-1,-1,-1,-1],"loss_changes":[1.1271801E1,6.411287E0,8.975145E0,0E0,0E0,0E0,0E0],"parents":[2147483647,0,0,1,1,2,2],"right_children":[2,4,6,-1,-1,-1,-1],"split_conditions":[7.6979525E-2,-3.465613E-1,-9.036682E-2,-0E0,-1.2640152E-2,1.5429343E-2,-3.8085956E-4],"split_indices":[0,0,2,0,0,0,0],"split_type":[0,0,0,0,0,0,0],"sum_hessian":[9.779611E1,5.371935E1,4.407676E1,3.1526085E1,2.2193266E1,1.4883228E1,2.9193533E1],"tree_param":{"num_deleted":"0","num_feature":"15","num_nodes":"7","size_leaf_vector":"1"}},{"base_weights":[-3.7888177E-2,3.629221E-1,-2.1294527E-1,-0E0,1.3370511E-2,-6.2767374E-3,4.4349707E-3],"categories":[],"categories_nodes":[],"categories_segments":[],"categories_sizes":[],"default_left":[0,0,0,0,0,0,0],"id":130,"left_children":[1,3,5,-1,-1,-1,-1],"loss_changes":[8.782913E0,4.477293E0,4.626972E0,0E0,0E0,0E0,0E0],"parents":[2147483647,0,0,1,1,2,2],"right_children":[2,4,6,-1,-1,-1,-1],"split_conditions":[-4.8680383E-1,-8.0177915E-1,1.2430139E0,-0E0,1.3370511E-2,-6.2767374E-3,4.4349707E-3],"split_indices":[1,1,1,0,0,0,0],"split_type":[0,0,0,0,0,0,0],"sum_hessian":[1.084002E2,2.827984E1,8.012035E1,1.6275238E1,1.2004602E1,6.8925575E1,1.11947775E1],"tree_param":{"num_deleted":"0","num_feature":"15","num_nodes":"7","size_leaf_vector":"1"}},{"base_weights":[-0E0,-1.2509407E-1,1.0326589E-2,-6.3626347E-3,2.4808678E-3],"categories":[],"categories_nodes":[],"categories_segments":[],"categories_sizes":[],"default_left":[0,0,0,0,0],"id":131,"left_children":[1,3,-1,-1,-1],"loss_changes":[6.939947E0,5.017155E0,0E0,0E0,0E0],"parents":[2147483647,0,0,1,1],"right_children":[2,4,-1,-1,-1],"split_conditions":[1.3369187E0,-3.95983E-1,1.0326589E-2,-6.3626347E-3,2.4808678E-3],"split_indices":[11,8,0,0,0],"split_type":[0,0,0,0,0],"sum_hessian":[9.548017E1,8.390157E1,1.1578599E1,4.813043E1,3.5771145E1],"tree_param":{"num_deleted":"0","num_feature":"15","num_nodes":"5","size_leaf_vector":"1"}},{"base_weights":[-1.3147967E-1,-2.2418034E-1,8.045855E-3,-6.032346E-4,-1.5218177E-2],"categories":[],"categories_nodes":[],"categories_segments":[],"categories_sizes":[],"default_left":[0,0,0,0,0],"id":132,"left_children":[1,3,-1,-1,-1],"loss_changes":[6.2410383E0,9.825396E0,0E0,0E0,0E0],"parents":[2147483647,0,0,1,1],"right_children":[2,4,-1,-1,-1],"split_conditions":[1.3348104E0,7.2364324E-1,8.045855E-3,-6.032346E-4,-1.5218177E-2],"split_indices":[11,11,0,0,0],"split_type":[0,0,0,0,0],"sum_hessian":[1.0432569E2,9.493226E1,9.393435E0,7.807744E1,1.6854824E1],"tree_param":{"num_deleted":"0","num_feature":"15","num_nodes":"5","size_leaf_vector":"1"}},{"base_weights":[1.8098403E-2,-3.0682537E-1,3.1033203E-1,4.8186793E-3,-1.1426318E-2,-5.3791027E-3,1.1384572E-2],"categories":[],"categories_nodes":[],"categories_segments":[],"categories_sizes":[],"default_left":[0,0,0,0,0,0,0],"id":133,"left_children":[1,3,5,-1,-1,-1,-1],"loss_changes":[1.0807006E1,9.176252E0,1.0863363E1,0E0,0E0,0E0,0E0],"parents":[2147483647,0,0,1,1,2,2],"right_children":[2,4,6,-1,-1,-1,-1],"split_conditions":[-5.9740937E-1,-1.1862378E0,-7.275222E-1,4.8186793E-3,-1.1426318E-2,-5.3791027E-3,1.1384572E-2],"split_indices":[7,7,6,0,0,0,0],"split_type":[0,0,0,0,0,0,0],"sum_hessian":[9.5751526E1,4.3506714E1,5.2244812E1,1.3196831E1,3.0309881E1,1.4836215E1,3.7408596E1],"tree_param":{"num_deleted":"0","num_feature":"15","num_nodes":"7","size_leaf_vector":"1"}},{"base_weights":[-1.1512593E-2,1.8900153E-1,