{"learner":{"attributes":{"best_iteration":"4","best_score":"0.4984445701357466"},"feature_names":["z180_ret_1d","z180_ret_2d","z180_ret_3d","z180_ret_5d","z180_ret_10d","z180_std_5","z180_std_10","z180_std_20","z180_rsi_14","z180_macd_hist","z180_bb_percent_b_20","z180_hl_spread","z180_volume_z_5","z180_volume_z_20","z180_dow_sin"],"feature_types":[],"gradient_booster":{"model":{"gbtree_model_param":{"num_parallel_tree":"1","num_trees":"305"},"iteration_indptr":[0,1,2,3,4,5,6,7,8,9,10,11,12,13,14,15,16,17,18,19,20,21,22,23,24,25,26,27,28,29,30,31,32,33,34,35,36,37,38,39,40,41,42,43,44,45,46,47,48,49,50,51,52,53,54,55,56,57,58,59,60,61,62,63,64,65,66,67,68,69,70,71,72,73,74,75,76,77,78,79,80,81,82,83,84,85,86,87,88,89,90,91,92,93,94,95,96,97,98,99,100,101,102,103,104,105,106,107,108,109,110,111,112,113,114,115,116,117,118,119,120,121,122,123,124,125,126,127,128,129,130,131,132,133,134,135,136,137,138,139,140,141,142,143,144,145,146,147,148,149,150,151,152,153,154,155,156,157,158,159,160,161,162,163,164,165,166,167,168,169,170,171,172,173,174,175,176,177,178,179,180,181,182,183,184,185,186,187,188,189,190,191,192,193,194,195,196,197,198,199,200,201,202,203,204,205,206,207,208,209,210,211,212,213,214,215,216,217,218,219,220,221,222,223,224,225,226,227,228,229,230,231,232,233,234,235,236,237,238,239,240,241,242,243,244,245,246,247,248,249,250,251,252,253,254,255,256,257,258,259,260,261,262,263,264,265,266,267,268,269,270,271,272,273,274,275,276,277,278,279,280,281,282,283,284,285,286,287,288,289,290,291,292,293,294,295,296,297,298,299,300,301,302,303,304,305],"tree_info":[0,0,0,0,0,0,0,0,0,0,0,0,0,0,0,0,0,0,0,0,0,0,0,0,0,0,0,0,0,0,0,0,0,0,0,0,0,0,0,0,0,0,0,0,0,0,0,0,0,0,0,0,0,0,0,0,0,0,0,0,0,0,0,0,0,0,0,0,0,0,0,0,0,0,0,0,0,0,0,0,0,0,0,0,0,0,0,0,0,0,0,0,0,0,0,0,0,0,0,0,0,0,0,0,0,0,0,0,0,0,0,0,0,0,0,0,0,0,0,0,0,0,0,0,0,0,0,0,0,0,0,0,0,0,0,0,0,0,0,0,0,0,0,0,0,0,0,0,0,0,0,0,0,0,0,0,0,0,0,0,0,0,0,0,0,0,0,0,0,0,0,0,0,0,0,0,0,0,0,0,0,0,0,0,0,0,0,0,0,0,0,0,0,0,0,0,0,0,0,0,0,0,0,0,0,0,0,0,0,0,0,0,0,0,0,0,0,0,0,0,0,0,0,0,0,0,0,0,0,0,0,0,0,0,0,0,0,0,0,0,0,0,0,0,0,0,0,0,0,0,0,0,0,0,0,0,0,0,0,0,0,0,0,0,0,0,0,0,0,0,0,0,0,0,0,0,0,0,0,0,0,0,0,0,0,0,0,0,0,0,0,0,0,0,0,0,0,0,0,0,0,0,0,0,0],"trees":[{"base_weights":[-0E0,3.4693485E-1,-3.4162763E-1,-6.298102E-3,1.6106065E-2,-1.2779741E-2,8.375979E-3],"categories":[],"categories_nodes":[],"categories_segments":[],"categories_sizes":[],"default_left":[0,0,0,0,0,0,0],"id":0,"left_children":[1,3,5,-1,-1,-1,-1],"loss_changes":[1.4537609E1,2.1042187E1,1.6750843E1,0E0,0E0,0E0,0E0],"parents":[2147483647,0,0,1,1,2,2],"right_children":[2,4,6,-1,-1,-1,-1],"split_conditions":[-5.0028954E-2,-8.4730947E-1,1.3001691E0,-6.298102E-3,1.6106065E-2,-1.2779741E-2,8.375979E-3],"split_indices":[2,10,10,0,0,0,0],"split_type":[0,0,0,0,0,0,0],"sum_hessian":[1.0467675E2,5.122234E1,5.345441E1,2.1219152E1,3.000319E1,4.0406197E1,1.3048212E1],"tree_param":{"num_deleted":"0","num_feature":"15","num_nodes":"7","size_leaf_vector":"1"}},{"base_weights":[1.2767293E-1,-3.5953188E-1,3.9292905E-1,-1.1426211E-2,3.7270905E-3,1.5750747E-2,5.7161663E-4],"categories":[],"categories_nodes":[],"categories_segments":[],"categories_sizes":[],"default_left":[0,0,0,0,0,0,0],"id":1,"left_children":[1,3,5,-1,-1,-1,-1],"loss_changes":[1.634703E1,6.476352E0,1.0626045E1,0E0,0E0,0E0,0E0],"parents":[2147483647,0,0,1,1,2,2],"right_children":[2,4,6,-1,-1,-1,-1],"split_conditions":[-2.3762795E-1,1.336559E0,1.2370124E-1,-1.1426211E-2,3.7270905E-3,1.5750747E-2,5.7161663E-4],"split_indices":[4,12,2,0,0,0,0],"split_type":[0,0,0,0,0,0,0],"sum_hessian":[1.07395E2,3.5402103E1,7.19929E1,2.652453E1,8.877575E0,2.8225307E1,4.3767586E1],"tree_param":{"num_deleted":"0","num_feature":"15","num_nodes":"7","size_leaf_vector":"1"}},{"base_weights":[1.4721766E-1,-2.3224825E-1,3.695973E-1,-1.1573449E-2,3.934737E-3,1.3845212E-2,-3.3623674E-3],"categories":[],"categories_nodes":[],"categories_segments":[],"categories_sizes":[],"default_left":[0,0,0,0,0,0,0],"id":2,"left_children":[1,3,5,-1,-1,-1,-1],"loss_changes":[9.7701025E0,7.7464867E0,1.3948366E1,0E0,0E0,0E0,0E0],"parents":[2147483647,0,0,1,1,2,2],"right_children":[2,4,6,-1,-1,-1,-1],"split_conditions":[-2.3762795E-1,3.1254306E-2,1.4861959E-1,-1.1573449E-2,3.934737E-3,1.3845212E-2,-3.3623674E-3],"split_indices":[4,6,14,0,0,0,0],"split_type":[0,0,0,0,0,0,0],"sum_hessian":[9.5996826E1,3.3661327E1,6.2335503E1,1.8174946E1,1.5486382E1,3.850381E1,2.383169E1],"tree_param":{"num_deleted":"0","num_feature":"15","num_nodes":"7","size_leaf_vector":"1"}},{"base_weights":[-1.5657212E-1,2.2202031E-1,-3.8259357E-1,9.297176E-3,-3.4710949E-3,-1.6580733E-2,4.5565516E-4],"categories":[],"categories_nodes":[],"categories_segments":[],"categories_sizes":[],"default_left":[0,0,0,0,0,0,0],"id":3,"left_children":[1,3,5,-1,-1,-1,-1],"loss_changes":[1.0661762E1,5.491699E0,1.4768299E1,0E0,0E0,0E0,0E0],"parents":[2147483647,0,0,1,1,2,2],"right_children":[2,4,6,-1,-1,-1,-1],"split_conditions":[-6.4910156E-1,1.2370124E-1,-6.7083126E-1,9.297176E-3,-3.4710949E-3,-1.6580733E-2,4.5565516E-4],"split_indices":[5,2,6,0,0,0,0],"split_type":[0,0,0,0,0,0,0],"sum_hessian":[1.0478634E2,3.7577652E1,6.720869E1,2.3873594E1,1.3704057E1,2.8681978E1,3.8526707E1],"tree_param":{"num_deleted":"0","num_feature":"15","num_nodes":"7","size_leaf_vector":"1"}},{"base_weights":[-4.996236E-2,3.2020274E-1,-2.7565598E-1,1.16628725E-2,-7.6908004E-3,-1.631196E-2,2.2432755E-3],"categories":[],"categories_nodes":[],"categories_segments":[],"categories_sizes":[],"default_left":[0,0,0,0,0,0,0],"id":4,"left_children":[1,3,5,-1,-1,-1,-1],"loss_changes":[1.0657738E1,1.100131E1,1.831844E1,0E0,0E0,0E0,0E0],"parents":[2147483647,0,0,1,1,2,2],"right_children":[2,4,6,-1,-1,-1,-1],"split_conditions":[-6.839092E-1,-2.8815016E-1,-6.7083126E-1,1.16628725E-2,-7.6908004E-3,-1.631196E-2,2.2432755E-3],"split_indices":[5,6,6,0,0,0,0],"split_type":[0,0,0,0,0,0,0],"sum_hessian":[1.0959504E2,3.8405613E1,7.118942E1,3.01343E1,8.271314E0,2.6686443E1,4.4502983E1],"tree_param":{"num_deleted":"0","num_feature":"15","num_nodes":"7","size_leaf_vector":"1"}},{"base_weights":[-7.723745E-2,-2.7111357E-1,4.3072653E-1,-0E0,-1.122319E-2,-1.6596152E-3,1.3690491E-2],"categories":[],"categories_nodes":[],"categories_segments":[],"categories_sizes":[],"default_left":[0,0,0,0,0,0,0],"id":5,"left_children":[1,3,5,-1,-1,-1,-1],"loss_changes":[1.2077958E1,7.065464E0,5.471284E0,0E0,0E0,0E0,0E0],"parents":[2147483647,0,0,1,1,2,2],"right_children":[2,4,6,-1,-1,-1,-1],"split_conditions":[6.35265E-1,1.2370124E-1,-4.4974324E-1,-0E0,-1.122319E-2,-1.6596152E-3,1.3690491E-2],"split_indices":[13,2,6,0,0,0,0],"split_type":[0,0,0,0,0,0,0],"sum_hessian":[1.0459009E2,8.016021E1,2.4429878E1,4.5911667E1,3.4248547E1,8.778586E0,1.5651291E1],"tree_param":{"num_deleted":"0","num_feature":"15","num_nodes":"7","size_leaf_vector":"1"}},{"base_weights":[5.151408E-2,-2.0538582E-1,5.4940856E-1,-9.010266E-3,1.1051133E-3,-3.2297354E-3,1.6283225E-2],"categories":[],"categories_nodes":[],"categories_segments":[],"categories_sizes":[],"default_left":[0,0,0,0,0,0,0],"id":6,"left_children":[1,3,5,-1,-1,-1,-1],"loss_changes":[1.5195431E1,5.511978E0,9.475484E0,0E0,0E0,0E0,0E0],"parents":[2147483647,0,0,1,1,2,2],"right_children":[2,4,6,-1,-1,-1,-1],"split_conditions":[4.0161464E-1,-1.7479356E-2,-7.9416937E-1,-9.010266E-3,1.1051133E-3,-3.2297354E-3,1.6283225E-2],"split_indices":[13,9,3,0,0,0,0],"split_type":[0,0,0,0,0,0,0],"sum_hessian":[9.916937E1,6.757928E1,3.1590092E1,3.3424587E1,3.4154694E1,8.499947E0,2.3090145E1],"tree_param":{"num_deleted":"0","num_feature":"15","num_nodes":"7","size_leaf_vector":"1"}},{"base_weights":[-4.721115E-2,-4.0427062E-1,2.3493242E-1,2.4569747E-3,-1.2661182E-2,-8.673638E-3,1.2175373E-2],"categories":[],"categories_nodes":[],"categories_segments":[],"categories_sizes":[],"default_left":[0,0,0,0,0,0,0],"id":7,"left_children":[1,3,5,-1,-1,-1,-1],"loss_changes":[1.2467021E1,7.84418E0,1.9442223E1,0E0,0E0,0E0,0E0],"parents":[2147483647,0,0,1,1,2,2],"right_children":[2,4,6,-1,-1,-1,-1],"split_conditions":[-6.738201E-1,-6.602296E-1,-4.0681458E-1,2.4569747E-3,-1.2661182E-2,-8.673638E-3,1.2175373E-2],"split_indices":[6,13,13,0,0,0,0],"split_type":[0,0,0,0,0,0,0],"sum_hessian":[1.0458611E2,4.6009098E1,5.8577015E1,1.38638735E1,3.2145226E1,1.9530518E1,3.9046497E1],"tree_param":{"num_deleted":"0","num_feature":"15","num_nodes":"7","size_leaf_vector":"1"}},{"base_weights":[-0E0,-4.5242736E-1,3.1928074E-1,-1.294091E-2,2.7035114E-3,-4.6846503E-3,9.105252E-3],"categories":[],"categories_nodes":[],"categories_segments":[],"categories_sizes":[],"default_left":[0,0,0,0,0,0,0],"id":8,"left_children":[1,3,5,-1,-1,-1,-1],"loss_changes":[1.697532E1,6.803832E0,6.4395127E0,0E0,0E0,0E0,0E0],"parents":[2147483647,0,0,1,1,2,2],"right_children":[2,4,6,-1,-1,-1,-1],"split_conditions":[-2.721071E-1,8.1776524E-1,-1.235118E0,-1.294091E-2,2.7035114E-3,-4.6846503E-3,9.105252E-3],"split_indices":[4,14,6,0,0,0,0],"split_type":[0,0,0,0,0,0,0],"sum_hessian":[1.000035E2,3.9136314E1,6.0867188E1,2.9993605E1,9.142708E0,9.271387E0,5.15958E1],"tree_param":{"num_deleted":"0","num_feature":"15","num_nodes":"7","size_leaf_vector":"1"}},{"base_weights":[1.775089E-1,1.1442101E-2,-5.219617E-2,-1.2023006E-2,6.1938874E-3],"categories":[],"categories_nodes":[],"categories_segments":[],"categories_sizes":[],"default_left":[0,0,0,0,0],"id":9,"left_children":[1,-1,3,-1,-1],"loss_changes":[1.1338266E1,0E0,1.7901785E1,0E0,0E0],"parents":[2147483647,0,0,2,2],"right_children":[2,-1,4,-1,-1],"split_conditions":[-6.839092E-1,1.1442101E-2,-6.890179E-1,-1.2023006E-2,6.1938874E-3],"split_indices":[5,0,7,0,0],"split_type":[0,0,0,0,0],"sum_hessian":[1.0738918E2,3.6178436E1,7.121075E1,2.702674E1,4.4184013E1],"tree_param":{"num_deleted":"0","num_feature":"15","num_nodes":"5","size_leaf_vector":"1"}},{"base_weights":[3.9816298E-2,-4.769771E-1,2.1692808E-1,-1.3771082E-2,4.347988E-4,-3.3310705E-3,8.286948E-3],"categories":[],"categories_nodes":[],"categories_segments":[],"categories_sizes":[],"default_left":[0,0,0,0,0,0,0],"id":10,"left_children":[1,3,5,-1,-1,-1,-1],"loss_changes":[1.1839213E1,4.232466E0,8.3259535E0,0E0,0E0,0E0,0E0],"parents":[2147483647,0,0,1,1,2,2],"right_children":[2,4,6,-1,-1,-1,-1],"split_conditions":[-8.4730947E-1,8.242722E-1,-6.106412E-1,-1.3771082E-2,4.347988E-4,-3.3310705E-3,8.286948E-3],"split_indices":[10,12,11,0,0,0,0],"split_type":[0,0,0,0,0,0,0],"sum_hessian":[1.1301476E2,2.35154E1,8.949936E1,1.5513289E1,8.0021105E0,2.917313E1,6.032623E1],"tree_param":{"num_deleted":"0","num_feature":"15","num_nodes":"7","size_leaf_vector":"1"}},{"base_weights":[1.4170536E-1,-1.0490946E-2,3.9672256E-1,1.27569875E-2,1.6661233E-3],"categories":[],"categories_nodes":[],"categories_segments":[],"categories_sizes":[],"default_left":[0,0,0,0,0],"id":11,"left_children":[1,-1,3,-1,-1],"loss_changes":[2.055463E1,0E0,5.320385E0,0E0,0E0],"parents":[2147483647,0,0,2,2],"right_children":[2,-1,4,-1,-1],"split_conditions":[-9.065835E-1,-1.0490946E-2,1.18005E-1,1.27569875E-2,1.6661233E-3],"split_indices":[10,0,2,0,0],"split_type":[0,0,0,0,0],"sum_hessian":[1.0170575E2,2.4434692E1,7.727106E1,3.6603313E1,4.0667744E1],"tree_param":{"num_deleted":"0","num_feature":"15","num_nodes":"5","size_leaf_vector":"1"}},{"base_weights":[5.139277E-2,3.449038E-1,-2.4268854E-1,-3.4320846E-3,1.1181391E-2,-7.97226E-3,4.427354E-3],"categories":[],"categories_nodes":[],"categories_segments":[],"categories_sizes":[],"default_left":[0,0,0,0,0,0,0],"id":12,"left_children":[1,3,5,-1,-1,-1,-1],"loss_changes":[1.0106342E1,7.783785E0,5.104162E0,0E0,0E0,0E0,0E0],"parents":[2147483647,0,0,1,1,2,2],"right_children":[2,4,6,-1,-1,-1,-1],"split_conditions":[1.3782482E-1,-6.1661583E-1,6.6884226E-1,-3.4320846E-3,1.1181391E-2,-7.97226E-3,4.427354E-3],"split_indices":[14,11,13,0,0,0,0],"split_type":[0,0,0,0,0,0,0],"sum_hessian":[9.817338E1,5.0057755E1,4.8115623E1,1.3827938E1,3.6229816E1,3.857756E1,9.538062E0],"tree_param":{"num_deleted":"0","num_feature":"15","num_nodes":"7","size_leaf_vector":"1"}},{"base_weights":[-6.2542697E-3,3.3683088E-1,-4.048808E-1,-4.125013E-4,1.0940599E-2,-1.2190622E-2,3.514979E-3],"categories":[],"categories_nodes":[],"categories_segments":[],"categories_sizes":[],"default_left":[0,0,0,0,0,0,0],"id":13,"left_children":[1,3,5,-1,-1,-1,-1],"loss_changes":[1.6308784E1,5.3287435E0,8.077524E0,0E0,0E0,0E0,0E0],"parents":[2147483647,0,0,1,1,2,2],"right_children":[2,4,6,-1,-1,-1,-1],"split_conditions":[1.2370124E-1,-5.9730035E-1,6.35265E-1,-4.125013E-4,1.0940599E-2,-1.2190622E-2,3.514979E-3],"split_indices":[2,13,13,0,0,0,0],"split_type":[0,0,0,0,0,0,0],"sum_hessian":[1.00776505E2,5.356306E1,4.7213448E1,2.107807E1,3.2484993E1,3.5851437E1,1.1362008E1],"tree_param":{"num_deleted":"0","num_feature":"15","num_nodes":"7","size_leaf_vector":"1"}},{"base_weights":[5.425708E-2,-1.0699116E-1,1.36774E-2,2.0700784E-3,-1.4605122E-2],"categories":[],"categories_nodes":[],"categories_segments":[],"categories_sizes":[],"default_left":[0,0,0,0,0],"id":14,"left_children":[1,3,-1,-1,-1],"loss_changes":[1.225876E1,1.3502675E1,0E0,0E0,0E0],"parents":[2147483647,0,0,1,1],"right_children":[2,4,-1,-1,-1],"split_conditions":[1.3001691E0,5.873931E-1,1.36774E-2,2.0700784E-3,-1.4605122E-2],"split_indices":[10,8,0,0,0],"split_type":[0,0,0,0,0],"sum_hessian":[9.9578964E1,8.395886E1,1.5620109E1,6.717336E1,1.67855E1],"tree_param":{"num_deleted":"0","num_feature":"15","num_nodes":"5","size_leaf_vector":"1"}},{"base_weights":[-3.575106E-2,-2.6678392E-1,1.2813986E-2,3.9664963E-3,-8.394796E-3],"categories":[],"categories_nodes":[],"categories_segments":[],"categories_sizes":[],"default_left":[0,0,0,0,0],"id":15,"left_children":[1,3,-1,-1,-1],"loss_changes":[1.7981792E1,7.2075033E0,0E0,0E0,0E0],"parents":[2147483647,0,0,1,1],"right_children":[2,4,-1,-1,-1],"split_conditions":[6.6884226E-1,-8.8264054E-1,1.2813986E-2,3.9664963E-3,-8.394796E-3],"split_indices":[13,13,0,0,0],"split_type":[0,0,0,0,0],"sum_hessian":[9.860883E1,7.86692E1,1.993963E1,1.7190107E1,6.147909E1],"tree_param":{"num_deleted":"0","num_feature":"15","num_nodes":"5","size_leaf_vector":"1"}},{"base_weights":[2.9942393E-2,-2.3615508E-1,2.5422573E-1,6.05705E-3,-1.4306456E-2,1.4343063E-2,-8.470962E-4],"categories":[],"categories_nodes":[],"categories_segments":[],"categories_sizes":[],"default_left":[0,0,0,0,0,0,0],"id":16,"left_children":[1,3,5,-1,-1,-1,-1],"loss_changes":[6.7761574E0,1.53473E1,9.584946E0,0E0,0E0,0E0,0E0],"parents":[2147483647,0,0,1,1,2,2],"right_children":[2,4,6,-1,-1,-1,-1],"split_conditions":[-6.7083126E-1,1.2370124E-1,-2.231261E-1,6.05705E-3,-1.4306456E-2,1.4343063E-2,-8.470962E-4],"split_indices":[6,2,6,0,0,0,0],"split_type":[0,0,0,0,0,0,0],"sum_hessian":[9.5182785E1,4.1276222E1,5.3906567E1,2.0001535E1,2.1274685E1,1.7382942E1,3.6523624E1],"tree_param":{"num_deleted":"0","num_feature":"15","num_nodes":"7","size_leaf_vector":"1"}},{"base_weights":[-1.2647283E-2,-5.9610456E-1,2.0335326E-1,-1.6676193E-2,-2.0734274E-3,1.1162683E-2,-3.2554504E-3],"categories":[],"categories_nodes":[],"categories_segments":[],"categories_sizes":[],"default_left":[0,0,0,0,0,0,0],"id":17,"left_children":[1,3,5,-1,-1,-1,-1],"loss_changes":[1.4638464E1,2.00006E0,1.1817356E1,0E0,0E0,0E0,0E0],"parents":[2147483647,0,0,1,1,2,2],"right_children":[2,4,6,-1,-1,-1,-1],"split_conditions":[-9.065835E-1,3.1254306E-2,1.2370124E-1,-1.6676193E-2,-2.0734274E-3,1.1162683E-2,-3.2554504E-3],"split_indices":[10,6,2,0,0,0,0],"split_type":[0,0,0,0,0,0,0],"sum_hessian":[9.53802E1,2.2741962E1,7.2638245E1,9.760492E0,1.298147E1,3.588073E1,3.6757515E1],"tree_param":{"num_deleted":"0","num_feature":"15","num_nodes":"7","size_leaf_vector":"1"}},{"base_weights":[2.1923978E-2,-1.41095E-1,4.3518323E-1,2.9209196E-3,-9.891373E-3,-1.4498532E-4,1.3658278E-2],"categories":[],"categories_nodes":[],"categories_segments":[],"categories_sizes":[],"default_left":[0,0,0,0,0,0,0],"id":18,"left_children":[1,3,5,-1,-1,-1,-1],"loss_changes":[8.316817E0,9.582939E0,4.5898767E0,0E0,0E0,0E0,0E0],"parents":[2147483647,0,0,1,1,2,2],"right_children":[2,4,6,-1,-1,-1,-1],"split_conditions":[5.6798893E-1,-4.226988E-1,-1.5989585E-1,2.9209196E-3,-9.891373E-3,-1.4498532E-4,1.3658278E-2],"split_indices":[13,5,6,0,0,0,0],"split_type":[0,0,0,0,0,0,0],"sum_hessian":[1.01883316E2,7.557755E1,2.6305758E1,4.305478E1,3.2522774E1,1.1129363E1,1.5176394E1],"tree_param":{"num_deleted":"0","num_feature":"15","num_nodes":"7","size_leaf_vector":"1"}},{"base_weights":[-3.160738E-2,-5.1755685E-1,1.3419953E-1,-1.4666253E-2,-0E0,9.357622E-3,-3.460148E-3],"categories":[],"categories_nodes":[],"categories_segments":[],"categories_sizes":[],"default_left":[0,0,0,0,0,0,0],"id":19,"left_children":[1,3,5,-1,-1,-1,-1],"loss_changes":[9.751835E0,2.882411E0,9.8925495E0,0E0,0E0,0E0,0E0],"parents":[2147483647,0,0,1,1,2,2],"right_children":[2,4,6,-1,-1,-1,-1],"split_conditions":[-8.4730947E-1,1.3800436E-1,1.535943E-1,-1.4666253E-2,-0E0,9.357622E-3,-3.460148E-3],"split_indices":[10,6,0,0,0,0,0],"split_type":[0,0,0,0,0,0,0],"sum_hessian":[9.9513885E1,2.1993404E1,7.7520485E1,1.1798723E1,1.0194681E1,3.646307E1,4.1057415E1],"tree_param":{"num_deleted":"0","num_feature":"15","num_nodes":"7","size_leaf_vector":"1"}},{"base_weights":[-8.115461E-2,1.5737288E-1,-1.0227195E-2,-4.1973065E-3,7.897669E-3],"categories":[],"categories_nodes":[],"categories_segments":[],"categories_sizes":[],"default_left":[0,0,0,0,0],"id":20,"left_children":[1,3,-1,-1,-1],"loss_changes":[1.2659496E1,7.7335E0,0E0,0E0,0E0],"parents":[2147483647,0,0,1,1],"right_children":[2,4,-1,-1,-1],"split_conditions":[8.052545E-1,-7.4919425E-2,-1.0227195E-2,-4.1973065E-3,7.897669E-3],"split_indices":[14,3,0,0,0],"split_type":[0,0,0,0,0],"sum_hessian":[1.0386029E2,6.899128E1,3.4869007E1,2.5853659E1,4.3137623E1],"tree_param":{"num_deleted":"0","num_feature":"15","num_nodes":"5","size_leaf_vector":"1"}},{"base_weights":[-2.2060776E-3,-3.3699974E-1,2.230321E-1,1.2151944E-3,-1.2066134E-2,-5.2960874E-3,9.66168E-3],"categories":[],"categories_nodes":[],"categories_segments":[],"categories_sizes":[],"default_left":[0,0,0,0,0,0,0],"id":21,"left_children":[1,3,5,-1,-1,-1,-1],"loss_changes":[9.03432E0,6.098687E0,1.0121215E1,0E0,0E0,0E0,0E0],"parents":[2147483647,0,0,1,1,2,2],"right_children":[2,4,6,-1,-1,-1,-1],"split_conditions":[-4.073919E-1,-2.1209419E-1,-6.738201E-1,1.2151944E-3,-1.2066134E-2,-5.2960874E-3,9.66168E-3],"split_indices":[13,1,6,0,0,0,0],"split_type":[0,0,0,0,0,0,0],"sum_hessian":[1.0032343E2,4.0338444E1,5.9984993E1,1.7456587E1,2.2881857E1,1.9463387E1,4.0521606E1],"tree_param":{"num_deleted":"0","num_feature":"15","num_nodes":"7","size_leaf_vector":"1"}},{"base_weights":[-8.157769E-2,2.8602666E-1,-2.752021E-1,-1.5233888E-3,1.1323583E-2,1.3692504E-3,-1.0086384E-2],"categories":[],"categories_nodes":[],"categories_segments":[],"categories_sizes":[],"default_left":[0,0,0,0,0,0,0],"id":22,"left_children":[1,3,5,-1,-1,-1,-1],"loss_changes":[8.143714E0,4.8073883E0,6.6434293E0,0E0,0E0,0E0,0E0],"parents":[2147483647,0,0,1,1,2,2],"right_children":[2,4,6,-1,-1,-1,-1],"split_conditions":[-6.7943627E-1,1.9774309E-1,-2.6533112E-1,-1.5233888E-3,1.1323583E-2,1.3692504E-3,-1.0086384E-2],"split_indices":[14,9,1,0,0,0,0],"split_type":[0,0,0,0,0,0,0],"sum_hessian":[9.5613625E1,2.9723198E1,6.589043E1,1.42646475E1,1.54585495E1,2.7135145E1,3.8755283E1],"tree_param":{"num_deleted":"0","num_feature":"15","num_nodes":"7","size_leaf_vector":"1"}},{"base_weights":[-4.2476818E-2,-2.3737936E-1,4.526802E-1,3.984504E-3,-1.0417866E-2,-8.89106E-4,1.6308933E-2],"categories":[],"categories_nodes":[],"categories_segments":[],"categories_sizes":[],"default_left":[0,0,0,0,0,0,0],"id":23,"left_children":[1,3,5,-1,-1,-1,-1],"loss_changes":[1.1187679E1,1.1770615E1,6.902338E0,0E0,0E0,0E0,0E0],"parents":[2147483647,0,0,1,1,2,2],"right_children":[2,4,6,-1,-1,-1,-1],"split_conditions":[6.35265E-1,-6.839092E-1,-3.5963276E-1,3.984504E-3,-1.0417866E-2,-8.89106E-4,1.6308933E-2],"split_indices":[13,5,7,0,0,0,0],"split_type":[0,0,0,0,0,0,0],"sum_hessian":[9.913545E1,7.59465E1,2.3188942E1,2.9565258E1,4.638125E1,1.195133E1,1.1237613E1],"tree_param":{"num_deleted":"0","num_feature":"15","num_nodes":"7","size_leaf_vector":"1"}},{"base_weights":[-0E0,-1.2898913E-1,1.4416369E-2,3.3819936E-3,-7.387028E-3],"categories":[],"categories_nodes":[],"categories_segments":[],"categories_sizes":[],"default_left":[0,0,0,0,0],"id":24,"left_children":[1,3,-1,-1,-1],"loss_changes":[1.1405634E1,8.244839E0,0E0,0E0,0E0],"parents":[2147483647,0,0,1,1],"right_children":[2,4,-1,-1,-1],"split_conditions":[1.5603987E0,-2.3477627E-1,1.4416369E-2,3.3819936E-3,-7.387028E-3],"split_indices":[10,1,0,0,0],"split_type":[0,0,0,0,0],"sum_hessian":[1.0503939E2,9.5431885E1,9.607509E0,4.1934334E1,5.349755E1],"tree_param":{"num_deleted":"0","num_feature":"15","num_nodes":"5","size_leaf_vector":"1"}},{"base_weights":[-0E0,4.1490084E-1,-2.4302086E-1,-2.8122982E-3,1.4004815E-2,1.0566332E-2,-8.940435E-3],"categories":[],"categories_nodes":[],"categories_segments":[],"categories_sizes":[],"default_left":[0,0,0,0,0,0,0],"id":25,"left_children":[1,3,5,-1,-1,-1,-1],"loss_changes":[1.1490394E1,8.082933E0,1.3454189E1,0E0,0E0,0E0,0E0],"parents":[2147483647,0,0,1,1,2,2],"right_children":[2,4,6,-1,-1,-1,-1],"split_conditions":[-6.839092E-1,-1.0501692E0,-1.5188434E0,-2.8122982E-3,1.4004815E-2,1.0566332E-2,-8.940435E-3],"split_indices":[5,5,14,0,0,0,0],"split_type":[0,0,0,0,0,0,0],"sum_hessian":[9.63834E1,3.2871765E1,6.351163E1,1.1514643E1,2.1357122E1,9.266108E0,5.4245525E1],"tree_param":{"num_deleted":"0","num_feature":"15","num_nodes":"7","size_leaf_vector":"1"}},{"base_weights":[4.8783764E-2,-1.1019775E-1,4.2487365E-1,2.8969322E-3,-8.609142E-3,-6.303273E-4,1.4188995E-2],"categories":[],"categories_nodes":[],"categories_segments":[],"categories_sizes":[],"default_left":[0,0,0,0,0,0,0],"id":26,"left_children":[1,3,5,-1,-1,-1,-1],"loss_changes":[7.250575E0,7.5330386E0,5.567122E0,0E0,0E0,0E0,0E0],"parents":[2147483647,0,0,1,1,2,2],"right_children":[2,4,6,-1,-1,-1,-1],"split_conditions":[4.7252974E-1,-4.12138E-1,1.17018975E-1,2.8969322E-3,-8.609142E-3,-6.303273E-4,1.4188995E-2],"split_indices":[13,5,14,0,0,0,0],"split_type":[0,0,0,0,0,0,0],"sum_hessian":[9.99542E1,7.285905E1,2.7095152E1,4.1565014E1,3.1294035E1,1.2130339E1,1.4964812E1],"tree_param":{"num_deleted":"0","num_feature":"15","num_nodes":"7","size_leaf_vector":"1"}},{"base_weights":[-2.337667E-2,-6.227925E-1,2.9513258E-1,-7.587007E-4,-1.7172055E-2,-6.1971573E-3,9.511402E-3],"categories":[],"categories_nodes":[],"categories_segments":[],"categories_sizes":[],"default_left":[0,0,0,0,0,0,0],"id":27,"left_children":[1,3,5,-1,-1,-1,-1],"loss_changes":[2.3758076E1,4.8179703E0,1.0170294E1,0E0,0E0,0E0,0E0],"parents":[2147483647,0,0,1,1,2,2],"right_children":[2,4,6,-1,-1,-1,-1],"split_conditions":[-6.934802E-1,-5.5121154E-1,-1.0188068E0,-7.587007E-4,-1.7172055E-2,-6.1971573E-3,9.511402E-3],"split_indices":[7,5,9,0,0,0,0],"split_type":[0,0,0,0,0,0,0],"sum_hessian":[1.050594E2,3.4560383E1,7.0499016E1,1.4151162E1,2.040922E1,1.3439662E1,5.7059357E1],"tree_param":{"num_deleted":"0","num_feature":"15","num_nodes":"7","size_leaf_vector":"1"}},{"base_weights":[7.800566E-2,-2.030359E-1,2.9247096E-1,-1.1996589E-2,1.0265377E-4,-2.1519733E-3,1.565437E-2],"categories":[],"categories_nodes":[],"categories_segments":[],"categories_sizes":[],"default_left":[0,0,0,0,0,0,0],"id":28,"left_children":[1,3,5,-1,-1,-1,-1],"loss_changes":[7.258205E0,4.829604E0,1.4796726E1,0E0,0E0,0E0,0E0],"parents":[2147483647,0,0,1,1,2,2],"right_children":[2,4,6,-1,-1,-1,-1],"split_conditions":[-6.065906E-1,-2.6913676E-1,7.150075E-2,-1.1996589E-2,1.0265377E-4,-2.1519733E-3,1.565437E-2],"split_indices":[6,3,12,0,0,0,0],"split_type":[0,0,0,0,0,0,0],"sum_hessian":[1.01070145E2,4.1934647E1,5.91355E1,1.0256062E1,3.1678585E1,3.5307503E1,2.3828E1],"tree_param":{"num_deleted":"0","num_feature":"15","num_nodes":"7","size_leaf_vector":"1"}},{"base_weights":[3.4716446E-2,-1.11848535E-2,1.7046298E-1,8.444495E-3,-2.2284277E-3],"categories":[],"categories_nodes":[],"categories_segments":[],"categories_sizes":[],"default_left":[0,0,0,0,0],"id":29,"left_children":[1,-1,3,-1,-1],"loss_changes":[9.783926E0,0E0,7.994483E0,0E0,0E0],"parents":[2147483647,0,0,2,2],"right_children":[2,-1,4,-1,-1],"split_conditions":[-1.3184196E0,-1.11848535E-2,1.18005E-1,8.444495E-3,-2.2284277E-3],"split_indices":[10,0,2,0,0],"split_type":[0,0,0,0,0],"sum_hessian":[1.0652744E2,1.3223505E1,9.330394E1,4.879237E1,4.451157E1],"tree_param":{"num_deleted":"0","num_feature":"15","num_nodes":"5","size_leaf_vector":"1"}},{"base_weights":[5.0500307E-2,-1.1509896E-2,2.2810099E-1,-2.145038E-3,8.00259E-3],"categories":[],"categories_nodes":[],"categories_segments":[],"categories_sizes":[],"default_left":[0,0,0,0,0],"id":30,"left_children":[1,-1,3,-1,-1],"loss_changes":[1.2615868E1,0E0,5.885209E0,0E0,0E0],"parents":[2147483647,0,0,2,2],"right_children":[2,-1,4,-1,-1],"split_conditions":[-8.4730947E-1,-1.1509896E-2,-6.0665685E-1,-2.145038E-3,8.00259E-3],"split_indices":[10,0,13,0,0],"split_type":[0,0,0,0,0],"sum_hessian":[9.697341E1,1.5731164E1,8.124225E1,2.6723434E1,5.4518814E1],"tree_param":{"num_deleted":"0","num_feature":"15","num_nodes":"5","size_leaf_vector":"1"}},{"base_weights":[8.672273E-3,1.1231712E-2,-1.08351566E-1,1.813119E-3,-6.6465633E-3],"categories":[],"categories_nodes":[],"categories_segments":[],"categories_sizes":[],"default_left":[0,0,0,0,0],"id":31,"left_children":[1,-1,3,-1,-1],"loss_changes":[7.5907335E0,0E0,4.529187E0,0E0,0E0],"parents":[2147483647,0,0,2,2],"right_children":[2,-1,4,-1,-1],"split_conditions":[-1.5247437E0,1.1231712E-2,1.2370124E-1,1.813119E-3,-6.6465633E-3],"split_indices":[14,0,2,0,0],"split_type":[0,0,0,0,0],"sum_hessian":[9.2846214E1,1.173866E1,8.110756E1,4.3420265E1,3.7687294E1],"tree_param":{"num_deleted":"0","num_feature":"15","num_nodes":"5","size_leaf_vector":"1"}},{"base_weights":[1.8434281E-3,-3.4941587E-1,2.8300393E-1,-1.7488768E-2,4.506725E-4,1.3464685E-2,-3.7762418E-3],"categories":[],"categories_nodes":[],"categories_segments":[],"categories_sizes":[],"default_left":[0,0,0,0,0,0,0],"id":32,"left_children":[1,3,5,-1,-1,-1,-1],"loss_changes":[1.2128263E1,1.1444687E1,1.4540699E1,0E0,0E0,0E0,0E0],"parents":[2147483647,0,0,1,1,2,2],"right_children":[2,4,6,-1,-1,-1,-1],"split_conditions":[-1.5289734E-1,-6.311068E-1,1.3782482E-1,-1.7488768E-2,4.506725E-4,1.3464685E-2,-3.7762418E-3],"split_indices":[4,7,14,0,0,0,0],"split_type":[0,0,0,0,0,0,0],"sum_hessian":[1.0546612E2,4.4335438E1,6.1130684E1,1.4457688E1,2.9877748E1,3.2515274E1,2.861541E1],"tree_param":{"num_deleted":"0","num_feature":"15","num_nodes":"7","size_leaf_vector":"1"}},{"base_weights":[-2.2103455E-2,-4.441756E-1,2.220553E-1,9.889277E-4,-1.4461735E-2,-7.850744E-3,1.1073161E-2],"categories":[],"categories_nodes":[],"categories_segments":[],"categories_sizes":[],"default_left":[0,0,0,0,0,0,0],"id":33,"left_children":[1,3,5,-1,-1,-1,-1],"loss_changes":[1.2573285E1,7.227683E0,1.7396393E1,0E0,0E0,0E0,0E0],"parents":[2147483647,0,0,1,1,2,2],"right_children":[2,4,6,-1,-1,-1,-1],"split_conditions":[-5.145204E-1,-2.480112E-1,-7.5387996E-1,9.889277E-4,-1.4461735E-2,-7.850744E-3,1.1073161E-2],"split_indices":[13,1,6,0,0,0,0],"split_type":[0,0,0,0,0,0,0],"sum_hessian":[1.02239105E2,3.6267338E1,6.597177E1,1.4472583E1,2.1794756E1,2.1483948E1,4.448782E1],"tree_param":{"num_deleted":"0","num_feature":"15","num_nodes":"7","size_leaf_vector":"1"}},{"base_weights":[1.1538528E-1,-1.6743466E-1,5.130878E-1,4.197364E-3,-1.256211E-2,-1.2338815E-3,1.6850192E-2],"categories":[],"categories_nodes":[],"categories_segments":[],"categories_sizes":[],"default_left":[0,0,0,0,0,0,0],"id":34,"left_children":[1,3,5,-1,-1,-1,-1],"loss_changes":[1.34482355E1,1.3663126E1,1.0571877E1,0E0,0E0,0E0,0E0],"parents":[2147483647,0,0,1,1,2,2],"right_children":[2,4,6,-1,-1,-1,-1],"split_conditions":[1.5215684E-2,1.18005E-1,-4.3039432E-1,4.197364E-3,-1.256211E-2,-1.2338815E-3,1.6850192E-2],"split_indices":[13,2,7,0,0,0,0],"split_type":[0,0,0,0,0,0,0],"sum_hessian":[1.00615944E2,6.0376587E1,4.0239357E1,3.4691967E1,2.568462E1,1.6218992E1,2.4020363E1],"tree_param":{"num_deleted":"0","num_feature":"15","num_nodes":"7","size_leaf_vector":"1"}},{"base_weights":[-2.0800142E-3,-1.2509848E-1,9.974854E-3,1.8734752E-3,-1.2886673E-2],"categories":[],"categories_nodes":[],"categories_segments":[],"categories_sizes":[],"default_left":[0,0,0,0,0],"id":35,"left_children":[1,3,-1,-1,-1],"loss_changes":[6.9994345E0,1.2175563E1,0E0,0E0,0E0],"parents":[2147483647,0,0,1,1],"right_children":[2,4,-1,-1,-1],"split_conditions":[1.3386617E0,4.943815E-1,9.974854E-3,1.8734752E-3,-1.2886673E-2],"split_indices":[10,3,0,0,0],"split_type":[0,0,0,0,0],"sum_hessian":[1.01558395E2,8.855502E1,1.3003373E1,6.613882E1,2.2416204E1],"tree_param":{"num_deleted":"0","num_feature":"15","num_nodes":"5","size_leaf_vector":"1"}},{"base_weights":[2.339017E-2,-3.1305528E-1,3.0217585E-1,4.374933E-3,-1.2435183E-2,-4.053879E-3,8.727174E-3],"categories":[],"categories_nodes":[],"categories_segments":[],"categories_sizes":[],"default_left":[0,0,0,0,0,0,0],"id":36,"left_children":[1,3,5,-1,-1,-1,-1],"loss_changes":[1.0854051E1,1.0027887E1,5.4051304E0,0E0,0E0,0E0,0E0],"parents":[2147483647,0,0,1,1,2,2],"right_children":[2,4,6,-1,-1,-1,-1],"split_conditions":[-4.0681458E-1,-8.8718104E-1,-1.0241237E0,4.374933E-3,-1.2435183E-2,-4.053879E-3,8.727174E-3],"split_indices":[13,13,3,0,0,0,0],"split_type":[0,0,0,0,0,0,0],"sum_hessian":[9.775862E1,4.2171593E1,5.5587025E1,1.5262415E1,2.6909178E1,9.14201E0,4.6445015E1],"tree_param":{"num_deleted":"0","num_feature":"15","num_nodes":"7","size_leaf_vector":"1"}},{"base_weights":[1.371788E-1,-2.2796398E-2,1.6562486E-2,2.9405525E-3,-9.17085E-3],"categories":[],"categories_nodes":[],"categories_segments":[],"categories_sizes":[],"default_left":[0,0,0,0,0],"id":37,"left_children":[1,3,-1,-1,-1],"loss_changes":[1.2996714E1,8.0145235E0,0E0,0E0,0E0],"parents":[2147483647,0,0,1,1],"right_children":[2,4,-1,-1,-1],"split_conditions":[1.342265E0,6.814601E-1,1.6562486E-2,2.9405525E-3,-9.17085E-3],"split_indices":[10,10,0,0,0],"split_type":[0,0,0,0,0],"sum_hessian":[9.975807E1,8.689498E1,1.2863096E1,6.516605E1,2.1728928E1],"tree_param":{"num_deleted":"0","num_feature":"15","num_nodes":"5","size_leaf_vector":"1"}},{"base_weights":[-0E0,-4.0868628E-1,1.2813744E-1,-1.1993263E-2,-0E0,-3.267416E-3,6.3017076E-3],"categories":[],"categories_nodes":[],"categories_segments":[],"categories_sizes":[],"default_left":[0,0,0,0,0,0,0],"id":38,"left_children":[1,3,5,-1,-1,-1,-1],"loss_changes":[6.489501E0,2.1777697E0,5.770607E0,0E0,0E0,0E0,0E0],"parents":[2147483647,0,0,1,1,2,2],"right_children":[2,4,6,-1,-1,-1,-1],"split_conditions":[-8.24398E-1,7.034755E-2,-5.391807E-1,-1.1993263E-2,-0E0,-3.267416E-3,6.3017076E-3],"split_indices":[10,11,13,0,0,0,0],"split_type":[0,0,0,0,0,0,0],"sum_hessian":[1.06157455E2,2.0553646E1,8.560381E1,1.0783181E1,9.770465E0,3.1801552E1,5.3802258E1],"tree_param":{"num_deleted":"0","num_feature":"15","num_nodes":"7","size_leaf_vector":"1"}},{"base_weights":[-5.4733653E-2,-2.973777E-1,2.7066723E-1,-1.00418115E-2,1.2965332E-3,1.4380328E-2,-1.0737599E-4],"categories":[],"categories_nodes":[],"categories_segments":[],"categories_sizes":[],"default_left":[0,0,0,0,0,0,0],"id":39,"left_children":[1,3,5,-1,-1,-1,-1],"loss_changes":[8.665989E0,5.4365573E0,6.412999E0,0E0,0E0,0E0,0E0],"parents":[2147483647,0,0,1,1,2,2],"right_children":[2,4,6,-1,-1,-1,-1],"split_conditions":[8.327542E-2,4.3873793E-1,-5.5112803E-1,-1.00418115E-2,1.2965332E-3,1.4380328E-2,-1.0737599E-4],"split_indices":[13,8,5,0,0,0,0],"split_type":[0,0,0,0,0,0,0],"sum_hessian":[9.124324E1,5.447252E1,3.677072E1,3.4345768E1,2.0126749E1,9.888688E0,2.6882034E1],"tree_param":{"num_deleted":"0","num_feature":"15","num_nodes":"7","size_leaf_vector":"1"}},{"base_weights":[5.8359526E-2,-3.1250075E-1,2.823079E-1,2.2738287E-3,-1.2712527E-2,1.1043822E-2,-6.9972374E-3],"categories":[],"categories_nodes":[],"categories_segments":[],"categories_sizes":[],"default_left":[0,0,0,0,0,0,0],"id":40,"left_children":[1,3,5,-1,-1,-1,-1],"loss_changes":[9.916453E0,7.242999E0,1.4757409E1,0E0,0E0,0E0,0E0],"parents":[2147483647,0,0,1,1,2,2],"right_children":[2,4,6,-1,-1,-1,-1],"split_conditions":[-2.3822387E-1,-8.618365E-1,8.05721E-1,2.2738287E-3,-1.2712527E-2,1.1043822E-2,-6.9972374E-3],"split_indices":[4,4,14,0,0,0,0],"split_type":[0,0,0,0,0,0,0],"sum_hessian":[1.0120182E2,3.508189E1,6.611993E1,1.630919E1,1.8772701E1,4.82442E1,1.7875727E1],"tree_param":{"num_deleted":"0","num_feature":"15","num_nodes":"7","size_leaf_vector":"1"}},{"base_weights":[9.295846E-2,-5.104186E-2,1.4209752E-2,2.676479E-3,-1.3336693E-2],"categories":[],"categories_nodes":[],"categories_segments":[],"categories_sizes":[],"default_left":[0,0,0,0,0],"id":41,"left_children":[1,3,-1,-1,-1],"loss_changes":[1.0785852E1,1.2316001E1,0E0,0E0,0E0],"parents":[2147483647,0,0,1,1],"right_children":[2,4,-1,-1,-1],"split_conditions":[1.3001691E0,4.602662E-1,1.4209752E-2,2.676479E-3,-1.3336693E-2],"split_indices":[10,2,0,0,0],"split_type":[0,0,0,0,0],"sum_hessian":[1.01206276E2,8.74506E1,1.3755673E1,7.142766E1,1.6022943E1],"tree_param":{"num_deleted":"0","num_feature":"15","num_nodes":"5","size_leaf_vector":"1"}},{"base_weights":[-0E0,-3.9439288E-1,1.7904516E-1,-1.6138386E-2,-0E0,1.21188145E-2,-4.9179685E-3],"categories":[],"categories_nodes":[],"categories_segments":[],"categories_sizes":[],"default_left":[0,0,0,0,0,0,0],"id":42,"left_children":[1,3,5,-1,-1,-1,-1],"loss_changes":[9.198137E0,7.089069E0,1.730342E1,0E0,0E0,0E0,0E0],"parents":[2147483647,0,0,1,1,2,2],"right_children":[2,4,6,-1,-1,-1,-1],"split_conditions":[-3.5464567E-1,-5.361084E-1,4.2578298E-1,-1.6138386E-2,-0E0,1.21188145E-2,-4.9179685E-3],"split_indices":[4,7,3,0,0,0,0],"split_type":[0,0,0,0,0,0,0],"sum_hessian":[1.0941665E2,3.2408855E1,7.70078E1,1.1779681E1,2.0629173E1,3.767729E1,3.93305E1],"tree_param":{"num_deleted":"0","num_feature":"15","num_nodes":"7","size_leaf_vector":"1"}},{"base_weights":[7.827062E-2,-2.2498623E-1,3.3649215E-1,1.1726574E-3,-1.2575675E-2,1.4445262E-2,-0E0],"categories":[],"categories_nodes":[],"categories_segments":[],"categories_sizes":[],"default_left":[0,0,0,0,0,0,0],"id":43,"left_children":[1,3,5,-1,-1,-1,-1],"loss_changes":[8.764974E0,6.677721E0,7.7844744E0,0E0,0E0,0E0,0E0],"parents":[2147483647,0,0,1,1,2,2],"right_children":[2,4,6,-1,-1,-1,-1],"split_conditions":[-5.9474826E-1,2.6261383E-1,-1.8307799E-1,1.1726574E-3,-1.2575675E-2,1.4445262E-2,-0E0],"split_indices":[6,4,6,0,0,0,0],"split_type":[0,0,0,0,0,0,0],"sum_hessian":[9.280528E1,4.143248E1,5.1372807E1,2.7402327E1,1.4030151E1,1.902629E1,3.2346516E1],"tree_param":{"num_deleted":"0","num_feature":"15","num_nodes":"7","size_leaf_vector":"1"}},{"base_weights":[-1.4747434E-2,-3.4855914E-1,1.8443641E-1,2.4450559E-3,-1.6326897E-2,7.3843217E-3,-3.1227814E-3],"categories":[],"categories_nodes":[],"categories_segments":[],"categories_sizes":[],"default_left":[0,0,0,0,0,0,0],"id":44,"left_children":[1,3,5,-1,-1,-1,-1],"loss_changes":[7.266942E0,1.0767456E1,4.8516455E0,0E0,0E0,0E0,0E0],"parents":[2147483647,0,0,1,1,2,2],"right_children":[2,4,6,-1,-1,-1,-1],"split_conditions":[-7.1975076E-1,-1.1288913E0,6.5433955E-1,2.4450559E-3,-1.6326897E-2,7.3843217E-3,-3.1227814E-3],"split_indices":[7,7,10,0,0,0,0],"split_type":[0,0,0,0,0,0,0],"sum_hessian":[8.9123726E1,3.265999E1,5.6463737E1,1.8525162E1,1.4134828E1,3.8016945E1,1.8446793E1],"tree_param":{"num_deleted":"0","num_feature":"15","num_nodes":"7","size_leaf_vector":"1"}},{"base_weights":[-2.1735972E-2,-4.1025883E-1,2.1350169E-1,-1.1616457E-2,-0E0,1.1325147E-2,-6.6751116E-3],"categories":[],"categories_nodes":[],"categories_segments":[],"categories_sizes":[],"default_left":[0,0,0,0,0,0,0],"id":45,"left_children":[1,3,5,-1,-1,-1,-1],"loss_changes":[1.0424559E1,3.2534442E0,1.5185744E1,0E0,0E0,0E0,0E0],"parents":[2147483647,0,0,1,1,2,2],"right_children":[2,4,6,-1,-1,-1,-1],"split_conditions":[-2.1880876E-1,4.5810238E-1,1.4861959E-1,-1.1616457E-2,-0E0,1.1325147E-2,-6.6751116E-3],"split_indices":[4,13,14,0,0,0,0],"split_type":[0,0,0,0,0,0,0],"sum_hessian":[9.428203E1,3.4634277E1,5.964775E1,2.2413862E1,1.2220414E1,3.7190205E1,2.2457548E1],"tree_param":{"num_deleted":"0","num_feature":"15","num_nodes":"7","size_leaf_vector":"1"}},{"base_weights":[-0E0,-3.283657E-1,1.8498796E-1,-1.172624E-2,-0E0,-6.4692516E-3,6.127139E-3],"categories":[],"categories_nodes":[],"categories_segments":[],"categories_sizes":[],"default_left":[0,0,0,0,0,0,0],"id":46,"left_children":[1,3,5,-1,-1,-1,-1],"loss_changes":[7.1986737E0,4.0727367E0,5.5033326E0,0E0,0E0,0E0,0E0],"parents":[2147483647,0,0,1,1,2,2],"right_children":[2,4,6,-1,-1,-1,-1],"split_conditions":[-5.989673E-1,-6.934802E-1,-1.2642326E0,-1.172624E-2,-0E0,-6.4692516E-3,6.127139E-3],"split_indices":[11,7,3,0,0,0,0],"split_type":[0,0,0,0,0,0,0],"sum_hessian":[9.996368E1,3.3958454E1,6.6005226E1,1.6321869E1,1.7636585E1,8.243864E0,5.776136E1],"tree_param":{"num_deleted":"0","num_feature":"15","num_nodes":"7","size_leaf_vector":"1"}},{"base_weights":[-8.1282325E-2,-2.3057474E-1,1.0122512E-2,3.977656E-3,-9.050484E-3],"categories":[],"categories_nodes":[],"categories_segments":[],"categories_sizes":[],"default_left":[0,0,0,0,0],"id":47,"left_children":[1,3,-1,-1,-1],"loss_changes":[1.00210085E1,9.795695E0,0E0,0E0,0E0],"parents":[2147483647,0,0,1,1],"right_children":[2,4,-1,-1,-1],"split_conditions":[1.2856119E0,-6.839092E-1,1.0122512E-2,3.977656E-3,-9.050484E-3],"split_indices":[8,5,0,0,0],"split_type":[0,0,0,0,0],"sum_hessian":[9.6435936E1,8.2609886E1,1.382605E1,2.693066E1,5.5679226E1],"tree_param":{"num_deleted":"0","num_feature":"15","num_nodes":"5","size_leaf_vector":"1"}},{"base_weights":[-1.083221E-1,-4.3893993E-1,1.5106851E-1,-1.2879827E-2,-0E0,-5.199771E-3,7.0123416E-3],"categories":[],"categories_nodes":[],"categories_segments":[],"categories_sizes":[],"default_left":[0,0,0,0,0,0,0],"id":48,"left_children":[1,3,5,-1,-1,-1,-1],"loss_changes":[9.976316E0,5.02798E0,6.1940527E0,0E0,0E0,0E0,0E0],"parents":[2147483647,0,0,1,1,2,2],"right_children":[2,4,6,-1,-1,-1,-1],"split_conditions":[-4.0681458E-1,4.331071E-1,-7.5387996E-1,-1.2879827E-2,-0E0,-5.199771E-3,7.0123416E-3],"split_indices":[13,8,6,0,0,0,0],"split_type":[0,0,0,0,0,0,0],"sum_hessian":[9.701381E1,4.160708E1,5.540673E1,2.6634125E1,1.4972953E1,1.5578589E1,3.9828144E1],"tree_param":{"num_deleted":"0","num_feature":"15","num_nodes":"7","size_leaf_vector":"1"}},{"base_weights":[6.452119E-2,-3.0344102E-1,2.9655674E-1,-9.985641E-3,4.0968503E-3,9.054845E-3,-8.2402123E-4],"categories":[],"categories_nodes":[],"categories_segments":[],"categories_sizes":[],"default_left":[0,0,0,0,0,0,0],"id":49,"left_children":[1,3,5,-1,-1,-1,-1],"loss_changes":[1.0093257E1,5.680556E0,4.4276743E0,0E0,0E0,0E0,0E0],"parents":[2147483647,0,0,1,1,2,2],"right_children":[2,4,6,-1,-1,-1,-1],"split_conditions":[-9.623159E-2,8.18799E-1,6.978837E-1,-9.985641E-3,4.0968503E-3,9.054845E-3,-8.2402123E-4],"split_indices":[9,14,4,0,0,0,0],"split_type":[0,0,0,0,0,0,0],"sum_hessian":[9.9810265E1,3.5861603E1,6.3948658E1,2.742253E1,8.439074E0,4.3657433E1,2.0291224E1],"tree_param":{"num_deleted":"0","num_feature":"15","num_nodes":"7","size_leaf_vector":"1"}},{"base_weights":[2.5276346E-2,-3.4235704E-1,3.3432359E-1,2.3490267E-3,-1.082449E-2,-3.438523E-3,1.1214982E-2],"categories":[],"categories_nodes":[],"categories_segments":[],"categories_sizes":[],"default_left":[0,0,0,0,0,0,0],"id":50,"left_children":[1,3,5,-1,-1,-1,-1],"loss_changes":[1.2735958E1,5.573035E0,8.368528E0,0E0,0E0,0E0,0E0],"parents":[2147483647,0,0,1,1,2,2],"right_children":[2,4,6,-1,-1,-1,-1],"split_conditions":[-3.8795125E-1,-9.919493E-1,-6.738201E-1,2.3490267E-3,-1.082449E-2,-3.438523E-3,1.1214982E-2],"split_indices":[13,5,6,0,0,0,0],"split_type":[0,0,0,0,0,0,0],"sum_hessian":[9.410045E1,4.1055843E1,5.30446E1,1.1989839E1,2.9066006E1,1.5697465E1,3.7347137E1],"tree_param":{"num_deleted":"0","num_feature":"15","num_nodes":"7","size_leaf_vector":"1"}},{"base_weights":[-0E0,-1.2901989E-1,1.1679004E-2,-7.720177E-3,1.1929711E-3],"categories":[],"categories_nodes":[],"categories_segments":[],"categories_sizes":[],"default_left":[0,0,0,0,0],"id":51,"left_children":[1,3,-1,-1,-1],"loss_changes":[8.324765E0,5.1703672E0,0E0,0E0,0E0],"parents":[2147483647,0,0,1,1],"right_children":[2,4,-1,-1,-1],"split_conditions":[1.4913769E0,-6.2774956E-1,1.1679004E-2,-7.720177E-3,1.1929711E-3],"split_indices":[10,7,0,0,0],"split_type":[0,0,0,0,0],"sum_hessian":[9.737653E1,8.663195E1,1.0744589E1,3.4934124E1,5.1697823E1],"tree_param":{"num_deleted":"0","num_feature":"15","num_nodes":"5","size_leaf_vector":"1"}},{"base_weights":[5.1622987E-3,-1.0012205E-1,1.0570688E-2,2.8515323E-3,-9.628528E-3],"categories":[],"categories_nodes":[],"categories_segments":[],"categories_sizes":[],"default_left":[0,0,0,0,0],"id":52,"left_children":[1,3,-1,-1,-1],"loss_changes":[6.83514E0,9.801476E0,0E0,0E0,0E0],"parents":[2147483647,0,0,1,1],"right_children":[2,4,-1,-1,-1],"split_conditions":[1.342265E0,1.18005E-1,1.0570688E-2,2.8515323E-3,-9.628528E-3],"split_indices":[10,2,0,0,0],"split_type":[0,0,0,0,0],"sum_hessian":[9.862533E1,8.657669E1,1.2048636E1,5.4744316E1,3.1832373E1],"tree_param":{"num_deleted":"0","num_feature":"15","num_nodes":"5","size_leaf_vector":"1"}},{"base_weights":[-1.16393045E-1,-3.7097847E-1,8.1349954E-2,-1.1175257E-2,1.916168E-3,8.960893E-3,-1.5347083E-3],"categories":[],"categories_nodes":[],"categories_segments":[],"categories_sizes":[],"default_left":[0,0,0,0,0,0,0],"id":53,"left_children":[1,3,5,-1,-1,-1,-1],"loss_changes":[6.138234E0,5.5255594E0,4.5949163E0,0E0,0E0,0E0,0E0],"parents":[2147483647,0,0,1,1,2,2],"right_children":[2,4,6,-1,-1,-1,-1],"split_conditions":[-7.1975076E-1,7.414491E-1,-6.899252E-1,-1.1175257E-2,1.916168E-3,8.960893E-3,-1.5347083E-3],"split_indices":[7,10,1,0,0,0,0],"split_type":[0,0,0,0,0,0,0],"sum_hessian":[1.0178107E2,4.3259216E1,5.852185E1,3.1112045E1,1.2147169E1,1.4561934E1,4.3959915E1],"tree_param":{"num_deleted":"0","num_feature":"15","num_nodes":"7","size_leaf_vector":"1"}},{"base_weights":[1.0672321E-1,-2.315651E-1,3.3180025E-1,-1.36380475E-2,2.211685E-3,1.6107647E-2,-1.2090863E-3],"categories":[],"categories_nodes":[],"categories_segments":[],"categories_sizes":[],"default_left":[0,0,0,0,0,0,0],"id":54,"left_children":[1,3,5,-1,-1,-1,-1],"loss_changes":[8.846304E0,8.305286E0,1.4000141E1,0E0,0E0,0E0,0E0],"parents":[2147483647,0,0,1,1,2,2],"right_children":[2,4,6,-1,-1,-1,-1],"split_conditions":[-1.5289734E-1,-5.616072E-1,1.2370124E-1,-1.36380475E-2,2.211685E-3,1.6107647E-2,-1.2090863E-3],"split_indices":[4,7,2,0,0,0,0],"split_type":[0,0,0,0,0,0,0],"sum_hessian":[9.6785E1,3.6789074E1,5.9995934E1,1.328676E1,2.3502312E1,2.404094E1,3.5954994E1],"tree_param":{"num_deleted":"0","num_feature":"15","num_nodes":"7","size_leaf_vector":"1"}},{"base_weights":[-2.493734E-2,-1.8310468E-1,4.601899E-1,6.2972903E-3,-6.5642307E-3,1.6086666E-2,-1.171906E-3],"categories":[],"categories_nodes":[],"categories_segments":[],"categories_sizes":[],"default_left":[0,0,0,0,0,0,0],"id":55,"left_children":[1,3,5,-1,-1,-1,-1],"loss_changes":[8.641419E0,7.3160796E0,6.018039E0,0E0,0E0,0E0,0E0],"parents":[2147483647,0,0,1,1,2,2],"right_children":[2,4,6,-1,-1,-1,-1],"split_conditions":[8.3653206E-1,-1.011943E0,6.1006033E-1,6.2972903E-3,-6.5642307E-3,1.6086666E-2,-1.171906E-3],"split_indices":[11,13,9,0,0,0,0],"split_type":[0,0,0,0,0,0,0],"sum_hessian":[9.734696E1,7.919212E1,1.8154835E1,1.3938479E1,6.525365E1,9.095221E0,9.059614E0],"tree_param":{"num_deleted":"0","num_feature":"15","num_nodes":"7","size_leaf_vector":"1"}},{"base_weights":[1.2174997E-3,-3.9602512E-1,2.2339953E-1,9.0928463E-4,-1.2064105E-2,-7.8997435E-3,7.689784E-3],"categories":[],"categories_nodes":[],"categories_segments":[],"categories_sizes":[],"default_left":[0,0,0,0,0,0,0],"id":56,"left_children":[1,3,5,-1,-1,-1,-1],"loss_changes":[1.0673697E1,4.6896744E0,9.3647785E0,0E0,0E0,0E0,0E0],"parents":[2147483647,0,0,1,1,2,2],"right_children":[2,4,6,-1,-1,-1,-1],"split_conditions":[-9.42334E-1,-6.602296E-1,-1.0188068E0,9.0928463E-4,-1.2064105E-2,-7.8997435E-3,7.689784E-3],"split_indices":[6,13,9,0,0,0,0],"split_type":[0,0,0,0,0,0,0],"sum_hessian":[1.0486876E2,3.3475204E1,7.1393555E1,1.1393846E1,2.2081358E1,1.0770933E1,6.0622623E1],"tree_param":{"num_deleted":"0","num_feature":"15","num_nodes":"7","size_leaf_vector":"1"}},{"base_weights":[7.898387E-3,-4.0188923E-1,2.550777E-1,-1.3114398E-2,3.4466218E-3,1.1640322E-2,-3.2787311E-3],"categories":[],"categories_nodes":[],"categories_segments":[],"categories_sizes":[],"default_left":[0,0,0,0,0,0,0],"id":57,"left_children":[1,3,5,-1,-1,-1,-1],"loss_changes":[1.2573569E1,8.175201E0,1.2192198E1,0E0,0E0,0E0,0E0],"parents":[2147483647,0,0,1,1,2,2],"right_children":[2,4,6,-1,-1,-1,-1],"split_conditions":[-2.3762795E-1,8.677597E-2,4.943815E-1,-1.3114398E-2,3.4466218E-3,1.1640322E-2,-3.2787311E-3],"split_indices":[4,5,3,0,0,0,0],"split_type":[0,0,0,0,0,0,0],"sum_hessian":[1.0747392E2,3.679476E1,7.067916E1,2.5837543E1,1.0957217E1,3.907562E1,3.1603546E1],"tree_param":{"num_deleted":"0","num_feature":"15","num_nodes":"7","size_leaf_vector":"1"}},{"base_weights":[-5.0712053E-2,-1.7379196E-1,9.38212E-3,1.4361087E-3,-1.1765459E-2],"categories":[],"categories_nodes":[],"categories_segments":[],"categories_sizes":[],"default_left":[0,0,0,0,0],"id":58,"left_children":[1,3,-1,-1,-1],"loss_changes":[6.97667E0,1.0134716E1,0E0,0E0,0E0],"parents":[2147483647,0,0,1,1],"right_children":[2,4,-1,-1,-1],"split_conditions":[1.342265E0,2.692253E-1,9.38212E-3,1.4361087E-3,-1.1765459E-2],"split_indices":[10,2,0,0,0],"split_type":[0,0,0,0,0],"sum_hessian":[9.3193306E1,8.175139E1,1.1441921E1,5.4491215E1,2.726017E1],"tree_param":{"num_deleted":"0","num_feature":"15","num_nodes":"5","size_leaf_vector":"1"}},{"base_weights":[-8.588841E-2,-2.3252968E-1,1.2888608E-2,7.321768E-7,-9.732842E-3],"categories":[],"categories_nodes":[],"categories_segments":[],"categories_sizes":[],"default_left":[0,0,0,0,0],"id":59,"left_children":[1,3,-1,-1,-1],"loss_changes":[1.2674897E1,6.3393245E0,0E0,0E0,0E0],"parents":[2147483647,0,0,1,1],"right_children":[2,4,-1,-1,-1],"split_conditions":[1.3689735E0,-4.3551892E-2,1.2888608E-2,7.321768E-7,-9.732842E-3],"split_indices":[8,1,0,0,0],"split_type":[0,0,0,0,0],"sum_hessian":[1.0060519E2,9.0031425E1,1.0573768E1,4.965244E1,4.0378983E1],"tree_param":{"num_deleted":"0","num_feature":"15","num_nodes":"5","size_leaf_vector":"1"}},{"base_weights":[-0E0,-3.5850915E-1,5.065726E-3,-1.5549814E-2,6.3842826E-4],"categories":[],"categories_nodes":[],"categories_segments":[],"categories_sizes":[],"default_left":[0,0,0,0,0],"id":60,"left_children":[1,3,-1,-1,-1],"loss_changes":[1.0910954E1,8.989615E0,0E0,0E0,0E0],"parents":[2147483647,0,0,1,1],"right_children":[2,4,-1,-1,-1],"split_conditions":[-6.890179E-1,-4.4649225E-2,5.065726E-3,-1.5549814E-2,6.3842826E-4],"split_indices":[7,4,0,0,0],"split_type":[0,0,0,0,0],"sum_hessian":[1.0287454E2,4.003118E1,6.2843357E1,1.6241238E1,2.3789942E1],"tree_param":{"num_deleted":"0","num_feature":"15","num_nodes":"5","size_leaf_vector":"1"}},{"base_weights":[-7.830165E-2,1.8732712E-1,-3.8988686E-1,-5.34486E-3,8.88298E-3,2.7482628E-4,-1.376364E-2],"categories":[],"categories_nodes":[],"categories_segments":[],"categories_sizes":[],"default_left":[0,0,0,0,0,0,0],"id":61,"left_children":[1,3,5,-1,-1,-1,-1],"loss_changes":[1.0176886E1,8.846713E0,7.5570107E0,0E0,0E0,0E0,0E0],"parents":[2147483647,0,0,1,1,2,2],"right_children":[2,4,6,-1,-1,-1,-1],"split_conditions":[1.3782482E-1,-2.3762795E-1,-7.0670955E-2,-5.34486E-3,8.88298E-3,2.7482628E-4,-1.376364E-2],"split_indices":[14,4,2,0,0,0,0],"split_type":[0,0,0,0,0,0,0],"sum_hessian":[1.03570366E2,5.611319E1,4.7457176E1,1.8720068E1,3.7393124E1,2.239166E1,2.5065517E1],"tree_param":{"num_deleted":"0","num_feature":"15","num_nodes":"7","size_leaf_vector":"1"}},{"base_weights":[3.0420076E-2,-3.1765866E-1,2.664394E-1,6.581615E-3,-1.7692924E-2,-0E0,9.569758E-3],"categories":[],"categories_nodes":[],"categories_segments":[],"categories_sizes":[],"default_left":[0,0,0,0,0,0,0],"id":62,"left_children":[1,3,5,-1,-1,-1,-1],"loss_changes":[9.563951E0,2.0021313E1,4.3201475E0,0E0,0E0,0E0,0E0],"parents":[2147483647,0,0,1,1,2,2],"right_children":[2,4,6,-1,-1,-1,-1],"split_conditions":[-8.8753694E-1,-4.790129E-1,-1.4462057E-1,6.581615E-3,-1.7692924E-2,-0E0,9.569758E-3],"split_indices":[7,5,12,0,0,0,0],"split_type":[0,0,0,0,0,0,0],"sum_hessian":[9.876728E1,3.69394E1,6.182788E1,1.81963E1,1.87431E1,2.9997183E1,3.1830696E1],"tree_param":{"num_deleted":"0","num_feature":"15","num_nodes":"7","size_leaf_vector":"1"}},{"base_weights":[8.5958965E-2,-1.0756988E-2,2.3363413E-1,-6.297907E-3,6.989963E-3],"categories":[],"categories_nodes":[],"categories_segments":[],"categories_sizes":[],"default_left":[0,0,0,0,0],"id":63,"left_children":[1,-1,3,-1,-1],"loss_changes":[1.0903636E1,0E0,7.12762E0,0E0,0E0],"parents":[2147483647,0,0,2,2],"right_children":[2,-1,4,-1,-1],"split_conditions":[-1.2941666E0,-1.0756988E-2,-1.0896275E0,-6.297907E-3,6.989963E-3],"split_indices":[10,0,5,0,0],"split_type":[0,0,0,0,0],"sum_hessian":[1.0038777E2,1.3368026E1,8.7019745E1,1.0974182E1,7.604556E1],"tree_param":{"num_deleted":"0","num_feature":"15","num_nodes":"5","size_leaf_vector":"1"}},{"base_weights":[1.5159218E-2,-4.1107127E-1,2.912491E-1,-1.1427621E-2,8.347519E-4,1.1427041E-2,-3.4691272E-3],"categories":[],"categories_nodes":[],"categories_segments":[],"categories_sizes":[],"default_left":[0,0,0,0,0,0,0],"id":64,"left_children":[1,3,5,-1,-1,-1,-1],"loss_changes":[1.2886412E1,3.8044472E0,1.0168472E1,0E0,0E0,0E0,0E0],"parents":[2147483647,0,0,1,1,2,2],"right_children":[2,4,6,-1,-1,-1,-1],"split_conditions":[-2.3762795E-1,8.677597E-2,5.698909E-1,-1.1427621E-2,8.347519E-4,1.1427041E-2,-3.4691272E-3],"split_indices":[4,5,4,0,0,0,0],"split_type":[0,0,0,0,0,0,0],"sum_hessian":[9.236749E1,3.3157085E1,5.9210407E1,2.4378107E1,8.778978E0,3.699687E1,2.221354E1],"tree_param":{"num_deleted":"0","num_feature":"15","num_nodes":"7","size_leaf_vector":"1"}},{"base_weights":[-3.182795E-2,3.4203398E-1,-2.5760683E-1,1.2601094E-2,-7.6994896E-3,-1.5162567E-2,2.1096377E-3],"categories":[],"categories_nodes":[],"categories_segments":[],"categories_sizes":[],"default_left":[0,0,0,0,0,0,0],"id":65,"left_children":[1,3,5,-1,-1,-1,-1],"loss_changes":[1.03053875E1,1.1852198E1,1.5490534E1,0E0,0E0,0E0,0E0],"parents":[2147483647,0,0,1,1,2,2],"right_children":[2,4,6,-1,-1,-1,-1],"split_conditions":[-6.839092E-1,-2.8815016E-1,-7.5387996E-1,1.2601094E-2,-7.6994896E-3,-1.5162567E-2,2.1096377E-3],"split_indices":[5,6,6,0,0,0,0],"split_type":[0,0,0,0,0,0,0],"sum_hessian":[1.0469277E2,3.600676E1,6.868601E1,2.7634478E1,8.37228E0,2.5918823E1,4.276719E1],"tree_param":{"num_deleted":"0","num_feature":"15","num_nodes":"7","size_leaf_vector":"1"}},{"base_weights":[2.3575008E-2,-7.928586E-2,1.0171984E-2,9.409696E-4,-1.1429235E-2],"categories":[],"categories_nodes":[],"categories_segments":[],"categories_sizes":[],"default_left":[0,0,0,0,0],"id":66,"left_children":[1,3,-1,-1,-1],"loss_changes":[6.1658597E0,6.6701946E0,0E0,0E0,0E0],"parents":[2147483647,0,0,1,1],"right_children":[2,4,-1,-1,-1],"split_conditions":[1.3386617E0,6.150178E-1,1.0171984E-2,9.409696E-4,-1.1429235E-2],"split_indices":[10,4,0,0,0],"split_type":[0,0,0,0,0],"sum_hessian":[9.8709404E1,8.594894E1,1.276047E1,7.325366E1,1.26952715E1],"tree_param":{"num_deleted":"0","num_feature":"15","num_nodes":"5","size_leaf_vector":"1"}},{"base_weights":[-9.5242895E-3,-3.5808995E-1,2.0559718E-1,-1.0619241E-2,7.108538E-4,1.2346226E-2,-2.3164286E-3],"categories":[],"categories_nodes":[],"categories_segments":[],"categories_sizes":[],"default_left":[0,0,0,0,0,0,0],"id":67,"left_children":[1,3,5,-1,-1,-1,-1],"loss_changes":[9.259499E0,3.9339337E0,1.0882197E1,0E0,0E0,0E0,0E0],"parents":[2147483647,0,0,1,1,2,2],"right_children":[2,4,6,-1,-1,-1,-1],"split_conditions":[-2.3762795E-1,7.9088576E-2,1.18005E-1,-1.0619241E-2,7.108538E-4,1.2346226E-2,-2.3164286E-3],"split_indices":[4,5,2,0,0,0,0],"split_type":[0,0,0,0,0,0,0],"sum_hessian":[1.0361616E2,3.9034676E1,6.458148E1,2.67065E1,1.23281765E1,2.6045294E1,3.853619E1],"tree_param":{"num_deleted":"0","num_feature":"15","num_nodes":"7","size_leaf_vector":"1"}},{"base_weights":[-1.63926E-1,1.780757E-1,-3.6496663E-1,-6.0422122E-3,1.1009122E-2,-1.3335949E-2,2.8980216E-3],"categories":[],"categories_nodes":[],"categories_segments":[],"categories_sizes":[],"default_left":[0,0,0,0,0,0,0],"id":68,"left_children":[1,3,5,-1,-1,-1,-1],"loss_changes":[8.477879E0,9.916709E0,1.2991712E1,0E0,0E0,0E0,0E0],"parents":[2147483647,0,0,1,1,2,2],"right_children":[2,4,6,-1,-1,-1,-1],"split_conditions":[-6.839092E-1,-1.0501692E0,1.4506856E-1,-6.0422122E-3,1.1009122E-2,-1.3335949E-2,2.8980216E-3],"split_indices":[5,5,6,0,0,0,0],"split_type":[0,0,0,0,0,0,0],"sum_hessian":[1.0307802E2,3.669982E1,6.6378204E1,1.5598453E1,2.1101366E1,4.1187378E1,2.5190825E1],"tree_param":{"num_deleted":"0","num_feature":"15","num_nodes":"7","size_leaf_vector":"1"}},{"base_weights":[-1.9371793E-2,-2.3210035E-1,1.0090585E-2,4.0632994E-3,-1.0230321E-2],"categories":[],"categories_nodes":[],"categories_segments":[],"categories_sizes":[],"default_left":[0,0,0,0,0],"id":69,"left_children":[1,3,-1,-1,-1],"loss_changes":[1.2653707E1,1.137274E1,0E0,0E0,0E0],"parents":[2147483647,0,0,1,1],"right_children":[2,4,-1,-1,-1],"split_conditions":[5.795019E-1,-6.839092E-1,1.0090585E-2,4.0632994E-3,-1.0230321E-2],"split_indices":[13,5,0,0,0],"split_type":[0,0,0,0,0],"sum_hessian":[9.752633E1,7.428475E1,2.3241571E1,2.8603788E1,4.5680965E1],"tree_param":{"num_deleted":"0","num_feature":"15","num_nodes":"5","size_leaf_vector":"1"}},{"base_weights":[7.029237E-2,-5.115653E-1,2.5695086E-1,-1.3962191E-2,-0E0,1.2759377E-2,-1.5163494E-3],"categories":[],"categories_nodes":[],"categories_segments":[],"categories_sizes":[],"default_left":[0,0,0,0,0,0,0],"id":70,"left_children":[1,3,5,-1,-1,-1,-1],"loss_changes":[1.3861619E1,2.7713728E0,1.335328E1,0E0,0E0,0E0,0E0],"parents":[2147483647,0,0,1,1,2,2],"right_children":[2,4,6,-1,-1,-1,-1],"split_conditions":[-9.065835E-1,1.3800436E-1,1.18005E-1,-1.3962191E-2,-0E0,1.2759377E-2,-1.5163494E-3],"split_indices":[10,6,2,0,0,0,0],"split_type":[0,0,0,0,0,0,0],"sum_hessian":[1.1008083E2,2.163046E1,8.845037E1,1.3134361E1,8.496099E0,3.878846E1,4.966191E1],"tree_param":{"num_deleted":"0","num_feature":"15","num_nodes":"7","size_leaf_vector":"1"}},{"base_weights":[6.046553E-2,-2.2523323E-1,2.5795013E-1,1.4812198E-3,-1.0587517E-2,1.5469143E-2,1.1254426E-3],"categories":[],"categories_nodes":[],"categories_segments":[],"categories_sizes":[],"default_left":[0,0,0,0,0,0,0],"id":71,"left_children":[1,3,5,-1,-1,-1,-1],"loss_changes":[6.630273E0,5.062834E0,6.048558E0,0E0,0E0,0E0,0E0],"parents":[2147483647,0,0,1,1,2,2],"right_children":[2,4,6,-1,-1,-1,-1],"split_conditions":[-4.0681458E-1,8.52322E-2,-1.5188434E0,1.4812198E-3,-1.0587517E-2,1.5469143E-2,1.1254426E-3],"split_indices":[13,1,14,0,0,0,0],"split_type":[0,0,0,0,0,0,0],"sum_hessian":[9.8666565E1,3.77401E1,6.092646E1,2.0796059E1,1.694404E1,8.563358E0,5.2363102E1],"tree_param":{"num_deleted":"0","num_feature":"15","num_nodes":"7","size_leaf_vector":"1"}},{"base_weights":[-2.0480651E-2,-1.0782002E-2,1.4769602E-1,1.0708314E-2,-4.161099E-3],"categories":[],"categories_nodes":[],"categories_segments":[],"categories_sizes":[],"default_left":[0,0,0,0,0],"id":72,"left_children":[1,-1,3,-1,-1],"loss_changes":[1.0665031E1,0E0,1.3516333E1,0E0,0E0],"parents":[2147483647,0,0,2,2],"right_children":[2,-1,4,-1,-1],"split_conditions":[-8.4730947E-1,-1.0782002E-2,1.18005E-1,1.0708314E-2,-4.161099E-3],"split_indices":[10,0,2,0,0],"split_type":[0,0,0,0,0],"sum_hessian":[1.00574104E2,2.1223047E1,7.935106E1,3.7139637E1,4.2211422E1],"tree_param":{"num_deleted":"0","num_feature":"15","num_nodes":"5","size_leaf_vector":"1"}},{"base_weights":[2.7810896E-2,-2.3228544E-1,2.2989039E-1,6.7546433E-3,-1.0518428E-2,-4.0435065E-3,8.65374E-3],"categories":[],"categories_nodes":[],"categories_segments":[],"categories_sizes":[],"default_left":[0,0,0,0,0,0,0],"id":73,"left_children":[1,3,5,-1,-1,-1,-1],"loss_changes":[5.9925747E0,9.851986E0,6.777154E0,0E0,0E0,0E0,0E0],"parents":[2147483647,0,0,1,1,2,2],"right_children":[2,4,6,-1,-1,-1,-1],"split_conditions":[-4.0681458E-1,-1.011943E0,-6.738201E-1,6.7546433E-3,-1.0518428E-2,-4.0435065E-3,8.65374E-3],"split_indices":[13,13,6,0,0,0,0],"split_type":[0,0,0,0,0,0,0],"sum_hessian":[9.591541E1,3.9185703E1,5.6729706E1,1.1705465E1,2.7480238E1,1.6555063E1,4.0174644E1],"tree_param":{"num_deleted":"0","num_feature":"15","num_nodes":"7","size_leaf_vector":"1"}},{"base_weights":[7.951205E-2,-6.838093E-3,1.7733233E-1,8.747798E-3,-1.3593775E-3],"categories":[],"categories_nodes":[],"categories_segments":[],"categories_sizes":[],"default_left":[0,0,0,0,0],"id":74,"left_children":[1,-1,3,-1,-1],"loss_changes":[4.953739E0,0E0,6.8809214E0,0E0,0E0],"parents":[2147483647,0,0,2,2],"right_children":[2,-1,4,-1,-1],"split_conditions":[-1.0188068E0,-6.838093E-3,7.370127E-2,8.747798E-3,-1.3593775E-3],"split_indices":[9,0,2,0,0],"split_type":[0,0,0,0,0],"sum_hessian":[1.0192408E2,1.3045069E1,8.887901E1,4.169974E1,4.717927E1],"tree_param":{"num_deleted":"0","num_feature":"15","num_nodes":"5","size_leaf_vector":"1"}},{"base_weights":[1.2264776E-1,3.7041464E-1,-1.5533757E-1,1.4294988E-2,-2.1932928E-3,-8.115237E-3,9.080114E-3],"categories":[],"categories_nodes":[],"categories_segments":[],"categories_sizes":[],"default_left":[0,0,0,0,0,0,0],"id":75,"left_children":[1,3,5,-1,-1,-1,-1],"loss_changes":[8.692199E0,1.2165017E1,1.0597205E1,0E0,0E0,0E0,0E0],"parents":[2147483647,0,0,1,1,2,2],"right_children":[2,4,6,-1,-1,-1,-1],"split_conditions":[1.18005E-1,-2.6916426E-1,1.5603987E0,1.4294988E-2,-2.1932928E-3,-8.115237E-3,9.080114E-3],"split_indices":[2,6,10,0,0,0,0],"split_type":[0,0,0,0,0,0,0],"sum_hessian":[1.0656011E2,5.6662212E1,4.98979E1,3.1647114E1,2.5015097E1,3.8658337E1,1.1239563E1],"tree_param":{"num_deleted":"0","num_feature":"15","num_nodes":"7","size_leaf_vector":"1"}},{"base_weights":[1.5296147E-2,-1.429999E-1,9.672289E-3,4.3844213E-3,-7.5649237E-3],"categories":[],"categories_nodes":[],"categories_segments":[],"categories_sizes":[],"default_left":[0,0,0,0,0],"id":76,"left_children":[1,3,-1,-1,-1],"loss_changes":[9.222916E0,8.456982E0,0E0,0E0,0E0],"parents":[2147483647,0,0,1,1],"right_children":[2,4,-1,-1,-1],"split_conditions":[5.795019E-1,-6.839092E-1,9.672289E-3,4.3844213E-3,-7.5649237E-3],"split_indices":[13,5,0,0,0],"split_type":[0,0,0,0,0],"sum_hessian":[1.0241998E2,7.962317E1,2.2796816E1,2.9918428E1,4.970474E1],"tree_param":{"num_deleted":"0","num_feature":"15","num_nodes":"5","size_leaf_vector":"1"}},{"base_weights":[1.0783687E-1,-1.0456785E-2,2.576957E-1,1.2918678E-2,-1.4636449E-3],"categories":[],"categories_nodes":[],"categories_segments":[],"categories_sizes":[],"default_left":[0,0,0,0,0],"id":77,"left_children":[1,-1,3,-1,-1],"loss_changes":[1.1114994E1,0E0,1.3103445E1,0E0,0E0],"parents":[2147483647,0,0,2,2],"right_children":[2,-1,4,-1,-1],"split_conditions":[-1.2941666E0,-1.0456785E-2,2.601976E-1,1.2918678E-2,-1.4636449E-3],"split_indices":[10,0,8,0,0],"split_type":[0,0,0,0,0],"sum_hessian":[9.857887E1,1.3344811E1,8.5234055E1,3.666524E1,4.8568817E1],"tree_param":{"num_deleted":"0","num_feature":"15","num_nodes":"5","size_leaf_vector":"1"}},{"base_weights":[9.463597E-2,-4.609421E-1,2.829821E-1,-1.5456306E-2,-0E0,-1.2109982E-3,9.93247E-3],"categories":[],"categories_nodes":[],"categories_segments":[],"categories_sizes":[],"default_left":[0,0,0,0,0,0,0],"id":78,"left_children":[1,3,5,-1,-1,-1,-1],"loss_changes":[1.2565593E1,4.3849316E0,7.274821E0,0E0,0E0,0E0,0E0],"parents":[2147483647,0,0,1,1,2,2],"right_children":[2,4,6,-1,-1,-1,-1],"split_conditions":[-8.5123646E-1,1.3800436E-1,-5.2775705E-1,-1.5456306E-2,-0E0,-1.2109982E-3,9.93247E-3],"split_indices":[10,6,13,0,0,0,0],"split_type":[0,0,0,0,0,0,0],"sum_hessian":[1.0156479E2,2.1072002E1,8.049278E1,9.039976E0,1.2032025E1,3.154209E1,4.8950695E1],"tree_param":{"num_deleted":"0","num_feature":"15","num_nodes":"7","size_leaf_vector":"1"}},{"base_weights":[1.3065381E-2,-1.18948445E-1,8.503336E-3,2.451265E-3,-7.3247026E-3],"categories":[],"categories_nodes":[],"categories_segments":[],"categories_sizes":[],"default_left":[0,0,0,0,0],"id":79,"left_children":[1,3,-1,-1,-1],"loss_changes":[6.6403856E0,5.845913E0,0E0,0E0,0E0],"parents":[2147483647,0,0,1,1],"right_children":[2,4,-1,-1,-1],"split_conditions":[1.04358E0,-1.3376126E-1,8.503336E-3,2.451265E-3,-7.3247026E-3],"split_indices":[10,0,0,0,0],"split_type":[0,0,0,0,0],"sum_hessian":[9.906391E1,7.804001E1,2.1023909E1,3.9731647E1,3.8308357E1],"tree_param":{"num_deleted":"0","num_feature":"15","num_nodes":"5","size_leaf_vector":"1"}},{"base_weights":[4.5009047E-2,3.2068276E-1,-1.2578528E-1,1.160897E-2,-6.9517065E-3,-8.74646E-3,7.544548E-3],"categories":[],"categories_nodes":[],"categories_segments":[],"categories_sizes":[],"default_left":[0,0,0,0,0,0,0],"id":80,"left_children":[1,3,5,-1,-1,-1,-1],"loss_changes":[5.704693E0,1.0136708E1,1.2783785E1,0E0,0E0,0E0,0E0],"parents":[2147483647,0,0,1,1,2,2],"right_children":[2,4,6,-1,-1,-1,-1],"split_conditions":[-6.4910156E-1,-1.5062155E-1,1.4506856E-1,1.160897E-2,-6.9517065E-3,-8.74646E-3,7.544548E-3],"split_indices":[5,6,6,0,0,0,0],"split_type":[0,0,0,0,0,0,0],"sum_hessian":[1.0031133E2,3.759196E1,6.2719368E1,2.8998817E1,8.593143E0,4.068483E1,2.203454E1],"tree_param":{"num_deleted":"0","num_feature":"15","num_nodes":"7","size_leaf_vector":"1"}},{"base_weights":[-4.801491E-2,1.0616359E-2,-1.6694632E-1,2.211322E-3,-7.716712E-3],"categories":[],"categories_nodes":[],"categories_segments":[],"categories_sizes":[],"default_left":[0,0,0,0,0],"id":81,"left_children":[1,-1,3,-1,-1],"loss_changes":[7.732547E0,0E0,6.5048122E0,0E0,0E0],"parents":[2147483647,0,0,2,2],"right_children":[2,-1,4,-1,-1],"split_conditions":[-1.5237691E0,1.0616359E-2,-2.3477627E-1,2.211322E-3,-7.716712E-3],"split_indices":[14,0,1,0,0],"split_type":[0,0,0,0,0],"sum_hessian":[9.702421E1,9.791625E0,8.723258E1,3.841483E1,4.8817753E1],"tree_param":{"num_deleted":"0","num_feature":"15","num_nodes":"5","size_leaf_vector":"1"}},{"base_weights":[-1.6633375E-2,-5.000918E-1,2.0480736E-1,-3.236894E-4,-1.475006E-2,-4.8973516E-4,1.4843264E-2],"categories":[],"categories_nodes":[],"categories_segments":[],"categories_sizes":[],"default_left":[0,0,0,0,0,0,0],"id":82,"left_children":[1,3,5,-1,-1,-1,-1],"loss_changes":[1.2593147E1,3.4373198E0,1.0472868E1,0E0,0E0,0E0,0E0],"parents":[2147483647,0,0,1,1,2,2],"right_children":[2,4,6,-1,-1,-1,-1],"split_conditions":[-3.69301E-1,-8.5584146E-1,5.164709E-1,-3.236894E-4,-1.475006E-2,-4.8973516E-4,1.4843264E-2],"split_indices":[4,4,13,0,0,0,0],"split_type":[0,0,0,0,0,0,0],"sum_hessian":[9.726134E1,2.8415073E1,6.884626E1,1.3902898E1,1.4512176E1,5.2971714E1,1.5874548E1],"tree_param":{"num_deleted":"0","num_feature":"15","num_nodes":"7","size_leaf_vector":"1"}},{"base_weights":[-6.794902E-2,-3.596771E-1,1.1144799E-1,-1.10661285E-2,3.112525E-3,9.576141E-3,-5.6421044E-3],"categories":[],"categories_nodes":[],"categories_segments":[],"categories_sizes":[],"default_left":[0,0,0,0,0,0,0],"id":83,"left_children":[1,3,5,-1,-1,-1,-1],"loss_changes":[6.2372265E0,5.682812E0,1.1726394E1,0E0,0E0,0E0,0E0],"parents":[2147483647,0,0,1,1,2,2],"right_children":[2,4,6,-1,-1,-1,-1],"split_conditions":[-1.8239672E-1,1.336559E0,4.2578298E-1,-1.10661285E-2,3.112525E-3,9.576141E-3,-5.6421044E-3],"split_indices":[4,12,3,0,0,0,0],"split_type":[0,0,0,0,0,0,0],"sum_hessian":[9.854206E1,3.6201916E1,6.2340145E1,2.7242277E1,8.9596405E0,3.254893E1,2.9791216E1],"tree_param":{"num_deleted":"0","num_feature":"15","num_nodes":"7","size_leaf_vector":"1"}},{"base_weights":[4.9512576E-2,-3.6538932E-1,3.144818E-1,-1.3915131E-2,1.9228543E-3,1.4284404E-2,-0E0],"categories":[],"categories_nodes":[],"categories_segments":[],"categories_sizes":[],"default_left":[0,0,0,0,0,0,0],"id":84,"left_children":[1,3,5,-1,-1,-1,-1],"loss_changes":[1.2570905E1,7.875698E0,9.491806E0,0E0,0E0,0E0,0E0],"parents":[2147483647,0,0,1,1,2,2],"right_children":[2,4,6,-1,-1,-1,-1],"split_conditions":[-2.721071E-1,3.5273917E-2,-4.3551892E-2,-1.3915131E-2,1.9228543E-3,1.4284404E-2,-0E0],"split_indices":[4,6,1,0,0,0,0],"split_type":[0,0,0,0,0,0,0],"sum_hessian":[9.640327E1,3.477147E1,6.1631798E1,1.8866196E1,1.59052725E1,2.3301243E1,3.8330555E1],"tree_param":{"num_deleted":"0","num_feature":"15","num_nodes":"7","size_leaf_vector":"1"}},{"base_weights":[1.4936643E-3,-8.9254E-3,1.6232754E-1,8.635942E-3,-2.6112E-3],"categories":[],"categories_nodes":[],"categories_segments":[],"categories_sizes":[],"default_left":[0,0,0,0,0],"id":85,"left_children":[1,-1,3,-1,-1],"loss_changes":[7.850113E0,0E0,7.4920435E0,0E0,0E0],"parents":[2147483647,0,0,2,2],"right_children":[2,-1,4,-1,-1],"split_conditions":[-9.0682805E-1,-8.9254E-3,-4.2061016E-1,8.635942E-3,-2.6112E-3],"split_indices":[10,0,5,0,0],"split_type":[0,0,0,0,0],"sum_hessian":[9.489529E1,1.9213766E1,7.568152E1,3.897166E1,3.670986E1],"tree_param":{"num_deleted":"0","num_feature":"15","num_nodes":"5","size_leaf_vector":"1"}},{"base_weights":[-4.730412E-2,8.223287E-3,-1.5857622E-1,-8.637692E-3,1.1635215E-3],"categories":[],"categories_nodes":[],"categories_segments":[],"categories_sizes":[],"default_left":[0,0,0,0,0],"id":86,"left_children":[1,-1,3,-1,-1],"loss_changes":[6.128443E0,0E0,6.502958E0,0E0,0E0],"parents":[2147483647,0,0,2,2],"right_children":[2,-1,4,-1,-1],"split_conditions":[-1.5172313E0,8.223287E-3,-4.6014816E-1,-8.637692E-3,1.1635215E-3],"split_indices":[14,0,11,0,0],"split_type":[0,0,0,0,0],"sum_hessian":[1.0457936E2,1.3932192E1,9.064717E1,3.81826E1,5.246457E1],"tree_param":{"num_deleted":"0","num_feature":"15","num_nodes":"5","size_leaf_vector":"1"}},{"base_weights":[-1.61115E-2,-4.5057797E-1,2.7524573E-1,1.6417251E-3,-1.4911875E-2,-4.067811E-3,9.215276E-3],"categories":[],"categories_nodes":[],"categories_segments":[],"categories_sizes":[],"default_left":[0,0,0,0,0,0,0],"id":87,"left_children":[1,3,5,-1,-1,-1,-1],"loss_changes":[1.4447803E1,8.523257E0,6.998763E0,0E0,0E0,0E0,0E0],"parents":[2147483647,0,0,1,1,2,2],"right_children":[2,4,6,-1,-1,-1,-1],"split_conditions":[-4.0681458E-1,-8.8718104E-1,-8.4730947E-1,1.6417251E-3,-1.4911875E-2,-4.067811E-3,9.215276E-3],"split_indices":[13,13,10,0,0,0,0],"split_type":[0,0,0,0,0,0,0],"sum_hessian":[9.4932526E1,3.7510883E1,5.742164E1,1.4477418E1,2.3033466E1,1.4291708E1,4.3129932E1],"tree_param":{"num_deleted":"0","num_feature":"15","num_nodes":"7","size_leaf_vector":"1"}},{"base_weights":[-2.7212696E-2,3.111498E-1,-2.5544268E-1,-3.0991249E-3,9.997583E-3,-7.5543267E-3,2.360404E-3],"categories":[],"categories_nodes":[],"categories_segments":[],"categories_sizes":[],"default_left":[0,0,0,0,0,0,0],"id":88,"left_children":[1,3,5,-1,-1,-1,-1],"loss_changes":[8.59899E0,4.8867173E0,3.770832E0,0E0,0E0,0E0,0E0],"parents":[2147483647,0,0,1,1,2,2],"right_children":[2,4,6,-1,-1,-1,-1],"split_conditions":[-2.1410218E-1,-1.2061037E0,1.342265E0,-3.0991249E-3,9.997583E-3,-7.5543267E-3,2.360404E-3],"split_indices":[1,10,10,0,0,0,0],"split_type":[0,0,0,0,0,0,0],"sum_hessian":[9.3808975E1,3.470527E1,5.910371E1,8.93944E0,2.576583E1,4.6465736E1,1.2637976E1],"tree_param":{"num_deleted":"0","num_feature":"15","num_nodes":"7","size_leaf_vector":"1"}},{"base_weights":[2.3905686E-3,2.2292958E-1,-2.5332555E-1,-7.819893E-3,8.63563E-3,-9.494162E-3,3.819621E-3],"categories":[],"categories_nodes":[],"categories_segments":[],"categories_sizes":[],"default_left":[0,0,0,0,0,0,0],"id":89,"left_children":[1,3,5,-1,-1,-1,-1],"loss_changes":[7.0763474E0,1.049836E1,6.636842E0,0E0,0E0,0E0,0E0],"parents":[2147483647,0,0,1,1,2,2],"right_children":[2,4,6,-1,-1,-1,-1],"split_conditions":[1.2370124E-1,-1.2941666E0,1.3001691E0,-7.819893E-3,8.63563E-3,-9.494162E-3,3.819621E-3],"split_indices":[2,10,10,0,0,0,0],"split_type":[0,0,0,0,0,0,0],"sum_hessian":[1.0800389E2,6.0709927E1,4.7293964E1,1.2202713E1,4.8507217E1,3.2656994E1,1.463697E1],"tree_param":{"num_deleted":"0","num_feature":"15","num_nodes":"7","size_leaf_vector":"1"}},{"base_weights":[2.4034489E-2,3.8906202E-1,-2.7528343E-1,1.2897857E-2,-6.919131E-3,-1.4130579E-2,8.540179E-5],"categories":[],"categories_nodes":[],"categories_segments":[],"categories_sizes":[],"default_left":[0,0,0,0,0,0,0],"id":90,"left_children":[1,3,5,-1,-1,-1,-1],"loss_changes":[1.31259E1,1.263349E1,8.487769E0,0E0,0E0,0E0,0E0],"parents":[2147483647,0,0,1,1,2,2],"right_children":[2,4,6,-1,-1,-1,-1],"split_conditions":[-4.790129E-1,-2.6916426E-1,-7.5387996E-1,1.2897857E-2,-6.919131E-3,-1.4130579E-2,8.540179E-5],"split_indices":[5,6,6,0,0,0,0],"split_type":[0,0,0,0,0,0,0],"sum_hessian":[1.01271645E2,4.5916958E1,5.5354687E1,3.5889355E1,1.0027602E1,1.7771294E1,3.7583393E1],"tree_param":{"num_deleted":"0","num_feature":"15","num_nodes":"7","size_leaf_vector":"1"}},{"base_weights":[-0E0,-1.2447623E-1,1.1222677E-2,5.119299E-3,-6.7907316E-3],"categories":[],"categories_nodes":[],"categories_segments":[],"categories_sizes":[],"default_left":[0,0,0,0,0],"id":91,"left_children":[1,3,-1,-1,-1],"loss_changes":[7.6408033E0,8.609383E0,0E0,0E0,0E0],"parents":[2147483647,0,0,1,1],"right_children":[2,4,-1,-1,-1],"split_conditions":[1.2841202E0,-6.946688E-1,1.1222677E-2,5.119299E-3,-6.7907316E-3],"split_indices":[13,5,0,0,0],"split_type":[0,0,0,0,0],"sum_hessian":[9.625386E1,8.5644745E1,1.0609116E1,2.8632414E1,5.7012333E1],"tree_param":{"num_deleted":"0","num_feature":"15","num_nodes":"5","size_leaf_vector":"1"}},{"base_weights":[8.379336E-3,-2.5443178E-1,1.8698895E-1,1.5489606E-3,-1.05611365E-2,9.982763E-3,-2.441702E-3],"categories":[],"categories_nodes":[],"categories_segments":[],"categories_sizes":[],"default_left":[0,0,0,0,0,0,0],"id":92,"left_children":[1,3,5,-1,-1,-1,-1],"loss_changes":[5.604157E0,5.063617E0,8.0607815E0,0E0,0E0,0E0,0E0],"parents":[2147483647,0,0,1,1,2,2],"right_children":[2,4,6,-1,-1,-1,-1],"split_conditions":[-2.3822387E-1,-8.55254E-1,4.2578298E-1,1.5489606E-3,-1.05611365E-2,9.982763E-3,-2.441702E-3],"split_indices":[4,4,3,0,0,0,0],"split_type":[0,0,0,0,0,0,0],"sum_hessian":[1.0270324E2,3.7744907E1,6.495833E1,1.8321152E1,1.9423758E1,3.1174551E1,3.3783775E1],"tree_param":{"num_deleted":"0","num_feature":"15","num_nodes":"7","size_leaf_vector":"1"}},{"base_weights":[3.8302932E-2,1.0437579E-2,-7.4328296E-2,7.6724957E-3,-4.21038E-3],"categories":[],"categories_nodes":[],"categories_segments":[],"categories_sizes":[],"default_left":[0,0,0,0,0],"id":93,"left_children":[1,-1,3,-1,-1],"loss_changes":[6.583544E0,0E0,6.3152013E0,0E0,0E0],"parents":[2147483647,0,0,2,2],"right_children":[2,-1,4,-1,-1],"split_conditions":[-1.5172313E0,1.0437579E-2,-8.8264054E-1,7.6724957E-3,-4.21038E-3],"split_indices":[14,0,13,0,0],"split_type":[0,0,0,0,0],"sum_hessian":[9.7248024E1,1.3870904E1,8.337712E1,1.3680665E1,6.969646E1],"tree_param":{"num_deleted":"0","num_feature":"15","num_nodes":"5","size_leaf_vector":"1"}},{"base_weights":[-3.237223E-2,-3.639393E-1,1.7740315E-1,-1.7323693E-4,-1.3500079E-2,-5.454924E-3,7.3231044E-3],"categories":[],"categories_nodes":[],"categories_segments":[],"categories_sizes":[],"default_left":[0,0,0,0,0,0,0],"id":94,"left_children":[1,3,5,-1,-1,-1,-1],"loss_changes":[8.167002E0,4.3496733E0,6.885637E0,0E0,0E0,0E0,0E0],"parents":[2147483647,0,0,1,1,2,2],"right_children":[2,4,6,-1,-1,-1,-1],"split_conditions":[-7.1975076E-1,-1.0508186E0,-1.0188068E0,-1.7323693E-4,-1.3500079E-2,-5.454924E-3,7.3231044E-3],"split_indices":[7,7,9,0,0,0,0],"split_type":[0,0,0,0,0,0,0],"sum_hessian":[9.7382454E1,3.7020866E1,6.0361588E1,2.3101377E1,1.3919487E1,1.5084374E1,4.5277214E1],"tree_param":{"num_deleted":"0","num_feature":"15","num_nodes":"7","size_leaf_vector":"1"}},{"base_weights":[-2.5485562E-2,-4.561772E-1,1.7506866E-1,2.2149116E-3,-1.5850764E-2,1.1171176E-2,-1.1611523E-3],"categories":[],"categories_nodes":[],"categories_segments":[],"categories_sizes":[],"default_left":[0,0,0,0,0,0,0],"id":95,"left_children":[1,3,5,-1,-1,-1,-1],"loss_changes":[1.0353347E1,8.810294E0,7.837429E0,0E0,0E0,0E0,0E0],"parents":[2147483647,0,0,1,1,2,2],"right_children":[2,4,6,-1,-1,-1,-1],"split_conditions":[-5.509002E-1,-1.011943E0,-4.7764108E-1,2.2149116E-3,-1.5850764E-2,1.1171176E-2,-1.1611523E-3],"split_indices":[13,13,5,0,0,0,0],"split_type":[0,0,0,0,0,0,0],"sum_hessian":[9.928664E1,2.9484148E1,6.980249E1,1.2120062E1,1.7364086E1,2.3262274E1,4.654021E1],"tree_param":{"num_deleted":"0","num_feature":"15","num_nodes":"7","size_leaf_vector":"1"}},{"base_weights":[-7.039217E-2,-9.855767E-3,8.9445256E-2,-6.9664246E-3,7.1485965E-3],"categories":[],"categories_nodes":[],"categories_segments":[],"categories_sizes":[],"default_left":[0,0,0,0,0],"id":96,"left_children":[1,-1,3,-1,-1],"loss_changes":[8.924967E0,0E0,1.2064016E1,0E0,0E0],"parents":[2147483647,0,0,2,2],"right_children":[2,-1,4,-1,-1],"split_conditions":[-6.00484E-1,-9.855767E-3,-6.0665685E-1,-6.9664246E-3,7.1485965E-3],"split_indices":[3,0,13,0,0],"split_type":[0,0,0,0,0],"sum_hessian":[1.1134303E2,2.713726E1,8.420577E1,2.9532818E1,5.4672955E1],"tree_param":{"num_deleted":"0","num_feature":"15","num_nodes":"5","size_leaf_vector":"1"}},{"base_weights":[1.6433887E-2,2.3887669E-1,-2.1171816E-1,-4.255925E-3,9.882722E-3,-1.07757235E-2,9.064329E-3],"categories":[],"categories_nodes":[],"categories_segments":[],"categories_sizes":[],"default_left":[0,0,0,0,0,0,0],"id":97,"left_children":[1,3,5,-1,-1,-1,-1],"loss_changes":[6.3133235E0,8.678355E0,1.5173523E1,0E0,0E0,0E0,0E0],"parents":[2147483647,0,0,1,1,2,2],"right_children":[2,4,6,-1,-1,-1,-1],"split_conditions":[1.18005E-1,-9.065835E-1,1.342265E0,-4.255925E-3,9.882722E-3,-1.07757235E-2,9.064329E-3],"split_indices":[2,10,10,0,0,0,0],"split_type":[0,0,0,0,0,0,0],"sum_hessian":[1.0589467E2,5.5623283E1,5.027139E1,1.9210518E1,3.6412766E1,3.5849224E1,1.4422165E1],"tree_param":{"num_deleted":"0","num_feature":"15","num_nodes":"7","size_leaf_vector":"1"}},{"base_weights":[-7.12818E-2,-2.6481417E-1,1.0971755E-1,3.5347561E-3,-8.205379E-3,-3.1877318E-3,7.978033E-3],"categories":[],"categories_nodes":[],"categories_segments":[],"categories_sizes":[],"default_left":[0,0,0,0,0,0,0],"id":98,"left_children":[1,3,5,-1,-1,-1,-1],"loss_changes":[3.9892058E0,4.3925233E0,5.200404E0,0E0,0E0,0E0,0E0],"parents":[2147483647,0,0,1,1,2,2],"right_children":[2,4,6,-1,-1,-1,-1],"split_conditions":[1.2778118E-1,-1.517781E0,-7.5985715E-2,3.5347561E-3,-8.205379E-3,-3.1877318E-3,7.978033E-3],"split_indices":[14,14,11,0,0,0,0],"split_type":[0,0,0,0,0,0,0],"sum_hessian":[9.298956E1,4.559485E1,4.7394714E1,9.114791E0,3.6480057E1,2.4850922E1,2.2543795E1],"tree_param":{"num_deleted":"0","num_feature":"15","num_nodes":"7","size_leaf_vector":"1"}},{"base_weights":[-2.9070007E-2,-3.6560902E-1,2.1094836E-1,3.065078E-4,-1.1586512E-2,-5.174003E-3,8.530988E-3],"categories":[],"categories_nodes":[],"categories_segments":[],"categories_sizes":[],"default_left":[0,0,0,0,0,0,0],"id":99,"left_children":[1,3,5,-1,-1,-1,-1],"loss_changes":[9.491507E0,4.679469E0,7.887182E0,0E0,0E0,0E0,0E0],"parents":[2147483647,0,0,1,1,2,2],"right_children":[2,4,6,-1,-1,-1,-1],"split_conditions":[-4.0681458E-1,-8.8718104E-1,-7.5387996E-1,3.065078E-4,-1.1586512E-2,-5.174003E-3,8.530988E-3],"split_indices":[13,13,6,0,0,0,0],"split_type":[0,0,0,0,0,0,0],"sum_hessian":[9.799679E1,4.056962E1,5.742717E1,1.5901633E1,2.4667986E1,1.6043015E1,4.1384155E1],"tree_param":{"num_deleted":"0","num_feature":"15","num_nodes":"7","size_leaf_vector":"1"}},{"base_weights":[4.8430716E-3,2.9528564E-1,-1.5773469E-1,-3.8445767E-3,1.0970035E-2,-1.0929143E-2,1.9128134E-3],"categories":[],"categories_nodes":[],"categories_segments":[],"categories_sizes":[],"default_left":[0,0,0,0,0,0,0],"id":100,"left_children":[1,3,5,-1,-1,-1,-1],"loss_changes":[5.760226E0,6.8465195E0,8.240126E0,0E0,0E0,0E0,0E0],"parents":[2147483647,0,0,1,1,2,2],"right_children":[2,4,6,-1,-1,-1,-1],"split_conditions":[-6.839092E-1,-1.0896275E0,-6.738201E-1,-3.8445767E-3,1.0970035E-2,-1.0929143E-2,1.9128134E-3],"split_indices":[5,5,6,0,0,0,0],"split_type":[0,0,0,0,0,0,0],"sum_hessian":[1.0119776E2,3.5888313E1,6.530945E1,1.1659278E1,2.4229034E1,2.322087E1,4.208858E1],"tree_param":{"num_deleted":"0","num_feature":"15","num_nodes":"7","size_leaf_vector":"1"}},{"base_weights":[3.1734068E-2,2.7620623E-1,-2.0131804E-1,-1.1566199E-3,7.4475966E-3,-8.217428E-3,4.2314823E-3],"categories":[],"categories_nodes":[],"categories_segments":[],"categories_sizes":[],"default_left":[0,0,0,0,0,0,0],"id":101,"left_children":[1,3,5,-1,-1,-1,-1],"loss_changes":[6.3621383E0,2.2899785E0,5.7499447E0,0E0,0E0,0E0,0E0],"parents":[2147483647,0,0,1,1,2,2],"right_children":[2,4,6,-1,-1,-1,-1],"split_conditions":[-4.3551892E-2,-9.833758E-1,1.2856119E0,-1.1566199E-3,7.4475966E-3,-8.217428E-3,4.2314823E-3],"split_indices":[1,9,8,0,0,0,0],"split_type":[0,0,0,0,0,0,0],"sum_hessian":[9.256783E1,4.645783E1,4.611E1,8.863329E0,3.75945E1,3.222233E1,1.3887671E1],"tree_param":{"num_deleted":"0","num_feature":"15","num_nodes":"7","size_leaf_vector":"1"}},{"base_weights":[-1.4541388E-1,-2.864003E-1,8.938683E-3,2.6297288E-3,-1.0257455E-2],"categories":[],"categories_nodes":[],"categories_segments":[],"categories_sizes":[],"default_left":[0,0,0,0,0],"id":102,"left_children":[1,3,-1,-1,-1],"loss_changes":[1.0516012E1,1.0354897E1,0E0,0E0,0E0],"parents":[2147483647,0,0,1,1],"right_children":[2,4,-1,-1,-1],"split_conditions":[1.2856119E0,-6.839092E-1,8.938683E-3,2.6297288E-3,-1.0257455E-2],"split_indices":[8,5,0,0,0],"split_type":[0,0,0,0,0],"sum_hessian":[1.0504841E2,8.997088E1,1.5077526E1,3.1396776E1,5.857411E1],"tree_param":{"num_deleted":"0","num_feature":"15","num_nodes":"5","size_leaf_vector":"1"}},{"base_weights":[1.8922878E-2,3.6225295E-1,-1.5912893E-1,-2.2968547E-3,1.188758E-2,-7.463896E-3,3.7456064E-3],"categories":[],"categories_nodes":[],"categories_segments":[],"categories_sizes":[],"default_left":[0,0,0,0,0,0,0],"id":103,"left_children":[1,3,5,-1,-1,-1,-1],"loss_changes":[7.0992103E0,5.5559473E0,6.2305474E0,0E0,0E0,0E0,0E0],"parents":[2147483647,0,0,1,1,2,2],"right_children":[2,4,6,-1,-1,-1,-1],"split_conditions":[-6.839092E-1,-7.3896575E-1,4.7252974E-1,-2.2968547E-3,1.188758E-2,-7.463896E-3,3.7456064E-3],"split_indices":[5,11,13,0,0,0,0],"split_type":[0,0,0,0,0,0,0],"sum_hessian":[9.532236E1,3.1290901E1,6.403146E1,1.0319738E1,2.0971163E1,4.0929592E1,2.3101866E1],"tree_param":{"num_deleted":"0","num_feature":"15","num_nodes":"7","size_leaf_vector":"1"}},{"base_weights":[-0E0,3.6521825E-1,-1.8273668E-1,-0E0,1.2928658E-2,-1.2562533E-2,4.4485678E-5],"categories":[],"categories_nodes":[],"categories_segments":[],"categories_sizes":[],"default_left":[0,0,0,0,0,0,0],"id":104,"left_children":[1,3,5,-1,-1,-1,-1],"loss_changes":[7.137496E0,3.4573007E0,6.641397E0,0E0,0E0,0E0,0E0],"parents":[2147483647,0,0,1,1,2,2],"right_children":[2,4,6,-1,-1,-1,-1],"split_conditions":[-4.678286E-1,-5.9094787E-1,-1.5289734E-1,-0E0,1.2928658E-2,-1.2562533E-2,4.4485678E-5],"split_indices":[8,3,4,0,0,0,0],"split_type":[0,0,0,0,0,0,0],"sum_hessian":[9.013694E1,2.6268059E1,6.386888E1,1.5737103E1,1.0530956E1,1.3999753E1,4.986913E1],"tree_param":{"num_deleted":"0","num_feature":"15","num_nodes":"7","size_leaf_vector":"1"}},{"base_weights":[-6.145164E-2,-1.587771E-1,6.391379E-3,1.5386508E-3,-1.060758E-2],"categories":[],"categories_nodes":[],"categories_segments":[],"categories_sizes":[],"default_left":[0,0,0,0,0],"id":105,"left_children":[1,3,-1,-1,-1],"loss_changes":[4.3251743E0,9.111263E0,0E0,0E0,0E0],"parents":[2147483647,0,0,1,1],"right_children":[2,4,-1,-1,-1],"split_conditions":[1.2856119E0,1.2370124E-1,6.391379E-3,1.5386508E-3,-1.060758E-2],"split_indices":[8,2,0,0,0],"split_type":[0,0,0,0,0],"sum_hessian":[9.9656364E1,8.565205E1,1.4004316E1,5.5129013E1,3.0523031E1],"tree_param":{"num_deleted":"0","num_feature":"15","num_nodes":"5","size_leaf_vector":"1"}},{"base_weights":[-8.5452415E-2,2.1420647E-1,-2.3744734E-1,-2.449218E-3,8.774629E-3,5.930016E-3,-7.2744396E-3],"categories":[],"categories_nodes":[],"categories_segments":[],"categories_sizes":[],"default_left":[0,0,0,0,0,0,0],"id":106,"left_children":[1,3,5,-1,-1,-1,-1],"loss_changes":[5.2196717E0,3.6367178E0,6.129004E0,0E0,0E0,0E0,0E0],"parents":[2147483647,0,0,1,1,2,2],"right_children":[2,4,6,-1,-1,-1,-1],"split_conditions":[-6.839092E-1,-1.0501692E0,-1.5172313E0,-2.449218E-3,8.774629E-3,5.930016E-3,-7.2744396E-3],"split_indices":[5,5,14,0,0,0,0],"split_type":[0,0,0,0,0,0,0],"sum_hessian":[9.503989E1,2.8529982E1,6.65099E1,1.1269345E1,1.7260637E1,8.885607E0,5.76243E1],"tree_param":{"num_deleted":"0","num_feature":"15","num_nodes":"7","size_leaf_vector":"1"}},{"base_weights":[3.8072836E-2,-4.7656462E-1,2.2008502E-1,-1.6007576E-2,1.1150256E-3,1.2400791E-2,-3.135126E-3],"categories":[],"categories_nodes":[],"categories_segments":[],"categories_sizes":[],"default_left":[0,0,0,0,0,0,0],"id":107,"left_children":[1,3,5,-1,-1,-1,-1],"loss_changes":[1.1028613E1,6.3607426E0,1.477432E1,0E0,0E0,0E0,0E0],"parents":[2147483647,0,0,1,1,2,2],"right_children":[2,4,6,-1,-1,-1,-1],"split_conditions":[-9.065835E-1,7.977448E-1,7.370127E-2,-1.6007576E-2,1.1150256E-3,1.2400791E-2,-3.135126E-3],"split_indices":[10,12,2,0,0,0,0],"split_type":[0,0,0,0,0,0,0],"sum_hessian":[1.0139926E2,2.1251616E1,8.0147644E1,1.1563668E1,9.687946E0,3.7351078E1,4.279657E1],"tree_param":{"num_deleted":"0","num_feature":"15","num_nodes":"7","size_leaf_vector":"1"}},{"base_weights":[-1.0446922E-1,-9.463E-3,6.748233E-2,-3.2374351E-3,9.882522E-3],"categories":[],"categories_nodes":[],"categories_segments":[],"categories_sizes":[],"default_left":[0,0,0,0,0],"id":108,"left_children":[1,-1,3,-1,-1],"loss_changes":[7.514388E0,0E0,8.822037E0,0E0,0E0],"parents":[2147483647,0,0,2,2],"right_children":[2,-1,4,-1,-1],"split_conditions":[-5.9094787E-1,-9.463E-3,1.6895483E-1,-3.2374351E-3,9.882522E-3],"split_indices":[3,0,13,0,0],"split_type":[0,0,0,0,0],"sum_hessian":[9.860048E1,2.8196089E1,7.040439E1,4.7897324E1,2.2507065E1],"tree_param":{"num_deleted":"0","num_feature":"15","num_nodes":"5","size_leaf_vector":"1"}},{"base_weights":[5.515702E-2,-2.9739067E-1,2.533477E-1,3.7086587E-3,-1.1638183E-2,-2.064386E-3,8.093034E-3],"categories":[],"categories_nodes":[],"categories_segments":[],"categories_sizes":[],"default_left":[0,0,0,0,0,0,0],"id":109,"left_children":[1,3,5,-1,-1,-1,-1],"loss_changes":[8.367441E0,7.158424E0,4.8598676E0,0E0,0E0,0E0,0E0],"parents":[2147483647,0,0,1,1,2,2],"right_children":[2,4,6,-1,-1,-1,-1],"split_conditions":[-5.9730035E-1,-2.7031517E-1,-8.4730947E-1,3.7086587E-3,-1.1638183E-2,-2.064386E-3,8.093034E-3],"split_indices":[13,0,10,0,0,0,0],"split_type":[0,0,0,0,0,0,0],"sum_hessian":[1.0167999E2,3.315408E1,6.852591E1,1.2151972E1,2.100211E1,1.9298223E1,4.9227688E1],"tree_param":{"num_deleted":"0","num_feature":"15","num_nodes":"7","size_leaf_vector":"1"}},{"base_weights":[-0E0,-3.1462818E-1,1.824307E-1,4.64135E-3,-1.2938743E-2,-6.0636937E-3,6.7656357E-3],"categories":[],"categories_nodes":[],"categories_segments":[],"categories_sizes":[],"default_left":[0,0,0,0,0,0,0],"id":110,"left_children":[1,3,5,-1,-1,-1,-1],"loss_changes":[6.6609507E0,9.670838E0,6.3107414E0,0E0,0E0,0E0,0E0],"parents":[2147483647,0,0,1,1,2,2],"right_children":[2,4,6,-1,-1,-1,-1],"split_conditions":[-5.932686E-1,-3.46745E-1,-9.20125E-1,4.64135E-3,-1.2938743E-2,-6.0636937E-3,6.7656357E-3],"split_indices":[13,0,9,0,0,0,0],"split_type":[0,0,0,0,0,0,0],"sum_hessian":[9.6234375E1,3.4511242E1,6.1723137E1,1.2935734E1,2.1575508E1,1.1370221E1,5.0352917E1],"tree_param":{"num_deleted":"0","num_feature":"15","num_nodes":"7","size_leaf_vector":"1"}},{"base_weights":[-7.866643E-2,1.7346041E-1,-1.9485249E-1,-7.785251E-3,1.128761E-2,-6.86374E-3,5.074357E-3],"categories":[],"categories_nodes":[],"categories_segments":[],"categories_sizes":[],"default_left":[0,0,0,0,0,0,0],"id":111,"left_children":[1,3,5,-1,-1,-1,-1],"loss_changes":[3.482958E0,1.0081988E1,6.245206E0,0E0,0E0,0E0,0E0],"parents":[2147483647,0,0,1,1,2,2],"right_children":[2,4,6,-1,-1,-1,-1],"split_conditions":[-3.0785444E-1,-1.0810022E0,1.342265E0,-7.785251E-3,1.128761E-2,-6.86374E-3,5.074357E-3],"split_indices":[8,9,10,0,0,0,0],"split_type":[0,0,0,0,0,0,0],"sum_hessian":[9.878364E1,2.7047144E1,7.173649E1,1.0054277E1,1.6992868E1,5.717379E1,1.4562702E1],"tree_param":{"num_deleted":"0","num_feature":"15","num_nodes":"7","size_leaf_vector":"1"}},{"base_weights":[4.134195E-2,-2.7844194E-1,2.6272416E-1,2.7987398E-3,-9.036362E-3,1.229979E-2,-2.4022202E-5],"categories":[],"categories_nodes":[],"categories_segments":[],"categories_sizes":[],"default_left":[0,0,0,0,0,0,0],"id":112,"left_children":[1,3,5,-1,-1,-1,-1],"loss_changes":[8.703609E0,4.4425783E0,7.4782834E0,0E0,0E0,0E0,0E0],"parents":[2147483647,0,0,1,1,2,2],"right_children":[2,4,6,-1,-1,-1,-1],"split_conditions":[-7.6374435E-1,-1.4829723E0,-1.8307799E-1,2.7987398E-3,-9.036362E-3,1.229979E-2,-2.4022202E-5],"split_indices":[6,7,6,0,0,0,0],"split_type":[0,0,0,0,0,0,0],"sum_hessian":[1.04864075E2,4.010137E1,6.47627E1,1.0567842E1,2.9533531E1,2.423428E1,4.0528423E1],"tree_param":{"num_deleted":"0","num_feature":"15","num_nodes":"7","size_leaf_vector":"1"}},{"base_weights":[4.501232E-2,-2.7541813E-1,3.1799504E-1,1.9259725E-4,-1.307855E-2,-5.216752E-3,1.2040799E-2],"categories":[],"categories_nodes":[],"categories_segments":[],"categories_sizes":[],"default_left":[0,0,0,0,0,0,0],"id":113,"left_children":[1,3,5,-1,-1,-1,-1],"loss_changes":[1.0176497E1,6.3424277E0,1.2203831E1,0E0,0E0,0E0,0E0],"parents":[2147483647,0,0,1,1,2,2],"right_children":[2,4,6,-1,-1,-1,-1],"split_conditions":[-6.7083126E-1,4.9210584E-1,-8.797651E-1,1.9259725E-4,-1.307855E-2,-5.216752E-3,1.2040799E-2],"split_indices":[6,3,10,0,0,0,0],"split_type":[0,0,0,0,0,0,0],"sum_hessian":[9.784206E1,4.328733E1,5.455473E1,2.8188334E1,1.5098997E1,1.704165E1,3.7513077E1],"tree_param":{"num_deleted":"0","num_feature":"15","num_nodes":"7","size_leaf_vector":"1"}},{"base_weights":[-0E0,-2.5189927E-1,2.1017215E-1,2.383248E-3,-1.1681938E-2,-1.8409244E-3,1.0886082E-2],"categories":[],"categories_nodes":[],"categories_segments":[],"categories_sizes":[],"default_left":[0,0,0,0,0,0,0],"id":114,"left_children":[1,3,5,-1,-1,-1,-1],"loss_changes":[6.745576E0,8.298284E0,7.8429375E0,0E0,0E0,0E0,0E0],"parents":[2147483647,0,0,1,1,2,2],"right_children":[2,4,6,-1,-1,-1,-1],"split_conditions":[-6.7083126E-1,-4.790129E-1,1.0469633E-1,2.383248E-3,-1.1681938E-2,-1.8409244E-3,1.0886082E-2],"split_indices":[6,5,12,0,0,0,0],"split_type":[0,0,0,0,0,0,0],"sum_hessian":[1.09190186E2,4.946655E1,5.9723637E1,2.4670826E1,2.4795723E1,3.321181E1,2.6511824E1],"tree_param":{"num_deleted":"0","num_feature":"15","num_nodes":"7","size_leaf_vector":"1"}},{"base_weights":[-1.9238144E-2,2.8253704E-1,-2.163933E-1,1.0558837E-2,-2.9064752E-3,-1.0331932E-2,1.3430518E-3],"categories":[],"categories_nodes":[],"categories_segments":[],"categories_sizes":[],"default_left":[0,0,0,0,0,0,0],"id":115,"left_children":[1,3,5,-1,-1,-1,-1],"loss_changes":[7.232144E0,5.978393E0,7.205496E0,0E0,0E0,0E0,0E0],"parents":[2147483647,0,0,1,1,2,2],"right_children":[2,4,6,-1,-1,-1,-1],"split_conditions":[-6.839092E-1,1.2370124E-1,-4.4649225E-2,1.0558837E-2,-2.9064752E-3,-1.0331932E-2,1.3430518E-3],"split_indices":[5,2,4,0,0,0,0],"split_type":[0,0,0,0,0,0,0],"sum_hessian":[1.0441896E2,3.771729E1,6.6701675E1,2.4116812E1,1.3600477E1,3.0519148E1,3.6182526E1],"tree_param":{"num_deleted":"0","num_feature":"15","num_nodes":"7","size_leaf_vector":"1"}},{"base_weights":[-0E0,2.444703E-1,-1.8040638E-1,-3.019846E-3,1.2103326E-2,2.8251708E-3,-6.969305E-3],"categories":[],"categories_nodes":[],"categories_segments":[],"categories_sizes":[],"default_left":[0,0,0,0,0,0,0],"id":116,"left_children":[1,3,5,-1,-1,-1,-1],"loss_changes":[5.383693E0,8.874057E0,4.3050194E0,0E0,0E0,0E0,0E0],"parents":[2147483647,0,0,1,1,2,2],"right_children":[2,4,6,-1,-1,-1,-1],"split_conditions":[-1.3376126E-1,-2.721071E-1,-1.03152044E-1,-3.019846E-3,1.2103326E-2,2.8251708E-3,-6.969305E-3],"split_indices":[0,4,2,0,0,0,0],"split_type":[0,0,0,0,0,0,0],"sum_hessian":[1.0287085E2,4.4262814E1,5.860804E1,2.2287327E1,2.1975487E1,1.8563128E1,4.004491E1],"tree_param":{"num_deleted":"0","num_feature":"15","num_nodes":"7","size_leaf_vector":"1"}},{"base_weights":[1.9471087E-2,1.6554077E-1,-3.37935E-1,-6.693778E-3,7.743092E-3,-1.5916701E-2,4.8295874E-3],"categories":[],"categories_nodes":[],"categories_segments":[],"categories_sizes":[],"default_left":[0,0,0,0,0,0,0],"id":117,"left_children":[1,3,5,-1,-1,-1,-1],"loss_changes":[6.1547885E0,1.0887147E1,1.1128651E1,0E0,0E0,0E0,0E0],"parents":[2147483647,0,0,1,1,2,2],"right_children":[2,4,6,-1,-1,-1,-1],"split_conditions":[5.698909E-1,-8.797651E-1,1.342265E0,-6.693778E-3,7.743092E-3,-1.5916701E-2,4.8295874E-3],"split_indices":[4,10,10,0,0,0,0],"split_type":[0,0,0,0,0,0,0],"sum_hessian":[1.0255199E2,7.821526E1,2.4336718E1,2.1217772E1,5.6997494E1,1.2680106E1,1.1656611E1],"tree_param":{"num_deleted":"0","num_feature":"15","num_nodes":"7","size_leaf_vector":"1"}},{"base_weights":[-1.133704E-1,-2.1734695E-1,9.430302E-3,-6.82423E-3,1.8796833E-3],"categories":[],"categories_nodes":[],"categories_segments":[],"categories_sizes":[],"default_left":[0,0,0,0,0],"id":118,"left_children":[1,3,-1,-1,-1],"loss_changes":[7.1259766E0,4.3062425E0,0E0,0E0,0E0],"parents":[2147483647,0,0,1,1],"right_children":[2,4,-1,-1,-1],"split_conditions":[1.5603987E0,4.5810238E-1,9.430302E-3,-6.82423E-3,1.8796833E-3],"split_indices":[10,13,0,0,0],"split_type":[0,0,0,0,0],"sum_hessian":[9.718876E1,8.8772705E1,8.41606E0,6.5186264E1,2.3586435E1],"tree_param":{"num_deleted":"0","num_feature":"15","num_nodes":"5","size_leaf_vector":"1"}},{"base_weights":[-4.307147E-2,-9.641526E-3,1.2452343E-1,-5.6302864E-3,5.5848532E-3],"categories":[],"categories_nodes":[],"categories_segments":[],"categories_sizes":[],"default_left":[0,0,0,0,0],"id":119,"left_children":[1,-1,3,-1,-1],"loss_changes":[9.223385E0,0E0,6.1957088E0,0E0,0E0],"parents":[2147483647,0,0,2,2],"right_children":[2,-1,4,-1,-1],"split_conditions":[-9.788003E-1,-9.641526E-3,-9.0682805E-1,-5.6302864E-3,5.5848532E-3],"split_indices":[6,0,10,0,0],"split_type":[0,0,0,0,0],"sum_hessian":[1.04157555E2,2.575989E1,7.839767E1,1.7812477E1,6.0585186E1],"tree_param":{"num_deleted":"0","num_feature":"15","num_nodes":"5","size_leaf_vector":"1"}},{"base_weights":[-0E0,7.561369E-3,-9.93032E-2,6.611537E-3,-3.770924E-3],"categories":[],"categories_nodes":[],"categories_segments":[],"categories_sizes":[],"default_left":[0,0,0,0,0],"id":120,"left_children":[1,-1,3,-1,-1],"loss_changes":[4.5166974E0,0E0,4.1255426E0,0E0,0E0],"parents":[2147483647,0,0,2,2],"right_children":[2,-1,4,-1,-1],"split_conditions":[-1.517781E0,7.561369E-3,-1.0561153E0,6.611537E-3,-3.770924E-3],"split_indices":[14,0,13,0,0],"split_type":[0,0,0,0,0],"sum_hessian":[1.0355135E2,1.5933863E1,8.761749E1,8.952102E0,7.866539E1],"tree_param":{"num_deleted":"0","num_feature":"15","num_nodes":"5","size_leaf_vector":"1"}},{"base_weights":[-1.2916716E-2,-1.2715125E-1,1.031656E-2,8.431445E-4,-1.1490647E-2],"categories":[],"categories_nodes":[],"categories_segments":[],"categories_sizes":[],"default_left":[0,0,0,0,0],"id":121,"left_children":[1,3,-1,-1,-1],"loss_changes":[6.692362E0,8.108613E0,0E0,0E0,0E0],"parents":[2147483647,0,0,1,1],"right_children":[2,4,-1,-1,-1],"split_conditions":[1.5603987E0,4.3458286E-1,1.031656E-2,8.431445E-4,-1.1490647E-2],"split_indices":[10,4,0,0,0],"split_type":[0,0,0,0,0],"sum_hessian":[9.846106E1,8.814454E1,1.03165245E1,6.8237274E1,1.9907265E1],"tree_param":{"num_deleted":"0","num_feature":"15","num_nodes":"5","size_leaf_vector":"1"}},{"base_weights":[3.605848E-2,-3.422034E-1,1.6751932E-1,-1.1527459E-2,1.6710466E-3,1.0826543E-2,-9.066303E-4],"categories":[],"categories_nodes":[],"categories_segments":[],"categories_sizes":[],"default_left":[0,0,0,0,0,0,0],"id":122,"left_children":[1,3,5,-1,-1,-1,-1],"loss_changes":[6.023591E0,3.9638062E0,8.100851E0,0E0,0E0,0E0,0E0],"parents":[2147483647,0,0,1,1,2,2],"right_children":[2,4,6,-1,-1,-1,-1],"split_conditions":[-9.065835E-1,4.5810238E-1,-4.5271907E-3,-1.1527459E-2,1.6710466E-3,1.0826543E-2,-9.066303E-4],"split_indices":[10,13,3,0,0,0,0],"split_type":[0,0,0,0,0,0,0],"sum_hessian":[1.05271675E2,2.1467394E1,8.380428E1,1.33110695E1,8.156324E0,2.7071144E1,5.6733135E1],"tree_param":{"num_deleted":"0","num_feature":"15","num_nodes":"7","size_leaf_vector":"1"}},{"base_weights":[9.402753E-2,2.4328023E-1,-2.2167076E-1,-2.612854E-3,1.2695285E-2,-9.11038E-3,4.345679E-3],"categories":[],"categories_nodes":[],"categories_segments":[],"categories_sizes":[],"default_left":[0,0,0,0,0,0,0],"id":123,"left_children":[1,3,5,-1,-1,-1,-1],"loss_changes":[5.6310124E0,1.3002289E1,4.9749813E0,0E0,0E0,0E0,0E0],"parents":[2147483647,0,0,1,1,2,2],"right_children":[2,4,6,-1,-1,-1,-1],"split_conditions":[4.943815E-1,-1.8239672E-1,1.3068249E0,-2.612854E-3,1.2695285E-2,-9.11038E-3,4.345679E-3],"split_indices":[3,4,3,0,0,0,0],"split_type":[0,0,0,0,0,0,0],"sum_hessian":[9.9747406E1,7.1280304E1,2.8467104E1,3.821846E1,3.3061848E1,1.9837442E1,8.629661E0],"tree_param":{"num_deleted":"0","num_feature":"15","num_nodes":"7","size_leaf_vector":"1"}},{"base_weights":[-9.7005285E-2,1.4547947E-1,-2.9214525E-1,8.381994E-3,-2.1939424E-3,-7.87109E-3,3.2389304E-3],"categories":[],"categories_nodes":[],"categories_segments":[],"categories_sizes":[],"default_left":[0,0,0,0,0,0,0],"id":124,"left_children":[1,3,5,-1,-1,-1,-1],"loss_changes":[5.959978E0,4.5563974E0,3.9766645E0,0E0,0E0,0E0,0E0],"parents":[2147483647,0,0,1,1,2,2],"right_children":[2,4,6,-1,-1,-1,-1],"split_conditions":[-2.3477627E-1,-3.5377115E-1,1.2532997E0,8.381994E-3,-2.1939424E-3,-7.87109E-3,3.2389304E-3],"split_indices":[1,12,13,0,0,0,0],"split_type":[0,0,0,0,0,0,0],"sum_hessian":[1.0577131E2,4.5900414E1,5.98709E1,2.1250887E1,2.4649525E1,5.1722168E1,8.148732E0],"tree_param":{"num_deleted":"0","num_feature":"15","num_nodes":"7","size_leaf_vector":"1"}},{"base_weights":[3.502446E-2,3.7716663E-1,-1.4747776E-1,-6.1794044E-4,1.2121457E-2,-1.3311159E-2,2.4762896E-3],"categories":[],"categories_nodes":[],"categories_segments":[],"categories_sizes":[],"default_left":[0,0,0,0,0,0,0],"id":125,"left_children":[1,3,5,-1,-1,-1,-1],"loss_changes":[7.156716E0,4.5021887E0,1.1358313E1,0E0,0E0,0E0,0E0],"parents":[2147483647,0,0,1,1,2,2],"right_children":[2,4,6,-1,-1,-1,-1],"split_conditions":[-6.839092E-1,-1.0501692E0,-7.5387996E-1,-6.1794044E-4,1.2121457E-2,-1.3311159E-2,2.4762896E-3],"split_indices":[5,5,6,0,0,0,0],"split_type":[0,0,0,0,0,0,0],"sum_hessian":[9.391862E1,3.1237112E1,6.2681503E1,1.2453416E1,1.8783695E1,1.8314058E1,4.4367443E1],"tree_param":{"num_deleted":"0","num_feature":"15","num_nodes":"7","size_leaf_vector":"1"}},{"base_weights":[-1.4829459E-2,-2.6173347E-1,1.7743026E-1,5.838689E-3,-9.511154E-3,-3.730541E-3,7.85887E-3],"categories":[],"categories_nodes":[],"categories_segments":[],"categories_sizes":[],"default_left":[0,0,0,0,0,0,0],"id":126,"left_children":[1,3,5,-1,-1,-1,-1],"loss_changes":[5.64696E0,7.750257E0,5.8875484E0,0E0,0E0,0E0,0E0],"parents":[2147483647,0,0,1,1,2,2],"right_children":[2,4,6,-1,-1,-1,-1],"split_conditions":[-4.14478E-1,-1.3040843E0,-6.738201E-1,5.838689E-3,-9.511154E-3,-3.730541E-3,7.85887E-3],"split_indices":[13,12,6,0,0,0,0],"split_type":[0,0,0,0,0,0,0],"sum_hessian":[9.937865E1,4.4359875E1,5.5018776E1,1.013981E1,3.4220062E1,1.9186739E1,3.5832035E1],"tree_param":{"num_deleted":"0","num_feature":"15","num_nodes":"7","size_leaf_vector":"1"}},{"base_weights":[-0E0,-3.177591E-1,1.6351391E-1,1.5531627E-4,-1.2338336E-2,-4.5772297E-3,7.3939506E-3],"categories":[],"categories_nodes":[],"categories_segments":[],"categories_sizes":[],"default_left":[0,0,0,0,0,0,0],"id":127,"left_children":[1,3,5,-1,-1,-1,-1],"loss_changes":[6.5765057E0,4.8988514E0,7.4789333E0,0E0,0E0,0E0,0E0],"parents":[2147483647,0,0,1,1,2,2],"right_children":[2,4,6,-1,-1,-1,-1],"split_conditions":[-9.3167174E-1,-4.790129E-1,-4.0681458E-1,1.5531627E-4,-1.2338336E-2,-4.5772297E-3,7.3939506E-3],"split_indices":[6,5,13,0,0,0,0],"split_type":[0,0,0,0,0,0,0],"sum_hessian":[1.06898605E2,3.4606903E1,7.229171E1,1.9170452E1,1.5436451E1,2.2890417E1,4.940129E1],"tree_param":{"num_deleted":"0","num_feature":"15","num_nodes":"7","size_leaf_vector":"1"}},{"base_weights":[-8.222438E-2,-3.842589E-1,1.8298216E-1,-1.5020943E-2,-3.8832074E-4,1.24423755E-2,-1.5392558E-3],"categories":[],"categories_nodes":[],"categories_segments":[],"categories_sizes":[],"default_left":[0,0,0,0,0,0,0],"id":128,"left_children":[1,3,5,-1,-1,-1,-1],"loss_changes":[9.552317E0,6.532378E0,8.086207E0,0E0,0E0,0E0,0E0],"parents":[2147483647,0,0,1,1,2,2],"right_children":[2,4,6,-1,-1,-1,-1],"split_conditions":[-5.0187655E-2,-8.7326837E-1,-5.0028954E-2,-1.5020943E-2,-3.8832074E-4,1.24423755E-2,-1.5392558E-3],"split_indices":[4,7,2,0,0,0,0],"split_type":[0,0,0,0,0,0,0],"sum_hessian":[9.98397E1,4.655282E1,5.328688E1,1.7096899E1,2.945592E1,1.6581888E1,3.6704994E1],"tree_param":{"num_deleted":"0","num_feature":"15","num_nodes":"7","size_leaf_vector":"1"}},{"base_weights":[-1.0925731E-2,-3.1975898E-1,1.9383778E-1,5.818978E-4,-1.3120424E-2,-4.5539415E-3,8.615642E-3],"categories":[],"categories_nodes":[],"categories_segments":[],"categories_sizes":[],"default_left":[0,0,0,0,0,0,0],"id":129,"left_children":[1,3,5,-1,-1,-1,-1],"loss_changes":[7.334247E0,6.3440256E0,7.7673044E0,0E0,0E0,0E0,0E0],"parents":[2147483647,0,0,1,1,2,2],"right_children":[2,4,6,-1,-1,-1,-1],"split_conditions":[-4.073919E-1,-6.839092E-1,-6.738201E-1,5.818978E-4,-1.3120424E-2,-4.5539415E-3,8.615642E-3],"split_indices":[13,5,6,0,0,0,0],"split_type":[0,0,0,0,0,0,0],"sum_hessian":[9.616646E1,3.827209E1,5.7894367E1,2.135983E1,1.691226E1,1.94402E1,3.8454166E1],"tree_param":{"num_deleted":"0","num_feature":"15","num_nodes":"7","size_leaf_vector":"1"}},{"base_weights":[-4.797017E-2,-2.0059414E-1,2.7574503E-1,3.979968E-3,-6.498695E-3,-1.1118557E-3,9.044788E-3],"categories":[],"categories_nodes":[],"categories_segments":[],"categories_sizes":[],"default_left":[0,0,0,0,0,0,0],"id":130,"left_children":[1,3,5,-1,-1,-1,-1],"loss_changes":[5.8334885E0,4.7689524E0,2.7738287E0,0E0,0E0,0E0,0E0],"parents":[2147483647,0,0,1,1,2,2],"right_children":[2,4,6,-1,-1,-1,-1],"split_conditions":[5.795019E-1,-1.0815414E0,-6.798896E-1,3.979968E-3,-6.498695E-3,-1.1118557E-3,9.044788E-3],"split_indices":[13,12,6,0,0,0,0],"split_type":[0,0,0,0,0,0,0],"sum_hessian":[1.0051599E2,7.273524E1,2.7780752E1,1.4070544E1,5.8664692E1,9.828563E0,1.7952188E1],"tree_param":{"num_deleted":"0","num_feature":"15","num_nodes":"7","size_leaf_vector":"1"}},{"base_weights":[3.185783E-2,-3.3758727E-1,1.637031E-1,-1.2326139E-2,6.2836823E-4,1.2168009E-2,-2.0645158E-3],"categories":[],"categories_nodes":[],"categories_segments":[],"categories_sizes":[],"default_left":[0,0,0,0,0,0,0],"id":131,"left_children":[1,3,5,-1,-1,-1,-1],"loss_changes":[5.330129E0,3.6366725E0,1.1018558E1,0E0,0E0,0E0,0E0],"parents":[2147483647,0,0,1,1,2,2],"right_children":[2,4,6,-1,-1,-1,-1],"split_conditions":[-9.0682805E-1,1.3800436E-1,-4.5271907E-3,-1.2326139E-2,6.2836823E-4,1.2168009E-2,-2.0645158E-3],"split_indices":[10,6,3,0,0,0,0],"split_type":[0,0,0,0,0,0,0],"sum_hessian":[9.3785446E1,1.8978E1,7.480744E1,8.919333E0,1.0058666E1,2.5146662E1,4.966078E1],"tree_param":{"num_deleted":"0","num_feature":"15","num_nodes":"7","size_leaf_vector":"1"}},{"base_weights":[-3.626539E-2,2.8609568E-1,-2.3180847E-1,-1.0673297E-3,1.031568E-2,-1.3275156E-2,2.8144146E-4],"categories":[],"categories_nodes":[],"categories_segments":[],"categories_sizes":[],"default_left":[0,0,0,0,0,0,0],"id":132,"left_children":[1,3,5,-1,-1,-1,-1],"loss_changes":[7.393282E0,4.073119E0,8.651409E0,0E0,0E0,0E0,0E0],"parents":[2147483647,0,0,1,1,2,2],"right_children":[2,4,6,-1,-1,-1,-1],"split_conditions":[-6.839092E-1,-6.1661583E-1,-4.14478E-1,-1.0673297E-3,1.031568E-2,-1.3275156E-2,2.8144146E-4],"split_indices":[5,11,13,0,0,0,0],"split_type":[0,0,0,0,0,0,0],